-5.760823625552798
-8.654354010920645
-7.689788404788234
-6.004330217141186
-4.191902464371406
-3.7550895714962302
7.710912357992031
-3.5283100680546777
3.169015415748225
-5.518674549445552
-3.575323557650165
-3.2332164503708167
-4.799988675380533
-5.689220325494392
5.681859339228259
-0.10781668324782943
-1.8722470249210936
-2.1943476198742227
1.3744055325414797
0.428559136472708
-1.3864309183051071
-2.380489956992699
-1.826724688648919
2.154077906872979
-0.23924575358247785
0.41333055466949725
0.5712442903764755
4.539597554057804
5.410190862091428
-3.3075160869853057
-5.435364182324215
-7.015700355488883
6.830403233204773
-3.16793712085465
-3.4180617593230127
5.169311401425807
-1.330487950730098
-1.2348006662960682
-0.26890308678573777
-2.622011251239079
-2.5132280086855228
1.3019161677764393
-1.088425505759093
0.3545448949469879
0.20753156044548182
-1.9329486421547224
-1.8978821072183902
1.637251811988605
-3.4439912345335006
1.175640534246167
-2.1143232126686677
-0.020631238409084183
-3.9229211366338617
2.822360842796572
-5.699434439558876
1.5827187568671022
-3.0357578427386405
1.0854970909727821
-4.246992856993216
2.332903393825504
-0.803031376865975
-2.457452107592775
-1.3795431461136196
-1.3406246001385418
3.2444072035601663
-2.6117083219444677
-4.404068866397627
0.5873998549580574
-2.559851504990732
-0.4603546110790875
-3.7657609558093297
1.973543945939764
-3.467208115352396
-0.25145184355946804
-2.7222379253593623
-0.3890346966153532
-2.458778724528281
3.73250832640457
2.580687916080708
-0.09922031367156334
3.174680264362787
-0.5548011587476992
0.6810823394904916
-3.5848677837304743
-1.2222186535183763
2.4919354305289216
2.9379841791104107
-2.1569535216629574
-2.649797945790343
-3.355195224812476
-0.4051738745593403
-1.9193374565009238
-2.4323739331731016
0.2621801736437051
0.30847413193992396
1.1280398994249345
-0.3069603490232021
1.2385161139804177
0.8581976569969103
-2.50469708229212
-3.0089467004248265
-0.9317485766695144
-1.01124102534694
-0.6269199767868456
-1.1368581730902507
0.5312671522102457
1.323346201806262
-0.02783805190448124
-1.5835292139038022
3.5429976752564127
4.191074313507253
1.2150961090822852
1.6702891730082652
-0.29370585340285543
-1.3211435113818943
-2.0500906643059946
-1.7834842547187206
1.1356887758051852
2.364765740508318
3.22565604889576
0.27887916692738113
0.9178535109776399
-0.06785319280980984
-0.38627395663938424
-0.13901435315303642
0.896777448305007
-3.7372559365383
-2.1230635367023045
-3.8507237013719027
-0.6086550066964073
3.1220029568182075
-3.2091121061317662
-4.384437845841715
-2.716858348294312
-3.570033471171441
-1.6240549868885439
1.847386897290258
-4.3691363366199445
0.1461056021134489
3.6821463044489446
-0.11526636907529433
0.31341014004207923
-2.299223729168357
0.6024210927776233
1.3758763601647732
3.774180612112819
0.5614461446847365
-0.9061064602560408
-2.8389743095320426
1.5355399311983005
1.9214275324326344
3.757427803558104
1.5321167723231637
-0.04213339621540575
-2.221205080628728
1.28034054908003
-2.834271336751058
3.515141959757253
3.3660716483482744
4.43700673909692
7.515656005821714
1.3507534248355957
-2.8142117652570544
3.17651535622481
2.1272142651753914
-4.079272245894809
5.015563710529689
-9.009399369029847
-3.0188756194343824
-4.256506005554736
-17.245995780269247
-2.9632407903389906
4.779684362388181
2.505766980253162
