-0.014354480108768695
0.3941025092110354
0.9058802013479684
0.9824648053543179
-0.9615135225071948
0.11222497207094298
0.22136288866844434
0.5552932571841034
0.7013745609808634
0.4593018056797591
-0.5919785538290451
-0.3972491693530147
-0.20471103789715425
0.669991715841095
-0.6422188313466951
0.09576640680312283
-0.6364076589187294
0.16378320376883057
0.9082884598983134
-0.5921745947509349
0.5905635417447456
-0.49581080539375416
0.1745928994291908
-0.30300693632821457
0.7530467309845272
-0.3127303588464694
-0.3102555084442493
-0.560569126044729
0.6059014303434661
-0.3428479644355713
0.20303924867201018
0.9130345480676694
-0.035660141636865386
-0.5033664571012663
-0.47023082551642653
-0.8420611671340748
-0.40874164550367303
-0.3010563989109861
-0.8059446318761516
0.993262587226315
-0.19871144346108913
0.8832455303747613
0.22786444055353505
-0.8795098353962788
-0.4263708188158143
-0.2529920974536478
0.56286070448351
-0.32261979145607556
0.5084605494698821
-0.7527776586900466
-0.5196793952034869
0.3048186666521839
-0.6843075487786859
-0.9396860535018281
0.9136467554594963
0.8634196741355047
0.7173371735074863
0.8912848669344376
0.14473660133606475
0.6961397930553109
-0.7789282488758223
-0.533363943530232
0.4987035975656168
-0.9460074539597297
0.09406652582260033
-0.36249949835566053
-0.884325291207481
-0.012965405906026269
-0.7518933777201339
0.42507619055177726
-0.34150581942033037
0.3487696557435707
0.14960188385186948
0.9789313285558328
0.21905511380118703
-0.08258601716435177
-0.12309315899207474
-0.25733503449077066
0.38636241678976035
-0.23644474052784137
0.49390507272893913
0.21059854908539496
-0.734619545876355
0.7280971847942875
-0.6503304733297434
0.4920480020914675
-0.17036523940594497
0.8102343366676766
-0.20233122441733128
-0.14681259853097822
-0.11193767081627777
-0.41482748266866293
0.527126938597842
-0.8769682890269359
0.6454933190636376
0.9065939890627602
0.21684884267768806
0.7562254779467609
-0.6146652859276512
-0.8059134788006845
0.1470274723719927
0.8267977565431296
0.12476991717244328
0.63063727991407
-0.6680175977697541
0.5613081187530078
0.4668645703383815
0.5519242460755461
-0.10724939320038235
0.1990500639919736
0.924690421287472
-0.9573754665730136
-1.004787908366501
-0.24375448775019365
-0.8236792890523164
-0.4036178709165054
-0.6623552395254986
-0.7592127236625639
-0.11242709691383493
-0.006292413361203789
0.7160345210167495
-0.8219190469176154
-0.36017481710789484
-0.8699362646035836
-0.3100813531832798
0.0078558686501976
-0.37920210815634536
-0.5004367152771527
-0.22960318032078278
0.17625043650908379
0.8709567016941033
-0.5301905615114817
0.5833989883201397
-0.32869330392678775
0.34641588730864453
-0.6963208973665739
0.3215000902702631
-0.610519832773566
-0.33204301937912545
-0.0998514570790036
0.672549079235204
0.08258021587385452
0.7865130050749514
-0.12433644973021572
-0.5695893240522196
0.83914351611095
-0.6255931520943416
-0.15681162348984756
0.8986143772713546
0.6257520187689436
-0.6658693576385929
-0.3380863608355182
0.36770508325831924
-0.8616123413824608
-0.27256204452886484
-0.48773756503931726
-0.44719756863015164
-0.7171942394274041
-0.25000291732949825
-0.641398497114714
-1.0126413385559265
0.4226542116509836
0.930942648615001
0.3688190994165036
-0.07820030146349764
0.5881649810503181
-0.09574113755756879
0.40767917086115363
0.15737436198851287
-0.9002632632030049
-0.7394530421152441
-0.7620306802908738
-0.8454521067378352
0.31056281066921326
0.1758232259645155
-0.5644173354977399
0.4544901608959522
0.5718580918098098
-0.45400475073200824
0.24509068038404272
-0.052381632719193175
-0.33317431348662463
-0.061583778140712524
-0.6381047572606271
0.5792971038426055
0.812107163647922
-0.3335572937587789
0.6847093852290617
0.5267207512557782
0.5304464788770653
0.9622268196857395
-0.6726360085779883
-0.8737672025952129
0.03567314558979061
0.1534522422628495
0.6511913357675216
-0.05967452928292078
0.40278777119815284
-0.7190624440770436
-0.1817718645044332
0.7488809850157844
0.6782397838831967
-0.9004729971875184
0.752443518043345
0.9598569260646739
0.9125525770120271
-0.4299848317733781
-0.6823809152568959
0.30598222499038114
0.16398896149390677
-0.518151647117735
0.24355696370810279
0.25031679431752335
0.4490828169213268
0.6340170277335339
0.36833281893280323
-0.5930175998706192
0.5409822370419779
-0.3924581667909443
0.9536259907686274
-0.3470154939306875
-0.9715873346248126
0.8961150237079143
0.739747982355886
0.456021321739375
0.6925939759276893
-0.45781305648658
-0.9015746828545443
-0.9300632959708317
0.7363331758106302
-0.6815690556151704
-0.5882609822868516
0.7227510560418311
-0.9057677489488892
-0.5450742993631436
0.5754934783411757
-0.5765671277750384
0.16254641992458327
0.11074361014395782
-0.37459938332182025
-0.5734254343421106
-0.6018348880393433
0.6791306568444432
-0.9081218235752437
-0.10437105851307028
-0.4634004034520394
-0.815788292437782
0.2725388278066364
-1.0206873221423773
0.03066438195131299
-0.839987177976009
0.2041644478781829
0.006444698804626242
0.8027054867674389
-0.1289553388243182
-0.43733269733164903
-0.23602864696958611
0.7793610797342498
-0.3290355629525169
0.38915153120373075
0.6669279929353528
-0.6042475497648496
-0.7242968417577932
-0.46082776813326237
-0.6001774402340379
-0.5339662301090426
-0.34616529542418306
0.48576145771340623
-0.6479308680916827
0.10485405281892173
0.8017649553558175
-0.38706504503771433
-0.4597630536280744
0.6989584628052579
-0.5388040268146593
-0.46987228985353335
-0.11856688977724889
-0.6018842084664437
0.5006177180273849
-0.5726344615068546
-0.09325276632100182
-0.21223467513587108
-0.266691026079969
-0.051413710901475985
0.5121174828800032
-0.634011512283272
0.5566223440787348
-0.44344470192967433
-0.64549352170726
-0.445841967064658
-1.0009043742570565
0.5065040632910887
0.31584850209595083
0.7409872898855847
-0.6930827155982926
-0.06393976415456046
-0.7759183738719841
-1.0095271689994496
-0.7699677850687038
-0.3067005329484131
0.8649524219313262
-0.45217569504702326
0.2407240732545549
0.7440031897685656
-0.47665239341109483
-0.14562594572422055
-0.2517275397844896
-0.008658071083828827
-0.507150472994063
-0.07907890295812614
-0.7081474298572199
0.282999197315745
-0.14999083658091092
0.039442355445985636
0.23094426795139544
-0.6873627466270352
0.3332388744182492
-0.32104265522403486
-0.5537414297734762
-0.5638735288884102
-0.8514514272870287
0.03438446378653503
0.02332385102575556
-0.5400167562696229
0.8268123719775985
0.3932861483360619
-0.2939556681556321
-0.9188532422224034
-0.9515103363058245
0.07253634842045939
-0.5837527783057044
-0.39859380751680185
0.32044685237927595
0.2888058760107143
0.6767568063510098
0.3281855087571361
-0.5134511720638696
0.7109470586384633
-0.5059330169014212
-0.7599417033023732
0.022478446140270995
0.4559834758917101
-0.26371087212121214
-0.8652893770902523
-0.8990405097769284
-0.3284657476835196
0.7659782215197792
0.22689592466877667
-0.28105294337002984
-0.13646392775811303
-0.21961808563330446
0.6490695499161554
-0.8388697397438105
-0.45730618912640775
0.3460074697108092
-0.0032939054507548646
0.8872098191935794
0.3232287331764288
0.12625324094385076
0.6627718663491533
-0.5284705947571063
-0.7050868420592779
-0.7001797721760165
0.8260234389069772
-0.6481148134704281
0.8264497251155071
0.7227254197313769
-0.2554058610584334
-0.39380650111630683
0.27247352530372143
-0.04730828341004793
-0.4333929587610527
0.8752827418534183
-0.551319718710529
0.6488600120022339
0.32829993180804184
0.2149339385060142
-0.7340740804848359
-0.9436796824873352
0.3889322657771953
-0.45443911656000585
0.17241040810779057
-0.07419203861649377
-0.009437415059700065
0.37557631532982916
0.0870458233782394
0.3752797796474557
-0.6823843158075565
-0.9446896547416256
0.6196345793337944
-0.04474222558768197
-0.4765148481876384
-0.7855319004853951
-0.656621573239542
0.33731330408362403
0.6765972482403647
0.35978030663289357
-0.1322949713129926
0.5621342533462971
0.8009321922122324
-0.9822787565610239
-0.7595928439501282
-0.5316960258698699
0.41929103553682484
0.5232628658722411
0.7136282685079606
0.32571335308369004
-0.9486693136279257
0.448287448825756
0.14636362684769832
-0.8674968529624985
-0.814967844631206
0.8891418500519334
-0.5077923202554052
-0.8548234228522841
0.14611299138287828
0.19770691980203983
-0.1743826579248683
0.8706745286019848
0.807742254373669
0.945986372769127
-0.07911775843711391
0.524368586255683
0.9568491022000205
-0.8456305203518495
-0.7159635776525323
-0.3281066700391844
-0.9325608629798
0.8578919424235192
-0.9957951976363487
-0.4947630868311771
-0.9313854438555949
-0.19448777013956675
-0.18710814145050728
-0.4017736200060511
0.6083877030512331
-0.3529276054300389
-0.2932076428866754
-0.956963863507978
0.522019577096139
0.5336633204239589
-0.004895527830680183
-0.9417170097360361
-0.01586455077504495
-0.290768038491476
-0.18674657380243115
-0.6348652783509902
-0.543610542957871
0.3656297743618254
0.3729746118763289
-0.06521583730405019
0.37205585832117033
0.7767486489323562
-0.4567958895787777
0.2601905976531266
-0.021190741833682743
0.07251129309413132
-0.8012316645354826
-0.586254526092865
-0.44124848162821245
-0.12259695796115942
-0.7426208537636884
0.20854549974238665
-0.5475978852388841
-0.8877278357046138
0.957463800306101
-0.11397413251013667
-0.9323154148143831
-0.9896612794251654
0.17226994217582786
0.37955846513178515
-0.24036628516650166
-0.12275951575195254
0.05193092290035433
0.1914867470370831
0.9402226127945287
-0.4827217329930891
0.876624573029696
-0.3600425027518793
-0.5697055325333761
-0.4698734773519354
-0.6818876103835766
-0.5432106118917843
-0.3850858158448857
-0.707349069404507
-0.6314229303978292
0.41390996320240814
-0.39168202231263033
-0.3198335875428361
-0.46184685147534293
-0.9230445221985211
-0.14659886334509192
-0.6170117707561619
0.5575651222103273
-0.7485760491754369
0.23686776706367052
-0.318332897638414
-0.5245576773537353
-0.8691880483323458
-0.187532874955767
-0.5448537066969364
0.24964533885928747
-0.9277443398308559
-0.24250448588411636
0.5413431793684877
0.9387481707950186
0.061606177520787876
0.30136341644007203
0.9100182495709996
0.7352978347028254
0.9346016713319593
-0.746257798367019
-0.05524054368264075
0.2862137065753976
0.922849581722718
0.9593102678664766
0.2947311179877258
0.9477614780476559
0.7149128105132067
-0.8511870537325736
0.8989696285533647
-0.9290390443938996
-0.14736035010925747
-0.3406502072051836
-0.5730360301519875
-0.41902213861015625
0.5124007820091835
-0.42510426796018036
-0.7298609457178898
0.24715087173357544
-0.9878055375406863
-0.20020877804765128
0.9157736559872446
-0.15604993019224297
-0.7933330303648765
0.27247039758625485
-0.5267729412656997
0.4994178902096398
0.9464577758987383
0.1887364202703974
-0.6700161661099223
0.9463457086082993
-0.1518337964776153
0.5716722569997281
-0.8386143908905888
0.9765036420540119
-0.7204792794167145
-0.0712900509798735
-0.38549771465812566
0.30776119353205283
0.3523669881220088
-0.8910336683017912
0.4294793549161283
0.6837817867831354
-0.171591741235156
0.5314878435619174
0.8823346191233119
-0.034809000256625415
0.5215347709898233
-0.9430783908208421
0.12895721608826616
0.3362557369601723
0.3547848115930576
-0.9161405353685106
-0.39196235014131725
-0.5560085288522106
-0.9531192283280545
-0.8817058111488015
-0.5920685730329951
0.0339182671048121
-0.750385152583513
0.9351252713748635
-0.5525795268178589
-0.6227879271925998
0.047801773769313514
0.9825793826546464
-0.2264763525345618
-0.5648431095973034
-0.5690395824157417
-0.719931682898171
0.6914418488274864
0.06749662801140888
0.5790812255726088
0.9163401204306689
-0.23370424397206838
0.6541737120052238
-0.24664829918899756
0.7029837795120151
-0.4205061192468749
-0.7796280294878766
0.9365375650944796
0.8058215520159789
-0.5862517753034595
0.03536273201912142
-0.1991653787589376
-0.5885000738982445
-0.3630146016368577
0.7734268051460294
0.3614469983521916
-0.2602053607991845
-0.010716758694999332
-0.0933783854690782
-0.5803899952794754
-0.20588734600994485
0.0995224726617562
-0.48854196410718037
-0.8996503312324128
-0.21646261930150298
0.025897436316921693
0.020284181005075435
-0.885417359297863
0.05150369424854444
0.4713129104797882
-0.9722785607466172
0.49336835136476126
0.6484185126041887
0.7940596386090643
-0.500209703147027
0.8103949569903867
-0.08290261384692095
-0.3293915427646796
0.17618360582043827
0.9183339760993708
-0.11374927992790924
-0.439830924131301
0.2473765418719158
-0.7979143349274906
-0.6673472876254226
-0.5428456263574457
0.5688674341876638
0.12922974014970803
-0.43509478389324996
-0.22803785338099336
0.5422091908801954
0.2127186580987787
0.30432254932261876
-0.3788266613440403
-0.07730376629048208
-0.8304183148759011
0.381780913315917
0.6204869660532514
0.31500532977204027
0.6375679437115932
0.8738920835384011
0.020117432987221424
-0.16131407233822212
-0.9721676991104673
-0.21132219525489845
-0.19721487900321286
0.21703644360902224
-0.4128957091258956
0.9607091779219318
-0.8189678578922135
0.49185589684635567
0.37373043431458947
0.6989049701876994
-0.128097055312142
0.30076588094269935
-0.9253534253499117
0.192349377870896
0.44049056220731514
0.2758177773615243
0.848641258582227
0.7909117299740497
0.5313515393518075
0.7805598307669365
-0.42929785918367713
0.15998554548202354
-0.17147245982565926
0.02590722722744999
0.43755247602583913
-0.8226219704032234
0.17893705325771628
-0.5725101875091849
0.4323953499219721
0.09800555744203031
-0.6086802246574274
0.7506391309703457
-0.5277123753298097
0.021146187323840965
0.12525383114342334
0.023259510564798618
0.804999955100706
-0.11561430668364234
0.16650914285289506
-0.6615090022145801
-0.19388271415966823
0.4020000775386491
-0.13052018521104636
0.38933992968075765
-0.8777184376355232
-0.06306457611773035
0.3146015646806091
0.6351875674425577
-0.7193382331620841
-0.5110497730061522
-0.10449133004008652
0.08192967953621311
0.020307383424861918
-0.6730680643902035
0.1607369714749827
-0.7208091312278289
-0.9086986802371705
0.8358601889436234
-0.7745068740772569
0.85269402370306
-0.08741554973814307
0.037585824981305395
-0.7083507169347014
-0.8063555751567681
0.4191891953732308
0.7729955202647084
-0.8619672230596156
-0.5065232694029764
-0.8701391070950318
0.3223761959233027
-0.6669326433690991
-0.12160442498636272
0.12649236285328555
0.27893702755102
-0.32096833068434477
0.5845620414206042
0.6781848475955736
0.0201739685287068
0.6442822785679791
0.6362335620999884
-0.09705304547770009
-0.6797403247112284
0.8929408744195417
-0.11747158891568943
0.43502524859931535
0.9580630045533218
0.7678322079776311
-0.2863021742468572
-0.3490902076676174
0.19497123733007138
0.5821967717829494
-0.43059193587344935
0.2480188294373746
-0.0284668627090454
0.9784833612733905
0.2634690246648305
-0.3926983573307218
-0.8795527257398573
-0.10296386911238778
-0.16516319061599083
-0.7684247167493342
0.8064136157671818
-0.8830913172549054
-0.9000982296811323
-0.2510163364641744
-0.1556803145109119
0.61047673818964
-0.07357288597902377
-0.016960550024790563
0.3231423761410282
-0.5613150413379511
0.8969025817388262
0.4094090189428581
0.04442958428803416
-0.4370819453349105
0.8493940120428047
0.4185795242676495
0.7802423663861674
-0.08898002857634181
-0.10106539601703152
-0.10552355826515644
0.7629366846003433
0.46057557766270335
-0.7903245666908081
-0.16687995198515215
-0.3992047755728035
0.7131811824406059
0.5052593765489481
-0.5682521788793471
0.4656747259758265
-0.9316095981199441
0.010676939348185211
0.3753806852715218
0.13813307251581403
-0.5901306443418906
-0.9678295340885914
-0.7139911702745062
-0.3574569995932778
0.4241548046909387
0.6776734255719407
0.17125834548816743
-0.763801417881288
-0.4118342291785159
-0.35791606672815335
0.36230951548915064
-0.06952529699092445
-0.496022643594006
-0.9839819729229423
-0.931383728802331
0.7064409232652785
-0.4125402553264485
0.6239152139571694
0.355484679046254
-0.6983444464273626
-0.4309454633597011
-0.9676993745992333
0.3622140222117619
0.8421929948043418
0.8669911991219981
0.4546135878531926
-0.011237198217416302
-0.6578812854224345
-0.2668674249262321
0.22738675433574812
-0.5661185790617829
-0.5079433032269042
-0.4301729353372979
-0.4422941609411699
-0.5067996711963693
0.07631103656670078
0.9982218318077006
0.2914981898140316
-0.9398415319830192
-0.4839363762882851
0.31405082703924525
-0.678128598950125
-0.41991570843671233
-0.8068548564391608
0.2956066492698995
0.33566609743112996
0.574304912276405
-0.8999210992943616
0.2179233634660859
-0.07679398798007198
0.10406315609037146
-0.6178797412375245
-0.6382340076037881
-0.1486253107247636
-0.8100494645898951
0.3749507030707383
-0.6051753871628031
-0.818624252301904
-0.16140250535026898
-1.009875133273591
0.12427649934600099
-0.3880624507703687
0.6896004397870363
0.7522711580263448
-0.8132965670709323
1.0379104178545275
-0.634280958434069
-0.630464384374495
0.4837985732648441
0.9216015391372611
0.3072979808575395
0.9431537155361536
0.8065145851822395
-0.6919481703477223
-0.38310849729429364
-0.4677131165130903
-0.6489273426578076
-0.4472112472209157
-0.2811759378605292
-0.030191663696550276
-0.7160383980693986
-0.20238771875569375
-0.8053502198535321
-0.7213701086986138
0.44117678899739493
-0.39596580691771116
0.35755411924387154
0.537429734491039
-0.15160014635634506
-0.8215601422905878
-0.4473289126500882
-0.6327546854188416
-0.506224214696699
-0.12284071003250328
-0.31460086756816613
0.0580448081706842
-0.9863600480923205
-0.5378671272120975
0.7949929912483082
-0.5997016134735395
-0.0673052058572625
0.134036113489863
0.3012207791812776
-0.29231563473351274
0.5459031157861006
-0.5559245054264366
-0.3702049930091714
0.6898936495204776
-0.7556897335723219
-0.11945284940251936
0.5320104632172077
-0.20263278327710746
0.7978111410772718
-0.0017822327787660134
-0.4175461612824859
0.1671370702008953
-0.7084502085920756
0.6509207850974023
0.07190665316069847
0.7342368358514934
-0.19682518967136256
0.6545436155509157
-0.16734696911606525
-0.4645514612027886
-0.017139989807576684
-0.8505229739262753
-5.476624885830607E-4
0.8661772169195092
0.873863198317129
0.8190727478788005
-0.3102809613022721
0.46705623826649667
0.7512794499473683
-0.8033056639851729
-0.020198628225901346
-0.07341959741713493
0.01637071960382231
0.03386404131221188
0.49714537216235394
0.8882354527359673
0.3753178111832673
0.8821261048242652
0.9312452999726718
-0.39029101101063746
-0.7420789623578411
0.009870582419206795
0.615342541625845
-0.8921131499993478
-0.04133162580301711
0.26558930745495946
0.6799497677657778
-0.7014793720860735
-0.07908566146449088
-0.7397323856359602
-0.010249854150599466
0.6677924374520722
-0.718654751915711
0.26379039790533854
0.2662142245696633
0.2325715783390555
-0.5499418576212588
0.9174634797075204
-0.28302211484187645
0.13469586727739355
0.12848115096102486
-0.4761396045210033
-0.8563248141365285
-0.15663566842416482
-3.322594968567788E-4
0.43227174159066956
-0.26665216549217
0.16948686840706922
-0.5002076688534033
-0.7904206611281782
0.07130441129376677
-0.9261299504792612
-0.1275437215022726
-0.30182024160200405
0.7549763811016377
0.3829098261666568
-0.16087394410057979
-0.9713144615185381
-0.9385487387958326
0.11228828527472072
-0.4633821701327694
-0.8996528267915278
0.9722103696609832
-0.3582962315969424
-0.3132512253928486
-0.8465689658700981
-0.26168573221150765
-0.6387433897771396
-0.7953208692161157
0.3462818999985319
0.3499859416761879
-0.6775813845610202
-0.7640524473668892
-0.8895018643140535
-0.9215456008334802
0.5625796172877342
-0.8231983646154023
-0.3266579280235226
0.6666007236210927
0.18181587936139576
-0.7369134080142065
-0.7267270597870943
0.36489007166679865
-0.39968973687908005
-0.4947226685108739
0.3412756345538672
0.21351525221035178
-0.6622793573290113
0.14375995440653971
0.0859785252488297
-0.3393034119191503
-0.7159835679988434
0.4371888606314274
-0.37448519577271827
0.9381020107736424
0.931641016203085
-0.40618130254027607
0.6949577404494105
0.46676801732057277
0.556195881576398
-0.6747900485986208
-0.07926780774252075
-0.36348151587063177
-0.02704744412508092
0.14135162455259456
0.6038336108703232
-0.22218438679475647
-0.7980398035160731
0.67922485782164
0.15462757055757437
0.2298893353502646
0.3453478043829543
-0.0985738206180563
-0.9963607302568565
-0.35206515830087676
-0.6386158847836321
0.15891184655260457
0.1895385895111825
-0.3194781975170203
0.7854004060050566
0.9381337239861132
0.7349841625829237
0.029747104631284174
0.7240921048853494
-0.40676074711322674
-0.32423390154934817
-0.7184091165729836
-0.9471353313224686
-0.376678931971522
0.012913826710573824
-0.1549102819561927
0.7819360618251291
-0.565537629338229
0.5288645559230736
-0.7069772718758156
-0.1247264877745543
0.700132628586556
0.6717145713928505
-0.23740147244670182
0.3712249841499734
0.5819479557082423
-0.3077093649461396
-0.6542306514189117
0.6012075248239814
-0.389466481024636
-0.03910152473895717
0.16186747122153736
-0.8174438198757851
0.6246369007781577
0.6957023671847852
-0.277183958722619
-0.28713327901376123
0.4354909783782347
0.6294888248028486
0.6156444232016941
0.04843779875992627
0.012600641021178634
-0.5568905095666579
-0.9013088993529689
-0.2637211043554858
-0.7425077265111931
-0.9557593478820956
-0.30134458223905075
-0.16104230285211052
-0.2688323375344576
-0.9033202540078565
0.33692066919571195
-0.22675834569346068
0.47677509152172676
0.5047366686126235
0.1387445210483249
0.746300469742672
-0.8269838175137485
-0.5156602084682631
-0.3813244963191023
0.702822440121259
-0.75181761047156
-0.46774575854869066
-0.22508954224004382
0.8978661404982333
-0.9349637785425894
0.8444078165251839
0.8871140453962582
0.9389161876476495
-0.9964878350540302
0.3587144558526564
-0.5369224477618929
0.971010867574965
0.2984820436489122
-0.7125378958114771
0.26574319670263047
-0.8165515399595654
-0.30275055533325085
-0.9945075181933465
-0.0759738158297034
0.7817067903635739
-0.48816697475760196
-0.009248432397597834
-0.6754153414847571
0.8888238022834546
0.8073848212188964
0.8497089313416218
-0.5191697730905072
-0.6207804673544575
0.9018850934294205
-0.20435691694641686
0.6071893171313757
-0.07573497177247644
-0.14067189334414518
0.18800990876753856
-0.13319979933970738
0.053542792008650225
-0.21360160656886315
0.3689033563979969
-0.11052439986508433
0.7119259511840554
-0.3158311739089564
0.6227503107304346
0.986886503590283
0.27702229667126343
0.6621072532827321
0.902375407666318
-0.9367981606310345
0.1674526238727067
-0.350525662672996
-0.012827886582163519
0.5659318292110099
0.9696598589121385
0.3908616576255884
-0.12018565088212153
0.9523517485608384
-0.9490391456196935
-0.4581769395966677
-0.6035606220696954
0.9624955861573309
-0.9577029782991131
0.38047213488531834
0.8512719502843485
-0.26103425156623977
-0.8665596112355699
0.3204728145168088
-0.9316507762035365
-0.25633219583125
-0.7217250259337318
0.6547730013509208
-0.4996590360742152
0.7211796996273854
-0.861126535608976
0.9552465766848028
-0.08632152150750971
-0.5466116248175374
-0.9124437340105133
-0.5961649614241858
-0.9530167840003245
0.010782340633387738
0.5682136960198898
-0.7637301594072669
0.48076503040915475
0.3629650823084199
-0.2311882122816542
-0.016711163047134523
-0.12951502558557332
-0.7828633217334355
-0.5786498654246924
0.2724207598930049
0.3125424274325894
0.057594948093735276
-0.09511877894390765
-0.6923829639307493
0.9002458074604724
0.3803675069682123
-0.12398403500365401
-0.3663338506423522
-0.47974111508563533
-0.5847559231567454
0.07325184211758391
0.8983282941951036
0.6865702170895587
-0.13418500973542216
-0.8726191603517641
0.3329712443411364
0.5468436843611354
-0.8548506036148259
-0.916830184922465
-0.11213450478697469
-0.28212858561365606
0.6426433469550633
0.25744772970711033
0.6438943360965794
-0.23941260017678218
-0.12962023905356423
0.3929692217479389
-0.17217395188857268
-0.4712117018463213
-0.8804145070035564
-0.5334799166389803
-0.12179280026936717
-0.7782830071019545
0.8412900671901361
-0.3717486848776151
-0.3587507873356102
0.8380075481976034
0.8270013338331247
-0.7027304734789582
-0.07367002786835604
0.38115823854882847
0.9075267440873593
-0.8996174571176929
-0.36251202730786886
-0.5656136621509191
0.2980514667235558
-0.375081516172603
0.22130491330043056
-0.6721528709168068
0.5852637566171411
0.6716378132175641
0.14937073604902365
0.9041799530302256
0.33408440657176075
0.6701875157889237
-0.8626961093235481
0.6165373363843702
-0.8368875443098202
0.5385741350651596
0.24013792068210238
0.045483790037641754
0.7886842476708265
0.5980329000200144
0.8518711440823667
-0.3937892091687368
0.6476466446177549
0.04512473321920422
-0.6195781114779654
-0.8673750139540216
-0.5280911119701298
0.02398118174034097
-0.4332773545736807
0.39644865567269383
0.29524008995126516
0.8730208966587216
0.6376346446200968
-0.5545897102097228
-0.07294237393254265
-0.40460972111809695
0.3824024091981044
0.9320583529371985
-0.24068308748070727
-0.04336818220093873
0.7403824125142636
-0.2626810039406644
-0.15503502552156553
0.6233653009239315
0.6826417049742899
0.6330304875744667
-0.2820342526036062
-0.47009871711550005
-0.7318681465466069
-0.6834363517836742
0.11234410167101665
0.4149809325849618
0.01407239360371463
0.5194547164700501
-0.7009042731915904
0.4694898995999328
0.874187498892235
0.9210620929522448
0.5814617264608521
0.39974206273499846
-0.9346965346550862
-0.16750617372859844
-0.26181761549544275
-0.7077058905493527
-0.3426802224629895
-0.31755361124089726
0.45979781376083906
0.3222814290194552
0.8585084585762549
-0.8497978902891132
-0.6739202410971307
0.2714799923703453
-0.6287699777180507
0.23602461247835757
-0.43128945888912046
-0.8991383674784011
-0.06652703906214433
-0.07449560320961744
-0.7280767306201402
-0.2818726864204732
0.4619542048560951
-0.10797584927458086
-0.10525192652830524
-0.8757313945698878
-0.4866954944765537
0.16306302089988384
0.8748223985002416
-0.8103165838555197
-0.5999397083121931
0.5777397693984507
0.6561719510541134
-0.8458287025431542
-0.6126160869225798
0.7112285556527296
0.6206094466456356
-0.762614891874035
0.5142027775110499
-0.68039133342686
0.7762046794689744
0.3118024887539333
-0.5634620801185971
-0.671733978548464
0.7427396530604352
-0.057230907865356055
-0.17202304881169067
-0.6109431145083671
-0.21824083024081936
1.425427991531392E-4
0.8850495651507709
-0.5155032677769393
0.6731801497615872
0.6387599065386108
0.8226677057075956
-0.7140123426389404
-0.34472659773443015
0.6854258746370723
0.7396868669522134
0.6223501216167303
-0.1154733590025057
-0.27199245039318876
0.5759560485016955
-0.3531908311971572
-0.8573873856112039
0.6718048220637344
0.7728079215505856
-0.7418285387082382
0.7542018141750275
0.9460530871037434
-0.8202269736021442
-0.41865778923382624
0.9430838915405718
0.41644428587007876
-0.3903504425783937
0.958942187915926
0.7268234425780916
0.8794022048423965
-0.4572541230087102
0.2032745493502634
-0.05998106168722633
-0.37638774272105685
-0.14526272352884542
-0.08685779401672387
-0.4483192115003284
-0.6045909047588488
-0.34773795829567267
0.7756194739361373
-0.4468138771898538
0.6299064917706039
0.3610829124339006
0.5011457935334704
-0.032109655694244774
-0.42222062191055415
0.13869287828056315
0.13037387086707175
-0.2614391843721437
0.7670047519378073
0.05874320918090917
0.6024332282775631
0.19997102424972193
0.8685932659979204
0.9325951210599648
-0.9303181188786386
0.5016408231088685
0.1876219088739734
0.8798359992587874
0.5608315108593855
0.19885236227791345
-0.6022002472019585
-0.5912616174957187
0.44798277052490815
0.01062449659578524
0.8059607470530683
-0.89696024017138
0.5504753765792325
0.5332722479616847
0.0026367308171359196
-0.5439945105732826
0.7822416782008889
-0.7169458477224757
-0.09264747231311521
-0.9739519027033738
0.44488886305316666
-0.8541526353670708
-0.771191778026177
-0.005259873612331906
-0.363529312356299
0.20358427930007172
0.8894366117928719
0.43665054879772397
0.8271364328952356
-0.30001679501392825
0.8347063974606893
-0.4596065203597979
-0.5955280242669704
-0.5323573591767473
-0.24236636167683248
-0.011616013391510895
-0.1514735587318461
-0.2231436207345307
-0.2526765917250253
0.634381507636354
0.6536881042767432
0.5414635489985401
-0.6953009109448306
0.8765665551277746
-0.5831759407922735
-0.2925498237049336
0.655440889195426
-0.18711431519427163
0.5536206222277597
-0.947421634836509
-0.3413950648851386
0.7066974519220915
0.970198213685212
-0.39161578908125977
-0.03085042738140883
-0.8108408033826892
-0.3473202892955016
0.6306651638832163
0.7889771207693762
-0.21047014576959636
0.5623432120649563
-0.5231564245028921
-0.0731761487135426
-0.7429850602363479
-0.6531788102675138
-0.2860756358902697
0.9342384230658929
-0.13106684378575412
-0.6350642152713837
-0.37608866065825197
-0.4062711447320283
-0.5347979215046149
0.2917417917325954
-0.6959817543097144
0.747728240343778
0.044870204535906885
-0.44706010187568
-0.26350749513371297
-0.11730734719094894
-0.7768359064044049
0.9743385961620037
-0.7113102928932538
0.1737721466934062
0.16497217039207585
0.9096579654888742
-0.2120801905053551
-0.00837372686794059
-0.9316093480190251
-0.21679041161686255
0.15710210251779516
-0.0663635976468063
-0.3665437049065044
-0.23182352003792714
0.5716001980903601
0.7520904580510664
-0.9014217836157726
-0.9292092941327031
0.8095450385361321
0.6035136953820356
0.19433228736033345
-0.5977688303766702
0.19378706982044128
-0.6824046467330017
0.6518063737233374
0.3806440400197707
0.21422856992796271
0.24814013925585904
0.7716788087089551
-0.4990401200157031
-0.43777734535818563
-0.8865551670947965
-0.045185309085419664
0.5299240756948957
0.822914441494981
0.7682112147938818
-0.7749336152328872
0.3291530016101323
-0.7838001926684854
-0.9013785817576353
0.8182187982917357
0.8071401196525728
0.36258182413416934
-0.9923209278030829
0.190706118756912
0.48846236081567046
0.7013170563697696
0.3763936535758761
-0.1572118687746393
-0.36461277264512876
0.5122842415395479
0.4243932931164051
-0.6809517176749892
-0.9960133185223738
0.9314365921795814
0.07664278612095717
-0.21761434477718702
0.7782731335808108
0.9666703099054622
0.38767615450523973
0.8826186047978454
0.7147127955563684
0.25998302323640143
-0.19303373738014432
-0.9145765343999107
-0.5254298412336409
-0.3662791849382789
-0.4222943091726676
-0.291457620847085
-0.4255993103780867
-0.29079542928961055
-0.11282239945854132
0.3724270023139744
0.015870171812870034
0.9919781916022294
0.48343156218718364
0.4047156719668545
0.6364262983687938
0.6630314523792308
-0.6751817314240773
-0.7537885240790344
0.3058080858377221
-0.3198459041728925
-0.7708311193700121
-0.5300079129690467
-0.18206534898103652
-0.11337785433642275
-0.33391689431737825
-0.7435868167711926
-0.1652003914236399
0.8489154193135092
-0.726702497755855
-0.8071901344686142
-0.45502968998145166
-0.06711735695190034
0.6767085158948207
0.20713313848444423
-0.7199820273579841
-0.23272292403507075
0.41811934196859973
0.10822487233566326
0.06277372167691227
0.9740698249679257
-0.7060726955393787
0.2833122746941774
-0.6204720476921362
0.20820732913610995
0.8697778699067126
0.21419436893957838
-0.14589236939078898
-0.96810285913714
-0.23491612264865824
0.14092531826394306
0.8156030072996183
-0.3891500211905703
-0.024666717843069653
0.0973396410141677
-0.13289900419832576
-0.41415751185161903
0.42672991287031964
-0.113201239631131
0.6346933086017437
-0.373504690692708
0.3751993023428599
0.26894356158535776
-0.8919592290644494
0.5902748834882185
0.1625399548257808
-0.8282780988146725
0.9422922727571921
-0.7189267680502701
-0.24794538490523674
-0.2557906057674768
-0.5635691183847004
-1.017254079510415
-0.957002087366847
-0.4414579891312248
-0.14794494323289994
-0.5410758236624877
0.41601349990056086
-0.8753787316797664
0.0861365559717153
-0.3436666889482933
-0.567737966839583
0.5524150792953633
-0.3089054955291364
0.0014595730028857676
-0.8679179249955782
-0.1345252488112716
0.6088740512604196
-0.40729629726706384
-0.4796202399626928
-0.0630908069298515
-0.3649397651181102
0.28122965393860727
-0.8011884012654256
-0.24822015410158793
0.35710794672553997
-0.1273653672018751
0.8024718285992986
-0.5127154788262561
-0.1455888231478702
0.11506380618651427
0.448036994930876
0.7442442527199061
-0.5821760505185525
0.6848398343535593
0.010354988562168068
-0.5653878689202679
0.09707298807076183
0.735005571409943
0.6418730487973486
0.14692262159314148
0.5091898969691598
-0.5557373755735443
0.810789695717732
0.77951955898953
-0.38887499244289675
-0.6182729172561415
0.30449388063600236
-0.9981820657648506
-0.21407366429110675
-0.5359825044788686
-0.1266086860858079
-0.6545837188291882
0.07165576118298486
0.6858678280953644
-0.32426229350990227
-0.5266657915763349
-0.7802376593676547
0.9739499333545779
-0.05857088251129971
0.7481282583144548
-0.6331125141118974
-0.9842109426278605
-0.39860592251240967
0.8355364233191996
0.8686321072964007
-0.9108974293793345
-0.3880777891647644
-0.8106134306211735
0.7415510455125417
0.21933182381419947
0.4669394278885814
0.8048436290143404
-0.7683994899299239
0.663376972167861
-0.03392744518358725
0.715203019335661
0.8184341960192125
-0.08241896726576788
0.9538696220842778
0.42743329944639846
-0.7103473269107351
0.16937635292385397
-0.27687979952841174
0.17762254733637245
-0.7557231557758788
-0.4636947653135548
0.639433197684861
-0.001622720879518448
0.37316076576141133
-0.5065227217735695
0.04590830587645036
0.4390357058756018
0.14789033782086472
0.5182175223601125
-0.4913906351936188
0.18872902243107423
-0.4149423190377762
-0.8419323745125351
-0.6211255124599273
-0.6729856748630592
-0.7768995460895325
0.7739682098669314
-0.7390922565664645
-0.02139042285211828
-0.8226141673251312
-0.09924234807920357
0.7759915498675211
-0.46518956843060466
-0.737873711877455
0.9177161702771138
0.8938202431406203
0.9262890135633931
-0.9987802367867398
0.11209508369885876
0.5130838332434619
-0.38853248678225377
-0.761271952190258
0.9875046590994343
0.6743526852177056
0.8232773517603464
-0.4795341384719489
0.32946949779774237
0.017276059920977242
0.3187191734292178
-1.005555094402993
0.6899370284936591
0.6225691993694145
-0.20945766043889927
0.7897858230842166
-0.16765336865914143
-0.7778786568952876
0.622061217934133
-0.935324622501763
0.6351991788130402
-0.24682203330299718
0.7358348693839352
0.42605503799126965
-0.657175332820235
-0.9553733896924083
0.5769203904695497
-0.9011453796750118
0.7388450292905023
-0.006734477091142376
-0.6837360647486553
-0.23519762193673435
-0.38761407163450146
-0.8609835508438266
-0.5805590402134251
-0.7578480539739245
-0.3507660268212785
-0.3942395542660223
-0.3775197719857226
0.3152923584844065
-0.6329208986894793
0.10412915565932382
0.6321757774349638
-0.6272667550967155
-0.7983376763682204
0.8583680370389745
-0.9763953313822269
0.22373087425780946
0.9643545941884596
-0.09976927999039183
-0.017927504680068408
0.6244528527577059
0.6649844885701092
-0.05093483432537725
-0.7376420540162572
-0.11935728806122399
0.504779230526267
-0.8266542839813026
-0.42902519068885075
-0.07395131148183787
-0.9067331184777837
-0.3234026966335857
0.7924872214981579
0.31980162580817584
-0.21251657347025543
-0.8046197271605826
0.1294164509083201
-0.9693909907082188
0.08710948933019537
0.6332974201036824
-0.21847258538093972
-0.8254257604669035
-0.515034862393697
0.9440694567548965
-0.3547690628177676
0.7829046060782923
0.11045240782168664
0.39936376853187666
0.49117144031336574
-0.9835950341082784
0.39295640314300073
0.4690108152630832
0.3920054705253492
0.3558649069265533
0.1933660243613699
-0.6722925089601258
-0.9444656294384322
-0.13037455616868351
0.8053139955792392
-0.197098605416535
0.43029618066165803
0.24621764784916775
0.12485927980116582
-0.3976319245179121
-0.24843781480019048
-0.973354406605682
0.09800425280954211
0.05051020698356652
-0.7520137358010888
0.3274304346945244
0.9052629566767407
0.7475124002347038
0.4089022410600403
-0.344940596358003
-0.7420121432123412
0.9855754602955804
0.9740449966495452
0.6654477226148907
0.9338575247116735
-0.3552441741757284
-0.5299171165106346
0.2171244846178344
-0.28825005185887315
-0.16075400080047247
0.24923641852089365
0.9199693642660035
-0.8128637551758131
-0.3963825626296821
-0.9545965909704854
0.8211661568083474
0.2664217097891305
-0.7249308950738743
-0.8335549169650012
-0.5717569888385587
-0.30094714376843795
0.40112448109989746
-0.39883985458447613
-0.06542423690283666
0.3596882661425119
-0.9412894042012043
0.5193849508006143
-0.6136748975055704
-0.717061402692995
-0.4152198796928206
0.9296821519789932
0.24626966366330066
0.004384925008789324
0.5309524430978934
-0.14108290325436804
0.8292912149247992
0.33731397357367565
0.6439626032785897
-0.7945142923996231
0.7469884403039685
0.49265155077489614
0.6737164730897182
0.10519005848405096
-0.1745541660512333
-0.7902393741415443
-0.1632854236530833
0.5188977531596574
-0.30641169177224914
0.9091083643868594
0.0826398691102615
-0.0745606535279109
0.762749388919348
-0.782891049276117
0.8855209971639824
0.21710036258831905
-0.4419887660191035
-0.9397259306443076
-0.2508687870926483
-0.7051666319179923
-0.556652249106376
-0.07861943077749793
-0.7952977822224323
0.27211704844095214
-0.5361640045787289
-0.643261098525858
0.45858384566484683
-0.21183772823606992
-0.1772183629215577
0.22431010954220443
0.7087840818086857
-0.5490834207241698
0.35966870267367124
0.9865313687852663
0.6723932986934562
0.513146509818113
-0.20167104187286455
0.5738231688828825
0.37417481396376967
0.18066143312133612
0.7130736210085089
0.5653618136295648
-0.3209506355246636
0.194917611296485
-0.13631062142333564
0.28687169397070444
0.27303815348265115
0.6809379945495827
-0.09733058879757983
0.5517760402074329
0.9312021545312466
0.49737920813339853
0.028132289521796423
0.640910389758493
-0.24971809501585812
0.164502481660686
0.7511785606342429
-0.5829089485660278
-0.8568283816319583
-0.4767730698999502
0.9287408971145729
0.5025850580588739
0.39293147268563183
0.9255934562943153
-0.8352642766899906
-0.6096072574887744
-0.8292022487221004
0.5403334991470112
-0.9757134779114269
0.14893603071165845
0.995653747513486
0.4243478874745074
-0.8848334873082507
-0.8152422632622274
-0.26340628257433524
0.018196876635407703
0.7005232986016677
-0.5896867768978175
0.2100075681111557
0.2754943041873318
0.06251503303188258
0.34018539332640213
0.06417332150840395
-0.6635876595758058
0.6101058817087961
0.491058292916076
0.159654967601211
-0.5323888548011989
0.6457280502956443
-0.6698840377377299
-0.05933144646139327
0.8063405044027276
-0.5383646933055651
0.1777747271678996
0.1270068141471692
0.6192703792836095
-0.43691201161990456
-0.4666870431461852
-0.9075503868847825
0.13302943003850715
0.5154750554407251
-0.308636651741547
-0.6178067518640883
-0.7363426287734032
-0.7256264756365687
-0.18760080415679606
-0.08380237272504319
-0.04798168749221044
-0.27059008421961733
-0.4765994362887014
-0.24886117502730076
-0.36576537728816527
0.6845882830797623
-0.9773922587561816
-0.9815687401772626
0.03421029390551161
0.8828095821238369
0.08861349409350458
-0.9500055312103544
0.5830153071418388
0.7668200364684538
0.3154790522496334
-0.521344419115217
0.5808274479697625
-0.5508394301589469
-0.994115641216811
-0.5398552992169733
-0.5232947750949302
0.20341339908100572
-0.9545253183691639
-0.8729196118244146
-0.2855897649610427
0.7038619703555946
0.5577776646274444
0.9477375450498826
-0.8171112372873343
0.7071495769244128
-0.17377899726948617
0.27318227881591906
-0.7712088195332375
0.11153790420756685
-0.18821738113350298
0.773768609797919
0.9553531109528695
0.08743632490025909
0.9842208057030282
0.8552338628517423
-0.5325139117049017
-0.5921670048366782
0.894635799836035
0.2469513281932702
0.5080038800672659
0.7115453850645702
-0.6818151568885632
-0.08970294301335902
-0.6399915644278917
0.09630258884338244
-0.30145085731605586
0.5687293395572435
0.4982379538181352
-0.46627820023447386
0.183487520104457
0.2830120653350261
-0.2903309108755225
0.5122449276758081
-0.9297097228734046
0.013935083770379733
0.6940918364034014
-0.16456652444094458
0.7611495265987115
-0.01901043606683959
-0.9397138190765236
-0.9587041561643518
0.10494740393304082
-0.22580020614782906
0.30388830949160844
-0.22474630149314415
-0.844524461481249
0.4182570337734642
-0.7142136297988365
0.8003254261962879
0.5556563966159569
0.7875702160959475
0.5876753051758249
-0.749013551373234
-0.815715049478157
0.16618183140959994
0.6216349582230343
-0.49344333619434294
0.5676611410092488
0.2956204108428825
-0.4981244360774618
0.6685233087958495
0.9890783325127693
-0.9503755641945304
0.9007240329605756
0.8731790702138543
0.2294301258806345
0.3359585109191894
-0.10455561785715463
0.9526177547871121
0.888094819950297
0.5430406598627191
-0.385982351981301
-0.488237828580137
-0.08623570200220367
0.21240375971920578
0.5682584408725754
0.14868068538015194
0.6477230535488063
-0.12416194128510535
0.11740617429074286
-0.48317821628139546
0.9199696192950749
-0.7706216678879052
0.3134870991308575
0.19422316907564366
-0.9588338124925693
-0.5773038281997632
0.2317747925821968
0.2463952136880944
0.6253200920405335
-0.9786071824846276
0.4035894563085276
-0.3906463166284873
-1.0033271446333283
-0.6862413750112357
-0.7882601343366894
0.18247754251160866
-0.0012087384998514473
-0.2294470625749328
0.8765051148187063
0.28733887821384113
-0.38173106887591807
-0.20346287223003365
7.587077129359558E-4
-0.36838678602371544
-0.262914448469486
-0.5364680915098177
0.9854323195081729
0.2730048654694147
0.5407263857797241
0.721159252584703
0.8520630140966325
0.026112423221877283
0.8034667801040444
0.9824926654476266
0.07117058581545446
0.50520199805446
-0.2713175117343623
-0.8270592472992688
0.8032355241590582
-0.23679580366573502
-0.7660387922481477
-0.5127472065934683
0.6502032505424604
-0.6884817112174222
-0.48608252860185636
0.22680105650810153
0.8051691412645248
-0.4863892926568447
0.14570908969298588
-0.5337578878084286
0.5543612532747836
0.7883511397140145
-0.6922674777495189
0.05023103557132251
0.8187950056005575
0.35053050807151725
0.8952830275369673
0.11377132032321621
0.9065173475297295
0.8544422139767442
0.46397729684220873
-0.017182355441876424
0.002118555357812247
-0.6673918732754542
0.7006364832560709
-0.48628037331827445
0.17064678611557477
-0.6367485553282549
-0.995513680649777
-0.1964171710047121
-0.06963288239284807
-0.7481946116545728
0.47689552924055395
0.4027320070704014
-0.30252576804601033
0.9466661491193057
0.32849616111961877
-0.9618771667133266
-0.03027838843355596
0.9629380888715067
-0.5238393826523754
-0.3588736680916548
-0.025591283541244857
-0.9333092332345483
0.8378430243022011
0.9500932790272086
0.8018636372384818
-0.3605598090930048
0.2928902199861927
-0.23162706713302075
0.42949079469326434
-0.621730120725556
-0.4038226943437983
-0.5494242296195562
-0.3112343811263411
0.6562968473961238
0.7081422808353001
0.3549623480114145
0.3574334668716603
0.9391940100241694
-0.14747925843543158
-0.5315049875992855
-0.17415009721259148
0.8997530390085395
-0.527907242787381
0.96656367631001
-0.5540321300804054
-0.9975258130654101
0.8458087705933567
0.3376514892356603
-0.574469746738846
-0.5310082270170281
-0.38745215452013204
-0.09106798344271473
0.17335197893274115
0.48412957920384764
0.0064627451547114075
0.7811267090126609
0.28355413409883595
0.2636481210126034
0.7482732867489428
-0.4612209155254855
-0.8353928864702374
-0.8201905103777933
0.0824044625947158
0.8571949971869067
0.3001699667809412
0.5475354758930107
0.14999375321747602
-0.24033429161800957
-0.05865128993989755
0.6982272858905948
-0.8301348129967706
-0.029599388293004757
0.5413107393205578
-0.266233253853558
-0.07446471125070141
0.9849492443686412
-0.27296675191240455
-0.6901563370141529
-0.16873042821870468
-0.4319672185256565
0.8414606743636214
0.4383607307006879
-0.665856416828743
-0.19006791945832854
0.34541448444327216
-0.08915858423994354
0.43242020509841567
0.19847652191956308
-0.8912514382717364
0.1259953622936614
0.9417041682489933
0.8165795178441876
-0.11549214718671617
0.6531357266721013
0.9213768469030389
-0.08248957883777323
-0.7566007600389022
-0.4942598430548127
0.34221601993889433
-0.5759294595013286
0.3241025919975879
-0.8111267165985032
0.578185293096888
0.546237905596789
0.28305546292190664
0.1760883363025731
-0.6114840689987874
0.27246874819079125
-0.46594504205037296
-0.5488794212730899
-0.16838160532208735
-0.8796320354315403
0.3602802512541169
0.5680245011165788
-0.6648651949419452
0.19446449526382803
0.7909164655482338
-0.3662149930824336
0.8424424155617687
0.5908446181788433
0.9834807628560621
0.7431947322561878
-0.9609769331918011
0.6666729441945862
0.23576418699485704
0.9802512026083219
0.766931279802512
0.6280975021313503
0.6961182379066283
0.6493068850018268
-0.3805991462222197
0.3012626745460855
0.03130436749790877
-0.6439485069148784
0.4047560797071186
0.41882067073268714
-0.014345669756109698
0.38055854177892645
-0.3664249968851586
0.03907332493281406
-0.21769008140940035
-0.4426311239175094
-0.445990313991396
-0.5277907423040011
0.11119203316670098
0.5047396934498511
-0.5614024785653242
-0.9972228895871892
0.27896203209016945
0.7366649369334219
0.9261249550041479
0.9311682183832204
0.39891501079465386
-0.0723877615838862
-0.8588056541679676
-0.29589654652741315
-0.7100123608304769
-0.491145138800156
0.37708384001781875
0.3790984101336441
-0.5957747025769087
0.4086755468702722
0.8193980808221867
0.3264541215978829
0.3970153910278358
-0.7867415867731228
-0.6123677953211041
0.025739486233097568
0.46129460881471435
0.08643796267705152
-0.6104093574333603
-0.6704907954175993
-0.4540518489214523
-0.2544350209308137
-0.5344265466498859
-0.17625214568398134
0.7210319516801715
0.44461216850566604
0.403898831851619
-0.6358543467986681
-0.3647291663804843
0.2976703511528127
-0.277007405779612
0.9125128970869472
-0.12567093170477908
0.07027057859453417
0.2547616471430234
0.384927375712913
0.48545848829866683
-0.38668212648586003
0.5619374809862244
-0.7675004017119195
-0.5983639791541521
-0.8016151539655283
-0.7601543692830965
-0.974437856387864
-0.5416643600444098
0.016040681220904768
-0.5217907864074447
0.3198144422185137
0.01061612194845128
0.02161451753753132
-0.7583543138995138
-0.6337163911539124
-0.5297878808740926
0.1852159181029352
-0.8515131110016887
0.08273356901285626
-0.3063332907480198
0.08535778433652103
0.3874065213671007
0.27555693790704916
0.32098396488746567
-0.24002088222756268
0.4584886209545767
0.8605730769316269
-0.044058743034173675
-0.3562212778893755
-0.35836382319382476
-0.08261446959364575
-0.9452708550412973
0.7577788349231379
-0.09579408390302599
-0.09308377854239067
0.7964320043544623
0.7997694517213825
-0.5145434532188714
0.38972378666205
0.6866754901568495
0.5194112259508763
0.9461711159456055
-0.8991421051934358
0.5157306178954896
0.7101191621734333
-0.35753083751995723
0.6845630401914151
-0.6251563662742399
-0.9282069023325982
-0.30250579284545903
0.8132890338502549
-0.880560765086597
-0.9875990269713941
-0.5879759822372398
0.22017438560294342
-0.9831940970472788
-0.8342401538109915
-0.18878948911559837
0.09838830781133442
-0.36036269146658634
0.12809746263747557
0.7369814576287175
-0.29963142112954644
0.01759757904904531
0.7486760876832912
-0.7358511421591338
0.20532431002023632
-0.6393385117594199
-0.7444139182183215
-3.0666625475072196E-4
0.5214625305128091
-0.10581664819275508
-0.7953956317586254
-0.0786638770528499
-0.6516403664735028
0.18546054535817647
0.7636269913547771
0.700438569733462
0.8977963608387535
0.49444711249662926
-0.014855615584938753
0.5500044990860051
0.22962277992076383
-0.9379786213823357
-0.32457083903333434
-0.9935847792745619
0.45649833686346886
-0.8082425873880652
0.31444948984989207
-0.21362602511108592
-0.40548617623494465
-0.9656030701070395
0.778847290920138
-0.4032564901705574
-0.9975512002729554
0.4670469670911279
-0.4384756129118511
0.8144472369764008
-0.11721604187914021
0.5564180594083538
0.30378971691150597
-0.9417997591735009
-0.49481728182184537
-1.0116292853876896
0.523540161013796
0.41173923988352784
0.36525516768564575
0.5075739815575779
0.5895309853314871
-0.9507643782755538
0.5753402753792412
0.131969896688013
0.8700949650459963
0.423838479945654
-0.885779081361111
-0.014976807976371798
-0.9716431071655484
-0.3543389681175908
-0.4787008953187627
0.5431630627004452
0.2758677366190839
0.2333473195840777
-0.7873396250800491
0.9919903220429069
0.5523959237524297
-0.2078770334336146
-0.5487871158899229
0.6513353130656309
0.412263055294508
-0.5550977084628705
0.1010890388178067
0.010786491924799354
1.0057821124102615
0.5638079500479033
-0.06514867447868353
-0.13561574043463695
-0.141996694401162
-0.7771504352402989
-0.7613066175922274
0.05084471548533063
0.2187192749485153
0.9942222303003163
0.13796127830327357
0.830314759825882
0.41418402735620813
-0.5792997599481221
0.4998335765910845
-0.5489836337890345
0.057370587735284626
-0.8170539920679822
-0.2577908280572788
-0.22683637233406176
-0.6615673637242598
-0.6161090796552017
-0.11648088973057963
0.7584153402404084
-0.09017296066190034
-0.2455345513014039
-0.052722780809789434
-0.5517040466320581
0.25458514730179294
0.7503340596632193
-0.5497201097521774
0.5912228773112033
-0.4538703632843563
0.6059939176659619
-0.0852246819133025
-0.9984889578474985
-0.05305075572627258
0.5306924028718364
-0.9809720924754364
0.42872580155837586
-0.9324981564839391
0.13608345646474432
0.7470913043899459
0.17189589816586576
-0.10679591531572276
0.8386590138924496
0.012348441379131807
-0.6007312491213315
0.7215663963746793
-0.22432992471078766
0.8078687774260678
-0.9638193177326796
-0.45240146842934525
-0.4437076747147237
-0.5342104557440133
0.612624960678212
-0.46752393388004115
0.6898308866898583
-0.11616221410823092
0.09028714405120397
0.09253998374694199
-0.45564465166785734
0.1675778954441354
-0.2790754630490789
0.653976152560797
0.5665645169592042
0.48256709398697767
0.5913742993245682
-0.08476637290540857
-0.03915695667717151
-0.8234283494264454
-0.8785835217975373
-0.19096075773497376
-0.5567192492397782
0.01628076847904201
0.7844913896144482
0.4540709113564024
0.1376986828455518
0.2948537218865879
-0.12737883800402217
0.460834318775708
0.8512277015944222
-0.7566316481261821
-0.5771831039960293
-0.0857382407036307
0.6489416804218938
-0.192076935050979
0.340900317439707
-0.5951449557507459
-0.8206181005119643
0.945434697150268
0.8638461095021899
0.4886662335472016
0.7993829303691812
-0.790284426007808
-0.44434776884579286
0.20259431076925039
0.5755599143329198
-0.36509682549262223
0.06289392348279785
0.447652007166459
0.43673621620516434
0.679081949868215
0.41211087036805477
0.8262602235527853
0.2238854587145443
0.004115872034237105
-0.7724291263953542
0.47718797415685565
0.12746401095349472
0.48485036945012444
-0.7416502832101135
0.1828738205524628
-0.7024074038684899
0.6397355489939233
0.7354618794274906
-0.48452524378344514
0.6397416600797575
-0.18251561594117793
-0.8815877759494238
0.3111673499831298
-0.23436077553415705
-0.12960646799567715
-0.17871679645898234
0.9142250726099828
-0.928285886419646
-0.285145866454932
-0.49184302195148694
-0.7091922030052209
-0.42870884104694074
0.8974030270058322
0.21475997178590808
-0.8528607423551127
0.7952407338443387
-0.4279356334662013
-0.9148446760060566
0.2460600189832703
0.7925926000438505
0.0277903326025743
-1.006719998485809
0.9457436573769232
0.6647485224606337
-0.34645332051458844
-0.894734411786887
-0.3741817671784498
-0.6647666371368649
0.5802020460052391
-0.18969521926660107
-0.05387737848841533
0.5749461648582326
-0.3904402722559583
0.9773655048941058
-0.041348600414913554
0.7243145753667495
0.8444488998147005
0.4545434401300579
0.038040411523354974
0.4735842901394878
0.7888333030200066
-0.9696266054219143
0.10520402377737796
-0.1274007983811017
0.12860091941020615
-0.39188435855895815
-0.47186481559253307
0.9645450543465731
0.9380635330299845
0.5760797550022683
0.5011391109695399
0.5768831195449303
-0.39641954170598986
0.4099378425202187
0.8277770422536535
0.7818049584928707
-0.9153723552255079
-0.7173203074327502
0.2188109910773889
-0.4741194889334926
-0.37377105630906116
-0.6738125884438966
-0.5437045590542767
-0.40178757118007014
0.5206006936457717
-0.6018554346800604
-0.29025362303057406
-0.36889460886907244
-0.8525991060952984
-0.6923297542461003
0.35974593287562523
-0.6700028346593344
-0.10808886892397793
-0.617283156702719
-1.000084264926414
0.18339089338702932
-0.8809304316017771
-0.21636611685976584
-0.8300184288421807
-0.5208097882987966
-0.5097663190725432
-0.43246496517618793
-0.8916468189137889
0.048856594263177434
0.13095845104458806
0.64611384048542
-0.8513187457275763
-0.25599100911170436
0.8135542143163771
-0.15607332384097308
0.06400200198142761
0.050958182514690364
-0.673309278228437
-0.914674294301923
0.4729750151931026
-0.785122719195706
-0.0729243688050246
0.09104392595893002
-0.7013579396938524
-0.11847207819181493
0.7449180951508012
0.8231297344186267
-0.709695700825045
0.8237056993867493
0.10054661565266897
-0.5947247669939876
-0.5918687267625241
-0.9191145045065859
-0.3304166941057918
0.8827056014584114
-0.6122333167793494
-0.40816474642731715
0.7515203437211994
-0.7642215955000251
-0.49819252658361435
-0.6108843354285316
-0.962679450284944
0.4381341093222654
0.5150315665814263
-0.2840473134159131
-0.964243572468887
-0.882293597946441
0.7013595906318293
0.4521180081086561
0.27712717743499904
-0.08396817453348446
0.49906222010694784
-0.8078588193022198
0.7235554302136503
0.42876492150701867
0.8193028279386896
-0.17586043011718241
-0.931247649712593
-0.06387706264418526
0.8024360793003544
0.8709227938700528
-0.8699053914498208
0.2723215544418081
-0.3185343798832634
-0.9700237772685213
-0.11246954968488618
-0.5568538427544705
0.5987813070890808
-0.05307475994368974
0.3406646605546985
0.6029349201825722
-0.2792010576444431
-0.25353573394376805
0.25951919363762566
-0.6656689577415271
-0.6878411497541846
0.012833555175694058
-0.42360827271315155
0.6854862954660584
0.29373190173548647
-0.19303213512733883
0.9007858767602812
-0.1273465736671667
0.5903109739779105
0.6655749647673193
0.8320316478702858
-0.6866428693680525
0.3631184650517495
-0.265409309885109
-0.45681027584933287
-0.27511853183485885
-0.21516661948046742
-0.3148391574298323
-0.47641676903216884
0.09771828276105872
-0.681093725115493
-0.8473274275816123
-0.863058646650875
-0.7152859992809952
-0.963777302850506
-0.4150478177284227
0.18240372010514033
0.898682516057566
-4.6665868460664183E-4
0.7953858369178752
-0.5606223852080218
-0.6672106157464281
0.048962247461748494
-0.9543118955770101
0.15795256505818428
0.4603693032330504
-0.9051134406692797
-0.06337532638894536
0.5671266997709498
-0.8110062049697029
-0.1060369053677163
-0.5385794471438513
-0.13510123613894587
-0.5270813089683968
-0.7278602922384462
0.29973188717087923
0.9532123518589651
-0.7817434395405048
0.23611286165222284
0.37487201944471565
0.7437475421420121
-0.036820205857566214
-0.443542614389685
-0.13940830368392088
-0.0691600812583365
0.29312670165081806
-0.8318336558779718
-0.4461400850387444
-0.8222921991970614
0.2544081509687188
0.1112807299203386
0.9104559801296765
-0.3143307840782162
-0.7540840123301633
-0.4101517643366112
-0.9579322963572144
-0.8802217337698014
0.4170165722855849
0.5143585014871314
-0.0289415931774666
-0.4016523365559645
-0.614048004593798
-0.21105148320551625
-0.086976929158947
-0.3270759456904105
0.49236866344069274
0.3924062684127966
0.41094657011617924
-0.4545056444989751
-0.06859613146873987
0.910676441475241
0.22058959308725962
0.6460749911532493
-0.5401006713657167
0.6112108595211855
0.9039865476046137
-0.5649987579080124
0.3043745672645259
-0.881154927793082
0.9184100879211282
-0.0024687864209664116
0.4731381637016117
0.1602397522984288
-0.055544768561442595
-0.6568268452941988
0.9899618907296871
-0.3150321237339361
-0.5944965093633032
0.41103748618054853
0.9528498252407176
-0.9562377844703842
0.8418890920557102
-0.7450298433552537
-0.5880022365413822
-0.9491517582771867
-0.9192560376382749
-0.30435292718752727
0.03042859121557138
0.2910781452390375
0.43756989370835514
-0.9869577384113154
0.7836063600070647
0.4183438584267666
-0.3888252517726611
0.4695801518196238
-0.5230584576387602
-0.34627237880508754
0.8563132926788515
0.23250518056840647
0.6362356678988872
0.4834696869765644
-0.3078528526727459
0.578335785145138
-0.9176946053796204
-0.9789896642924194
0.23092600548849906
0.841143490784365
-0.8166647922673598
-0.0919810077531977
0.2917327570272971
-0.577049816085225
-0.38980083109810043
-0.09492508378585843
-0.8453782921276937
0.6181181209102653
-0.41887885570733097
0.41327780689224614
-0.0019199926790778264
0.6590943040435304
-0.16261444434675928
-0.9006456593690233
-0.4173024661813013
-0.15820391955041832
-0.5708499019960026
0.10661546783298259
0.5635829311037684
0.762974492436549
-0.96799291318039
0.4275087109768514
-0.0853398942449507
-0.8906080723890042
-0.6154359595547192
0.4197895714228941
-0.527210905959566
0.7280673174065618
-0.9013625221773842
0.16252308509073174
0.26865645633102997
-0.14251427256863095
0.7039593862044997
0.56334176366102
0.9072584562258734
-0.8241718955481703
0.36378997957434916
-0.7368589182482328
0.06693563140676974
-0.24239341610738574
0.6222966244193955
-0.420327762844834
0.4576577507057696
-0.8656873431832223
-0.013456787046180438
0.7953448589494023
-0.22978018920708507
0.2566986691801934
0.3820522428326767
-0.0723690152486712
0.7371917100103915
0.0646335035770144
0.8909283197678141
0.5473944079796078
-0.9291945141190275
0.8253928442122116
-0.13408567163400056
0.564160858169447
-0.5695587724173855
0.011617434489744463
-0.037170998308072176
0.7758393873865452
0.9099343121918286
0.7487176794536909
0.7372684565272748
-0.7634839943619913
0.23406392573618087
0.8625117828749114
-0.7822796303073412
-0.2262024612966238
0.6240223222474907
-0.5148235599854857
0.9402749246493737
0.4002723528700776
-0.700538165807768
0.12808808332452684
-0.07623669057968174
-0.9456303189867219
-0.03127655526773869
0.2822086300708867
-0.696462768099106
0.040162588187247744
0.6486910535598149
-0.4305382350105446
-0.5271259744782623
0.2800030795662091
-0.6590161604863567
-0.1171798852429317
0.4781591562888698
0.3484725662652284
0.136237129613756
-0.8262932465830547
0.3594918769776062
0.9996405055783604
0.1258464952658189
0.6644668245908703
-0.317893229615368
0.5237060395620778
0.23597280129366704
-0.8866474925397002
0.6228741321222354
-0.48423273104010994
-0.5181564598924363
-0.45548869094144573
0.4208133635669711
0.30289169500047114
0.5597048043022492
0.43900333299683375
-0.2913472403188819
0.13643139095924042
-0.638730748397054
-7.309760341037943E-4
0.04621590506160424
0.44394237285512295
-0.898456807820121
0.7808811745560647
-0.572515643817179
0.6609053650641408
0.13823488703673434
-1.002665315047111
0.6950467105100679
0.5040270710490597
0.2099890764207923
-0.5350636831660893
0.15480530810802604
-0.2500521131593213
-0.07474324639727976
0.4313696884242297
0.15239078396243902
-0.33202610240831615
-0.45956609909885154
-0.2835169296728469
0.2310461978445846
0.28249612292386195
-0.7948352439437848
-0.510642760339385
0.8158951201541668
-0.03290474326055113
0.32854109086541583
0.4754941908495732
-0.10695478989542273
-0.9021001131438794
0.3446738517432548
0.5275789247724952
-0.02271520312112211
0.6166195704135385
-0.8514372843310308
-0.7391105255042678
0.6332756582384738
-0.7492106106740989
-0.5511007794521943
0.25268309367613095
-0.34651058509591864
-0.345405586484163
-0.4010816844334252
0.979078686521975
0.2885803939165983
-0.9626421295031049
0.2999936709417563
-0.666992295995044
0.8735337818008274
-0.9247761574268771
-0.3448257725220199
-0.3272023784080713
-0.032045017864827795
-0.27949505690117915
-0.9133555476056792
-0.26972659274939853
0.3737054767429882
0.46973300962532866
0.16182621772808567
0.5234340682638613
-0.028305571592003476
0.6198036261575651
0.8177153610286396
-0.6958320816475642
0.0794576927964385
-0.9302247905658235
0.47926419570275247
-0.8648497032748942
-0.3879555691350476
-0.8476581368367351
-0.9034823073201903
0.37183108642198043
-0.8355697554340356
0.753950628312519
0.8822486041684788
0.9852453273214336
-0.4935084437896229
0.9544727596113819
-0.8796549347549173
0.9223167054141135
0.561941783356325
-0.8097968156295149
-0.14965424048383438
-0.17401520587383407
0.009995827678325624
0.6272980909649617
0.40253247909780954
-0.6057567082820349
-0.6586981710155285
-0.23824277308671057
0.8605529932621412
-0.4777845581129728
-0.7821679884609862
-0.026001942703405598
0.39086965871072277
-0.038225720532947226
-0.7492088404146806
-0.27614901599934605
0.6593314444169563
-0.05937748729142759
-0.33984281888840373
0.20304941137468527
0.2231605143692194
0.9529988079857855
-0.6666157305445427
0.7799239619275582
-0.28484547837179836
0.9510318333542335
-0.5264983244627242
0.6668984870575854
0.8697051150266042
0.9521276464786246
0.996383191854397
-0.14902822990272044
0.11559272115867752
0.35999584869768864
0.8402156145545221
0.140661614816101
0.1622059384464723
0.5839851390538078
-0.23908426143986564
0.5235323552100787
0.8396549052185537
0.4856695093771471
0.1300885620529327
0.2931164416302716
-0.6848329940178809
0.7112730421143333
-0.7419723884744068
-0.28026756164556793
0.18342312803284144
0.1658367513003286
-0.7850364627449562
0.23225956062655448
-0.6772805828531275
0.7508720802988966
0.6352769573919824
0.03052350502042556
-0.9418432471223398
0.2711519912945349
0.3999325700382045
0.6265836642304604
-0.03037368152810353
0.26025286292046307
-0.09289877678263651
0.19086602499373567
-0.8320800169041042
0.09053082867272538
0.21184895943061938
-0.1725043253976818
-0.609260032298935
1.0128915651362327
-0.37694793830081225
-0.11766898335984306
-0.994933957053931
0.12407222606408227
0.1315083197509425
-0.7591056847148394
-0.047253565541517925
-0.8303148387406326
0.2402268158648616
-0.2124664255193455
0.8245278186325027
-0.9064438539804797
-0.9901187860494567
0.11472856572541414
0.6876379230775865
0.7543228902412011
0.3860796957678223
0.7097968778073545
0.503533909233407
0.09780095408831573
-0.8657922689372122
0.5472591701125556
0.15272284702027528
-0.3249200357931267
0.7984222528423561
-0.8239691977246865
0.4184464636075312
0.865692290854488
0.09423515574371681
0.11829815161989653
0.06239399495333423
-0.8063826749466492
-0.10790474060441711
0.2512444225465607
0.06987036267904989
-0.7384489782308221
0.12815083464863927
-0.9199018115390933
0.6200167991572919
-0.2948254188016198
0.6062468220585424
0.7843230073438672
-0.089051364475577
-0.7575120448190028
-0.5391929594015918
-0.2398351638468689
-0.2846041071059151
-0.38895042387523776
-0.06663611341837393
-0.3142596950032483
-0.18094415154919377
0.13593279705949596
-0.17365596261445268
0.6558747237823809
0.9694503079298551
-0.39684975436070213
-0.8818259803758117
0.1584339488175222
0.7611523350517905
0.0548251575916704
0.7989027764150822
-0.7777458847634642
0.13136889072711333
0.48435617972339146
-0.3676838194432793
0.09603532016873685
0.37490359785548555
-0.33965226861557646
-0.6317251076162806
0.07751281212588924
0.018017087451295166
-0.5795692296646572
-0.4447349256808684
0.5288758750113882
-0.6834436872305029
-0.6881031479845309
0.6524042755338744
-0.5436435035257143
0.00992868840434318
-0.29928895216962853
0.09239042630961063
-0.7031631813659258
-0.955102277704644
-0.5061354248270724
-0.9092283585055106
0.5633519145801561
0.07396744426669578
0.3131434419410532
0.9474955207409468
0.6683990781538863
-0.028374323859445424
-0.0066614884635384335
0.9369756052289616
0.5899677017593008
-0.4008551190795445
0.961025386747327
0.03904687431316023
-0.4221903428016278
0.2223190069995003
-0.7814203160342195
0.6630347674365985
-0.21116650694126532
0.17958345081727
0.32440513958296324
-0.18166125260195712
0.031999667439305206
0.9951957653071992
-0.43461858539551096
0.9268490088325348
-0.17927082032547517
-0.187785547004264
-0.433679025383062
-0.6470420686391875
-0.00839602201088457
-1.000668233193667
0.3115294852313788
-0.4890365480470456
-0.5876389150763905
0.6241851405185763
0.3246871953557546
0.16299776107354355
-0.07593660227546921
0.12453982797925997
-0.5427745588200236
0.2978995381519707
-0.9673496580477948
0.5382824497478337
0.3696411534509825
0.41902082971739885
0.5609341762412258
0.8809323634863138
-0.2892915239091611
0.47113472776190457
-0.5413546335815523
-0.17019751117827325
0.32894206722852615
-0.6947086427108652
-0.8742472622438702
0.8799492456162811
-0.24738331009476358
-0.16947132298607098
-0.1253666920257705
0.325939899872444
0.9082692758769423
0.34359253168950127
-0.14405339326845215
0.6586181303029355
-0.23429411181478701
-0.0862926058495136
0.17910737060328785
0.8755217152953921
-0.21529563360187687
0.14328874994851873
-0.3292570764963832
0.17814792353150674
-0.19637184902475077
-0.9087269648867317
0.7907102106911311
-0.05296251680775608
-0.8143453427531662
-0.57457431987722
-0.9258773921193403
-0.3231709345107491
-0.5802849441385984
-0.9143528588330498
0.34395714857378457
0.2897590374900534
0.6204705060009776
0.9979963035659672
-0.576206518030356
-0.6156230348704839
-0.3521039280406906
-0.287485232138483
-0.5206214466181199
0.778219141740419
0.09029879325325664
0.8633682101112302
-0.46081778790728606
0.3066123423752385
0.6827639476136143
-0.1332908140945462
0.07655697154931962
0.350209948799438
-0.13460240753748895
0.021116995258119314
0.599489389638619
0.31585994291100394
-0.17489884578760065
-0.3128924311021056
0.9529391426762491
-0.7791959264603355
0.6094084856301473
0.039356618907530436
0.3478117990115755
0.11780457328455402
-0.45222773171952546
-0.2642970676678602
0.9290003725276801
-0.13719618271806105
-0.5648882953746979
-0.7408710413450437
-0.8085880731500243
0.40973304442821695
-0.2265138936613458
-0.48913965765911155
-0.9115999647815175
0.014805111559910725
0.08420961464768822
-0.4539898217464443
-0.25229489554475487
0.03430284282665893
0.5490142940121971
0.9395092315448577
0.7211090937906504
0.4082751386759831
0.9560307731277062
-0.7745999416800547
0.08399786783984674
-0.5820988550560797
0.696975046067944
0.8576845626786744
0.4785832241253745
-0.3826656825852421
0.6154737192343578
-0.4792144799022024
0.4851454430169036
-0.02586551138236059
-0.26359778734431943
-0.38726634876039456
0.4982611244519262
0.8980423546136018
0.3541712514060039
0.9636361432924377
-0.7232504202840724
0.7572281665006773
0.9795367854218332
-0.5398792688124073
0.9670956380939882
0.45731415256965025
0.9759875998503351
-0.12566509583157906
0.895568650820291
0.13054484152674725
-0.9272037376739649
0.2040046703942022
-0.7707200947782183
-0.3473730092206277
-0.7860568015408786
0.8328052775545998
-0.05264489101442893
0.6993253638390674
-0.08207653779881473
0.5271071642420274
0.6137933013340642
0.8881405941804053
0.6464345323876867
-0.274748706971183
0.14105206186014638
0.25518808211894467
-0.27930184199210567
0.18688427258551363
-0.8632405081032555
0.9574674602721825
-0.5071987487920832
0.7604222924103047
-0.964008740327952
0.11286984695016625
0.3575210534828649
0.07398718112783229
-0.3070150129363886
0.6676559767897986
-0.9916392505778335
0.7886316681330824
-0.8669597268271902
0.20973480450885382
0.23617653112118006
0.41547150359912416
0.7492055092991271
-0.7880029487306945
-0.1930515697697584
-0.8782676613845829
0.637817594454041
-0.04526654464544474
-0.7369244837707439
-0.9172137552002693
0.8934731765654113
-0.25083882188151274
-0.9674383690501644
-0.11127536842740392
-0.6074164814314583
0.613980237990609
-0.17610485930057798
-0.7697819877694486
0.3699390275935702
0.9810143223750192
0.4841555158431197
-0.8052504798479154
-0.9334936294422702
-0.5069401343045127
-0.40767042789737284
-0.5038761155740306
0.6206939503924942
0.42332610181231456
-0.04051322364117022
-0.35101192709873996
-0.4350009381769119
0.8328674548444046
0.7992397143898704
0.6412587376818408
-0.5517583222671071
-0.7579403963868314
0.3949094480317041
-0.06845827877029488
0.7006629775422475
0.22955381865948635
-0.41691974184017694
-0.9821259625049753
0.3907005795660335
-0.6798984377783442
0.5273690608851584
-0.051302274359634865
0.4659422159646816
-0.9579015902588834
-0.39586767698684183
-0.11006685473916387
0.3077680067005257
-0.5584704927814673
0.5501914529860702
0.9016015849780791
0.35948158502337396
0.3449383196388222
-0.1679193316011728
-0.31888354256065693
-0.6666841444027256
0.19604857710659865
-0.8115661519147621
-0.13196672039213087
-0.854484189662203
-0.39779820205946403
-0.5910139864621201
-0.6023711690319007
-0.23447369396001597
-0.5959615991156262
-0.6911090771907633
-0.9046937029594334
-0.40887271633783423
-0.864819304156403
-0.215911241622933
-0.6923748547445544
-0.9350500414166375
0.913840040033281
0.7417977347522602
0.36449430335433297
-0.4123013505448559
0.3795727143503176
-0.852611982250479
-0.05132690669002578
-0.9059146116186366
-0.568220543025614
0.7490964928148389
-0.1602162797094166
-0.11024892270979661
-0.17884205438205067
-0.608588608858499
0.773730017390354
-0.8219337778015758
-0.8273662728382398
0.17412515910483475
-0.9388599381357444
0.6724438916672394
-0.28596142505392647
0.11117049239689777
0.26136035908375455
0.042702690005721695
0.05250449425177055
0.16014998208302442
-0.09897029792079431
-0.20648249709515734
0.44672693480446557
0.8556053365264468
0.027167958578404195
-0.35883914659473304
0.2742347366917056
0.7272237552233815
0.39057394267228773
0.6518708601993306
-0.9603749830531951
0.9709934232567021
-0.20774586763924027
-0.9767174104931817
-0.005719345250891382
0.9816231628482993
0.47451518971441214
0.8131752949459744
0.9382816995777069
-0.6482256227968807
0.15438055774131113
-0.47459874966439614
-0.17892916892417118
-0.6078924836930141
-0.5862684350859627
0.848268819188642
-0.8803534024482739
0.43677530259760305
-0.004069477105876873
-0.8167636294050267
-0.10913402289157492
0.9133861559485155
0.5925790493910176
-0.7548628134072911
0.44613019931734277
-0.29335634783154796
-0.2092229590209776
0.329836184323083
0.3671220233891363
0.31217935075877845
-1.0052501397596845
-0.08382406132070477
0.34926023736133577
0.2321149089918484
0.715579475928328
-0.8582454596101686
0.0642783275126962
-0.7844003471809695
-0.052866312413073074
-0.9461860868161445
0.8977170706913975
0.17205915013531353
-0.01978953095330997
0.4582943776315312
0.9663564136271835
-0.15168976899793477
0.9150284271322788
-0.7430098688718787
0.09608039667513454
-0.14116952613731487
-0.8610473585469879
-0.7649039739014042
0.19804252062017366
-0.5048208646914621
0.6443587653056504
0.27132022148796614
0.5600318002774881
3.9397918470965613E-4
-0.7322111705625642
-0.4830830996467179
0.7208083463077619
-0.32138574654692614
0.08129289161392794
-0.8901624423639152
0.5056516195902577
-0.4371952366914388
-0.14394416443527286
0.4389949757505428
0.8950156757867302
-0.5976922055096895
0.2447541781116449
0.5361437677685754
0.12228310435272916
0.4793621137181745
-0.8948371350484828
0.03412884283046106
-0.8010405773662779
-0.8725270001682158
0.8321827331801455
-0.48934865012442136
-0.7044323652791389
-0.9825891944810029
-0.7182350539560277
0.9002484672212758
-0.6310741823866796
-0.015654054574133817
-0.5407052902051633
0.6749207798056813
0.593721112680451
-0.6836352013713526
-0.3762158534124892
-0.7516431880884237
-0.933127472587071
-0.1441646911711375
0.2814396430365754
0.5755776373007627
0.8233699592727336
0.3743746059814559
-0.4664403510689223
-0.8050173404755021
0.8935547448197407
-0.1356295832811756
-0.6044445594984561
0.7169446703296387
-0.25328369602533624
0.6810704864133736
-0.3727234156801138
-0.09584562531564682
-0.907921978401892
-0.21702741744301368
-0.16151241453749812
-0.972930528298485
0.364724389194428
-0.923244866535897
0.464902656197761
-0.8681229584630311
0.1825136182959297
-0.859034159515228
-0.5197425871633959
0.07678159299031319
0.4605321705463139
0.7875240090810003
-0.8250497814198913
-0.6682405879319331
-0.18873221573317253
-0.7682439348606392
-0.5750045692866385
-0.12571855247935407
0.581803759860181
0.6657544115387846
-0.8652662788892641
-0.7811590220560276
-0.9451458956335296
0.06740936104091803
0.743432882415639
0.7209648590551089
-0.4778079047004419
0.7346316379023774
-0.045498786466237416
-0.38611227979969004
-0.4602880233140254
0.39975214878092036
0.48013646024317624
-0.6798482033556522
-0.8637095654622213
-0.19224426755123733
-0.4943407717206411
-0.2739892051342246
-0.5856605015543732
-0.4828251222368037
-0.07185115706244943
-0.04647416451190175
0.44202420959809263
-0.7370241200392044
0.6763875258818656
-0.2262037626514018
0.6857035788833848
0.8834754058410614
-0.8489449385637212
-0.1790752809966874
0.5083222975423
-0.7899993430914433
-0.4787237852352513
0.49816801538753497
0.9313124820213422
0.10454111814406132
0.9709041470922063
0.22400012512883513
0.42863117524165517
0.5860544342678133
0.14229924081436157
-0.802567779989456
0.8736275075625951
0.9454948578940096
0.369184180261023
0.7790557114653348
-0.9620738052003488
0.3274623237894708
0.49370075653628215
-0.023497977588331415
-0.039985436831827106
-0.8128329107907852
-0.9134629326916934
0.770664631477307
-0.17886716386662008
0.08156860676882295
-0.883508821859882
-0.5857244411910054
0.05230762774399776
0.3273170790070298
0.3477126386540637
-0.4126561374241023
0.35913494523997014
0.5582500634361345
-0.18262259263825692
-0.1417508041333881
0.97892842745345
0.47066549715936085
0.5185376535095222
0.23669590048858266
-0.5531729142963985
-0.8135684984645324
0.06962834544075051
0.4936585758562431
0.4676813966037482
-1.0084841642572946
-0.3677823228075391
-0.12003116795587099
-0.574646344504947
-0.09645255860263455
0.04430571606813167
0.05710180522568166
-0.49938193972506817
-0.3013907069393016
0.7727946612660842
-0.8910598477431878
0.20100653012350808
0.11380891150559598
-0.16819234329936766
-0.0896054715772781
0.7162473030539773
-0.2954094863614271
0.9317167987675053
0.4075800893529749
-0.45036196622893937
0.16707022489910905
0.9423950691265652
-0.7366979732561458
-0.5788007025797421
0.45654104608233304
0.48253042985195965
-1.0110869817002959
-0.8569549537786029
-0.24144017324933484
-0.17730631666758537
0.6741118896833944
0.6020726846906879
0.01452264720676259
-0.9187566326764368
-0.9042139085304006
-0.05393703455808547
-0.3379226625247333
0.7220994467253716
0.8683554311595221
-0.20911211324443382
0.6794881794553713
-0.2541924546336287
-0.1456178987920529
-0.8261427393373474
-0.5090969864936293
-0.6170975311992323
-0.7491629607095776
0.20696455233453626
0.5105671615266252
0.15788779248506743
-0.4622580178066597
-0.17268870623588634
0.2607310734245052
-0.6415392379981214
-0.6844234868437268
-0.09680975834754499
0.9588397588714814
0.13591882340062514
0.13861873061877347
-0.34354884848164635
-0.07239369422711006
0.7410579548748627
0.8030557298563559
-0.7223318382233265
0.38438722307359063
0.655543185510958
0.8882542768432068
-0.3088911888698309
0.45190105351330395
-0.5627939836377058
0.3470890563416984
0.08441985677299961
-0.79054610505038
-0.7760107381081491
0.36723352105682927
0.5207803486398407
-0.12709727226185796
0.8416538433953668
0.5133443325645877
-0.4859908610070702
0.9694438762909307
-0.4583907562543458
0.4203636517414785
0.6396792787024526
0.1525657524108307
-0.5722739230952443
-0.11570143097599943
0.9644730848823773
-0.07766299018155776
0.7576987202079484
0.8386400360981372
-0.8660124167066838
-0.014098953747696982
0.9787847337796493
0.09601115169220743
0.8866768807033795
0.983473330940571
0.607973154768549
0.8306541698880895
0.9888872437942058
-0.3123793927899961
-0.15100715258320255
0.2585685282445758
-0.41783487478561965
-0.8855667981070151
-0.7098051395501978
-0.5271096283616167
0.9096068405019031
0.9673163640232852
-0.65229194014043
0.49748861460790894
0.46602950539619953
-0.45681411024272595
-0.08941324148519628
0.3516203469871509
-0.95538326532076
0.987025412731806
0.3930998588473714
-0.5088196404094517
0.878987213717324
0.15609001687352322
0.21030342359677562
-0.10330863182366097
0.6153306112969218
-0.1396022984948981
-0.6571990117397711
-0.5467823069268862
0.0066425885173533065
0.9657629295664235
0.9792249138823296
0.4578340665896273
-0.8498691016841703
0.1916114429565185
-0.4037953897283715
-0.2565104633154203
-0.19440890948724965
-0.7237819268357907
-0.8019140533115163
0.8720938848076587
-0.6981652699913423
-0.3534356679826266
0.5955681598099851
-0.46032722753270283
-0.5839508567975886
-0.6678852660508685
-0.5224244855773177
-0.5793921071551901
-0.016054737269254427
-0.9539294167557396
-0.31579935508854573
0.7488174478135052
0.3265615596212566
-0.30259148803817554
-0.19476460118366237
0.5801906751879347
-0.1678610414774472
0.5149281082279857
-0.013086018405994845
-0.8691121878904783
-0.6524135961359062
0.5715471720186568
-0.31529623942300344
-0.4164832861370198
-0.48318775137003556
-0.316364538469472
-0.09132776603938123
0.6916929450583469
-0.16641132172458686
0.040083834647056234
-0.9308923846955176
0.945832253661713
0.37958114431280393
0.014408459967658273
-0.6273386897073817
-0.8134734403922352
-0.434586083175553
0.8285321198204942
0.1172763725833412
0.9105945167670279
-0.8503062919973461
-0.3261039184178165
0.9238797293124402
0.08992810790248522
-0.16897859625807862
0.6958062004673734
-0.34954074075404684
0.8970293426771424
0.6406015223795517
-0.07005694263634916
-0.7516521618691638
0.4292416677231553
0.31304337965359497
-0.17203231316213052
-0.8261927689052861
-0.015475559077145845
0.06780012192036641
-0.9445439115704212
-0.2593642973260409
0.6227295749183136
0.18022381253134054
0.6418682569156241
-0.8257651393584438
-0.8133350679871267
-0.900832120233305
-0.8788879341243262
-0.9198963281841576
0.7877111249228499
-0.3210361116192645
1.041077241212826
-0.0046556475357818405
-0.543043490733837
0.3958941389626549
-0.657577602545142
0.01721434049499796
-0.9537003454616267
-0.25978695334934737
0.7303126472950874
0.7440012055814678
0.5635842287766295
-0.0033881190933350786
-0.5033817132128787
-0.6940159956960142
-0.5482520024063449
-0.08736506574052066
0.14553019684614704
-0.713383611029064
0.5682645062373998
-0.656326006653586
0.6295493038860109
0.3582005592362739
-1.0250467977172706
0.5642713484724561
0.6002362801460309
0.2953447909340031
-0.7122602270434386
-0.8995726865866811
-0.0918833704799987
-0.9604850953393947
0.4554447823401677
-0.41493327626020887
-0.8612352431528008
-0.8680542898581345
0.4540249109670823
-0.5124396340106195
0.6336531336668458
0.31915390036209396
0.7027147791604597
0.5521650625598459
0.6737741734061975
-0.6715024312764619
-0.024389929556204063
0.6617205835824135
0.9310228861730326
0.09215642829487723
-0.6049480872150601
0.6420770135987152
0.2633981112083224
-0.9529241830789845
0.5758621955692654
0.4324708324385456
-0.4273597081700804
0.4899101980145479
-0.9538349384468935
-0.9499219247677281
-0.2429101466602454
0.40623954880833923
0.050957567891069394
0.01676705845035539
0.16209967320805163
-0.6821541717019448
0.42543369736316416
-0.35736845584633287
-0.8698369810699952
-1.0119019606570123
-0.7361432801643379
0.4874179742704426
-0.46262651875286537
-0.05088191681062019
-0.318450962903729
-0.14531370659369774
-0.8228822848658326
-0.04805237862701569
-0.4893743176639636
0.7070529974199591
-0.27068328744104697
-0.27827483715478346
0.4380221412144211
-0.028148384388847963
0.8044566607552666
0.5420462111951986
0.8549000050737585
-0.39841291911978594
-0.8678388345505944
0.028704068617741524
-0.7950039679843671
0.6999292383879233
-0.8651398339080757
-0.15371689948830894
-0.14647130913585305
-0.580574454196789
0.5085936618434224
-0.9765706726253299
-0.9367338771637816
-0.6340041491021503
0.09039725319079817
-0.9482809353137175
-0.6071533726146241
0.5399694398884084
-0.8509144803726405
-0.5048492813308668
-0.1393359967872476
-0.21170192165370452
-0.6947068806525444
0.6476645944693727
0.3663450439848562
-0.4397014913366856
-0.9612181280162033
-0.36509913197136923
0.23564611011179656
-0.6281863129300164
-0.7834965946572197
-0.31714637373986515
-0.8285746863226683
-0.6886517695623408
0.8623374145919601
-0.029889337708638566
-0.3551197610283546
-0.435416982099236
-0.23822114278884743
0.9831999749504731
0.5032051404694029
0.6600987001911112
0.35975598872791037
-0.25199259300254384
-0.5546355225208986
-0.120575695733148
-0.3024423454066355
-0.7680223036710404
1.004964531004682
-0.5732715385280391
-0.11912773413103024
0.6338495707700428
-0.6638880831389288
0.8701847511769054
0.07595423117498555
-0.9140533596463555
0.5812662173856158
0.3913491464890813
0.12877475960288864
0.05197101284360074
0.5472488506178774
-0.8771283640054347
-0.7468659680726814
-0.9944215449784762
0.004704874095551459
-0.052098968161447
0.8684174819907907
-0.7120969611621396
-0.9305576147777812
0.7365209818563804
0.6055644668377829
0.480159536403915
0.7496543270617734
-0.009081050146369214
0.5168940707345809
-0.6841260312318169
0.12931360040420675
-0.6061786410406367
-0.27152223386126695
-0.31197643192375624
-0.1753112125424151
-0.8949495026843787
0.6796748553238254
0.823522021898109
-0.7796337474747008
0.42207613279007145
0.31295873705839883
-0.9065445702141239
0.5889606407113924
-0.8748482297455743
-0.7208993489335936
-0.0590262916631701
-0.02182551494872897
-0.17500960948611047
-0.9746954393313649
-0.4856112327117998
0.18278565309881342
-0.2141110527617681
-0.5545231494439554
-0.22384363506939595
-0.1960463972907977
-0.9732299396253569
0.4026084802984463
-0.227831664995789
1.0160424744321952
-0.5211394550819993
0.5823000260831529
0.009954170317891892
0.5722058923394409
0.9569176763806995
0.6672463722663056
0.2101559260020081
0.8115760857990332
0.3582671146272994
-0.15505620385764907
0.7126839309416323
-0.6419412750923301
-0.5272024234732143
0.8823606991516136
-0.7255733733041666
0.4691721098762931
-0.11428612427898288
-0.7319840107325029
-0.43736218947742805
0.4075478153874027
0.514085056731306
-0.5893996485246605
0.5234126383413296
0.6757455663779713
-0.31836871988062576
0.051287430005616405
0.0721351817899866
0.1996202018417873
0.09984764801307246
0.5024247134368733
0.6404789436306128
-0.3390132507186524
0.7691937679287992
0.49521202893008426
-0.7253583892455654
-0.726925038689052
0.7436772282771948
0.0745268799476488
0.8764100299478144
-0.01696413769372307
-0.5964984842640799
-0.8921095672797535
0.20187053735206606
0.30973418386698987
0.2815062270213057
-0.32083474709731763
0.7624532578505976
0.4951572350452474
-0.907657195620474
-0.848635012147452
-0.6166056798512012
0.6563830345113943
-0.8090279421220931
0.9945505035872355
0.38050813903575625
0.9859162768053551
0.12463692156766545
-0.36933941901488876
-0.7683278196680983
0.39916148210031255
0.1475393807471516
-0.44821817613054366
0.5825530823920636
-0.5067750584223734
-0.5106591996461368
0.6416413239562262
-0.8758713257550784
0.2543124886101788
0.8134956041219533
-0.009403770131082958
0.5310006441805997
-0.6764630203615345
-0.6726988666932678
-0.2861823999150553
0.5024047635520233
0.077423210772642
0.023544204025479534
0.9407708603463457
0.987970282833166
-0.4855578139264197
-0.3189047509164612
0.9418011262870388
-0.19239334094615815
-0.48626745229194585
-0.20455297899968225
-0.32250897643932513
-0.6031792024058371
-0.5982506013331893
0.7904239930764063
-0.8404673904589683
-0.07961336445994359
-0.6142459713665401
0.05917987040251073
-0.1972159809467401
-1.0050081973265572
0.16832711475945758
-0.2084082172945608
0.6717298105292081
-0.42363239614741444
-0.2679287578304907
0.4349927487689709
0.6783377188483288
0.38327676104848624
-0.8309641026588759
-0.0679668672993348
-0.4447888031942422
-0.7728467229186132
-0.9293643812639981
-0.5409652259091758
-0.8926295854492691
0.09231496447790263
0.1858018322951012
0.2668733140026406
0.2309790520903003
0.8400033581687558
0.6044455151629833
-0.2474022412756676
0.6625945785456879
-0.44012097614280893
0.9266117006858543
0.6969400281829332
0.6222382186405588
-0.850254325754989
0.31142874933747816
0.07722977879351295
0.5893253972172396
0.21247386424625986
0.19899142880114085
-0.35640125201181344
0.7026747930021655
-0.6251128194356949
-0.2532873319505132
-0.28304977652023494
0.862386360481369
-0.3658934929088747
0.27709048348695525
0.1427600391537797
0.12118996536268456
-0.14346966220087365
-0.4009016298505876
-0.3768556565865762
-0.7788365281659245
0.14511171336501968
0.5368514431222599
0.6351838244790872
-0.1607789931313704
0.8778951013964986
0.4567169531866855
0.15370855675907485
0.7624391975796716
0.40262918753491495
0.5918254064202935
0.8284499312861479
0.5175160058661094
0.11040783514479093
0.49942131558181024
0.9478248066045152
-0.7618659830222757
0.12644678813901014
0.37761843929475697
0.5200312364556263
0.5804125788207368
0.3698139206888883
0.34470178346846647
0.15755807622846044
0.3132039379228274
-0.032392151520313994
-0.28841688470041077
0.7369032175250028
0.4953144770508381
-0.7141606040633447
0.37244503651595107
-0.6729501040798578
-0.379155457022606
0.14727155743799475
0.28426412567590464
-0.47183872439962576
-0.37747827329854144
-0.432554027228784
0.4834886399932958
0.002293496748323701
-0.3183463828262702
-0.13890076410574972
-0.005644938018211191
-0.8586228471354654
0.029217501928253932
0.16123557231701005
-0.7586876357968902
-0.46537391754830715
0.16824255516479664
0.4635020308568534
0.3450866240540336
-0.3356858913008218
0.7682478894682913
0.787689329757355
-0.5288138330903487
-0.7930437937717806
-0.7002486348612667
0.05943471200340732
-0.8527227155889863
-0.1911245841561016
-0.3878422793587105
0.5280598529112467
0.40461970497855665
-0.9619374491525398
-0.36393528796001207
0.28041917722852094
-0.6830525159130991
-0.6327623431509456
0.9522359666583118
-0.7338959451300097
-0.24803561806937224
-0.5392095383442973
-0.8154732954375935
0.9769464985322325
-0.24547106296821347
0.18310228597061695
-0.431700948461739
-0.3885566445155479
-0.7192541470713282
-0.9723176541790559
0.4319539914929663
0.565050459713095
-0.5369757418616732
0.7974022649139113
0.38025858187471273
-0.672950503407684
0.5577922074978693
-0.3653344578663588
0.3061962894220815
-0.6612784548931693
0.041365642715186175
0.41843147629905086
-0.9194328638415773
-0.6115534440227374
0.6578791093871091
-0.6245621907166946
-0.9052950699164365
0.39709454796499544
0.7898690537676677
-1.0113743885236968
-0.3536029890997544
-0.6863710740882322
0.12377374924332157
-0.5996462096693267
-0.6901556001393863
-0.24009092449645908
-0.8741830692120609
-0.6512454065071921
-0.350474520353078
0.6398813308946788
-0.29122718333184616
-0.35653886310130933
-0.21372217289428266
0.29493714802272875
0.40075311173230854
-0.6761231935123603
0.659918243388331
0.842086356229859
-0.47248825961753044
-0.6896830947224878
-0.09081347176458343
-0.5516025611402584
-0.622648964551415
-0.7788023749481434
0.33235720589773665
-0.002574806728707332
-0.5107298157690956
-0.10191897919693224
0.8975380999435358
0.6248080615517599
-0.8637623983790751
-0.7583649711033257
-0.7603833859628101
0.12074112652518526
0.12762090210586424
-0.7546118645413019
0.7450471251413229
-0.9058561456415387
-0.4482185321580185
-0.8299469196367825
0.7391843246654914
-0.7800065653611367
0.042890970464647314
-0.31805477713028935
-0.5723769139306607
-0.9254849190752772
0.48698887671109314
0.02034234887500245
0.6324075112236875
-0.3312589265641457
0.9049101530361138
-0.5318860461806394
0.14357020653752514
0.5818344407074172
-0.8930389036775612
-0.9124496905121046
0.6294590546772493
0.4471677185956942
0.5219430029353793
0.6227177263296233
-0.17517368943927897
-0.8540995736875167
-0.39317538927699874
0.8999406766136011
-0.7747070016510378
0.468948366677669
0.997313999327845
-0.2272710067897786
-0.13742316277107808
-0.6960907121177619
0.9882829097009803
0.6292450866997298
0.9827007959256839
0.8921526777613507
0.2694679960526786
-0.7885603210415227
-0.9189365571905178
-0.2457034192313851
0.7533790015770175
-0.7018205159557196
-0.7895700499050714
0.49127215187425893
0.26948969274871953
-0.4633705875566576
-0.8196072084549058
0.619091963073574
-0.6726046272948419
0.5213513894250655
-0.6509251613611453
-0.48931648852432896
-0.6252564345965648
-0.2550769023459958
-0.09136517576204004
-0.06411559005720001
-0.5928526068317354
-0.7782836519108641
-0.8593543564262368
-0.9553867555573377
-0.6114511092000865
-0.11878384120057432
0.22008706701283776
-0.602283415163139
0.6238305649730634
0.7854340763531596
0.9500457151986982
-0.31985461024308465
-0.001044530259370416
0.39351780484054494
0.4613138173594281
0.5703503263174098
0.39793138239771264
-0.033507316731379286
-0.15379123846582535
0.28735666011249283
-0.6051775193274112
0.3766306172344823
-0.6713832931657158
-0.08174182610671728
0.8348615641063032
-0.4458533384467845
0.4437326075428088
-0.7418602910089541
0.9938432608391515
0.33014200841055963
0.19028276351389048
-0.6718839423436709
0.7519806251612124
0.8383267934444774
-0.3037176251753092
0.14725665673156563
0.8030861530545654
0.277988915019444
0.3766761197612156
0.33558710919295015
0.2880427503745224
0.6598882302968366
0.6514741181746583
-0.947034549638043
-0.41307962719309615
-0.1737564868566776
-0.3334231006315534
0.1447432267433399
0.4258953090288768
0.355361989409223
-0.17991238815809832
0.46445734505942937
-0.8575087745551091
0.04099533363721542
-0.7486342564241912
-0.3699717471252872
0.7787013186642929
-0.018403996055920906
0.30504012583377926
0.4191321050384429
0.5679854461491405
0.9907592861311785
-0.7567261710525907
0.7887117359349223
0.265416535217819
-0.7276859330487212
0.15265156942845265
0.4965812899135613
0.8999912060759261
-0.5387583356622155
0.7240577323284102
-0.6894117814557664
0.0615867016131453
0.12758432768162092
-0.94638985497048
-0.3960247892256568
0.023914501923009483
-0.08611917789092606
-0.5169970692033015
0.31147829225486956
-0.7520270290798583
0.06321889975045564
-0.14611556088738006
-0.27041821666426236
0.1219625877409866
0.10419358423950531
0.6453374908984278
-0.3036881513251505
0.7161135132731461
0.34019249151209097
-0.9196126625267191
0.56782874135571
0.4075078590701403
-0.6538790339856208
0.026174940981733605
0.5810625442890885
-0.684834161151278
0.7814867759555135
0.21764592954975145
0.04778321257688857
0.004403252176307605
0.2778014548761596
0.1237503113567793
0.349497706333574
0.6147236605113915
0.7122730142149184
0.19126285727680536
-0.7669623181317572
-0.7685603868889072
0.5855131844988541
0.649844933391045
0.11262082092659399
-0.587762680519618
0.33929433827161565
0.19673890347357403
-0.8254758127550847
0.6570423273613611
0.4701382234352082
-0.5549371895680677
-0.1848782755119592
-0.7020446860124004
-0.8318334471455637
-0.8114819294022254
0.03642953163430094
-0.03107779416320283
0.07198794872820077
0.9552589825426077
-0.4476256251909533
0.8888789173340186
-0.9326293456566124
0.4439627877456451
-0.39633663675114167
-0.13037952470027167
-1.0005838198079906
-0.42547924331495807
-0.8645906228019717
0.03887880966539269
-0.6627977507011972
-0.4972785922121975
-0.35247189037627863
0.9970215889517503
-0.8018633903206469
-0.47256156083397555
-0.2091374960326975
0.2659645179676577
0.5006340203074181
-0.45452817994563
0.3039149437363331
0.038415100539190894
0.571346048477403
-0.2879514688951227
0.6954902841433525
0.6677830280469782
0.8277107489039638
0.13097439316489473
-0.8093541188620962
-0.9557329922616822
-0.9616049792559619
0.24452299548948025
-0.4958670543216021
-0.037078803342367496
0.04599388677032203
-0.7472543594149267
0.7018156395084504
0.5243405232654607
0.7536634894287056
0.1992401355524998
0.8195129942769085
0.9276661965955793
0.44877478778419233
-0.713303604316973
-0.42664825559013103
0.15990042072863203
-0.44395979112318096
0.0821989504231528
-0.3964946486337696
-0.5777114704396419
-0.6697166622347703
-0.07803820679795337
0.9189086491992652
-0.3673368042185717
-0.7983596850835422
-0.2757200596086766
-0.11194547523493813
0.8139594690266478
-0.07468173147643835
-0.3165580831323234
-0.41574327563730207
-0.5209871714919603
0.5010283890559892
-0.14031421519567874
0.4300624275945807
0.18525179909083236
-0.6863810271153857
0.34285730032823625
0.252269301491089
0.25830823870007996
-0.45731951248468944
-0.3833200086917809
-0.04637773825680091
0.23733458888550144
0.4753129559269913
-0.13544220426193856
0.45848253404064937
0.6058888851276538
0.6998927081458513
0.6254670520650889
0.9067578922290644
0.6461736698767064
0.9250911870392585
0.4485395359332252
0.2083666294787148
-0.7594235837424534
0.8999092169561952
0.7016451170144521
0.035842571151745176
-1.0418570656098987
0.1316041702108925
-0.28885470756440146
-0.08565738900866998
-0.6283851452446271
0.3499888099289061
0.5643571936882444
-0.3942467987049388
-0.7055277086273837
0.4254417388882766
0.3857899956113161
-0.5217955802882397
0.07805870215292848
0.9594527951925399
-0.9469199889592614
-0.9235592122143391
-0.16731190375970834
-0.790450353016785
-0.2187891600455882
0.38358412483037096
-0.5944253967515639
0.6889246935262231
0.6162586136179403
-0.04399027781434727
0.27771292101046186
0.5709179963652702
-0.28850353462498873
-0.25236333194300475
-0.7491976338414215
0.5004108669367345
0.2877711550272959
-0.07039818694160409
0.5009940677621062
-0.5240841388962061
0.6645281447958473
0.48812645550766653
0.9031231785066007
-0.008198464929048587
-0.6871549591173054
-0.2953562372615076
-0.21028117050166878
0.8052012612991121
-0.16203958542602076
-0.7114817340136081
-0.675274458838449
-0.9499177633040986
0.8047066675662465
-0.19099048080814163
0.6761570403189029
-0.9898798919929288
0.43184341718823843
0.9048120684072867
-0.17157840831859317
0.9929885203739879
0.8345724092786111
-0.022117614367314464
0.01927461600134132
-0.05022842384309474
0.16565903121474682
-0.49345884835769654
-0.2826546949303906
0.5042985523378494
-0.04605017292243134
-0.594333033266102
-0.4652827001639637
0.29117058716069494
0.06434441617775986
-0.1680174981040741
0.5659970064182642
0.8911476500089143
0.9596724883538414
-0.7813181965281479
0.4514863096077083
-0.717388359998883
-0.45160158787222693
0.585325682149646
0.526744134574759
-0.2348755158667074
0.19937028618758687
0.37291446334647854
0.5728483074583622
-0.8756763349334699
0.839997926849215
0.0729820586138889
0.3541230662451644
0.6800851928131889
-0.9769292563576659
-3.070111058346433E-4
0.6244042576099833
-0.13842519959350574
-0.47567531201873364
-0.30106617852863915
-0.1588149428849
-0.8740555325725194
-0.7364479425679028
-0.40395655478222803
0.9466163804434096
-0.4759180264567644
-0.04087657262617107
0.29161436762481846
-0.21490325607253966
-0.6411689580145007
0.6796542382178431
-0.6294707703588103
-0.0492709770043858
-0.7427140045911713
0.32234502084282723
0.5242160931484199
-0.1050826934633255
-0.4802148825369632
-0.0484994149228312
-0.24587095826050223
0.07237100279761313
0.31910584066798264
-0.3830664372332915
0.022542202971355608
-0.792712474518102
0.26795237089769286
0.5595582342543259
-0.12263928100459155
-0.7466075987859526
0.061659222938890194
0.028488491249492442
0.07739412674024736
-0.17372586962590605
0.07200449803543885
-0.9499621548739373
0.8731339991013423
-0.02498807789186551
-0.505737838696592
0.9194141665023946
0.026853029358560078
-0.32602874981087937
-0.022361870375459027
-0.9417520459751775
-0.23167851763598976
0.12562530343903433
0.657596937715934
0.8818700160489237
-0.5420542414128222
-0.42533214041878253
0.8211514176662418
-0.5696939392939965
0.03833507495249426
-0.5482080895157249
-0.10163173175513757
0.6999799156164667
-0.7407532128906499
-0.24930290819456685
0.5681133456291659
-0.17762559821867951
0.13953694818286735
0.48533369955680866
-0.07338799996082021
-0.6741533483365101
0.7087571403224606
-0.65567145074834
-0.03696336162310545
0.10413534613731751
0.09101051373699458
0.9505354115177654
-0.7985065424392268
-0.020603251372675213
0.9321309987133173
0.8751838173974651
-0.35477434981407324
-0.9818370303848336
-0.1933842502881764
0.1284578897652464
0.6015759357474834
0.14088578898225484
0.6370580768795616
-0.9537792254468792
0.18884327009532126
-0.07310559557215657
-0.12835357645579315
-0.23796097997009388
-0.8598118637681448
-0.017205656316641477
-0.9243568069241974
0.03906240931644749
-0.6172738358941681
-0.6285490606876866
0.057298944478261435
0.5172055383384594
0.47030171974711144
0.6154260413091504
-0.012791810008259113
0.8496755855821109
0.9818798715211416
-0.7718273054564835
-0.7981090675194028
0.3172228238617765
0.5737933665648886
-0.6243362062962963
0.05158416567095043
-0.5249997857798555
-0.18790848425664444
-0.001499033406822263
-0.2853806194645033
0.2877081330989743
0.1608803280628656
0.18353083606127119
0.13153226458526426
-0.15075065580733474
-0.8282580632999288
0.742862993732451
-0.41466157983269003
0.1132137076867556
-0.0277882977787744
0.28429359634136403
0.8713786080525527
-0.10605368543268387
0.023597064092888875
0.6104804611174902
0.3526355350395383
-0.5126930145001307
0.2540861870198707
-0.23746364841820627
0.8052014241228382
0.22969055113525283
0.8882231926193143
-0.7560552514099249
-0.007189616161402871
0.02089866726365057
0.23028735057818656
0.584083890335449
0.48923280268265595
-0.09120506168492261
-0.591759062202468
0.30864175569713204
-0.8018569351808504
0.4104084871063922
-0.0534713863987412
-0.12433863040843415
-0.5953233684109949
-0.9250545238146621
0.5154245077192432
-0.3518815032328531
-0.49938033859997094
0.12705501162416005
0.7184087462485774
-0.9108759567600034
-0.3802076270492474
0.34695700497376725
0.4954060579894532
-0.03895837136484084
0.527018742851055
0.40018723343381624
0.5361385489078535
-0.6273832511967203
-0.6953475538484645
-0.3507325751477489
-0.39437495268448824
0.049888008945060104
-0.3510530222313998
-0.4078887141093941
0.845390946207119
-0.7646090410833288
-0.2678287923031228
-0.584657618432147
0.28338017324279635
-0.14288777962787572
0.81021707069986
-0.4385052168745023
0.1063944093454082
0.47219691772660466
0.09045303021056472
0.23073307315193736
0.755007417235974
-0.19948611503377464
0.4789010814233307
0.4066206422218796
-0.11262572944497302
0.45660110566638873
0.1592761044457727
0.9397742291326272
-0.9866969548825589
0.13907126394467945
0.30082406154701363
0.13548556811745166
-0.18422344732378604
0.5560237902713947
0.16502858891793667
-0.6888213955970617
-0.4986116944051946
-0.38011437880550214
-0.10281825461325804
0.8815054413492108
0.08789458317746764
-0.09827991334896312
-0.5244088112277999
0.5457191683406024
-0.7324112971588613
-0.5823707867753564
0.11124669593291607
-0.9473571904043073
0.7062534872735893
0.25351240716165696
-0.2637540858934053
-0.6486558084631088
-0.8520517909499906
-0.671512114782358
0.9414860036214522
-0.8659887645432947
-0.5502400746126899
-0.3885521612670106
-0.31602034312518335
-0.3376213160506221
0.5144312554647718
-0.3062581655543175
0.04687106663617371
0.19370132808926532
0.47682616292228563
-0.005231782323027147
0.2546320141010652
-0.9644430830896736
-0.8425156604910075
-0.294408361619776
0.27366615512633435
0.5476051567371433
0.6381144138830721
0.6515026085226889
-0.853870864748465
0.12163629506782055
0.27434325884896243
0.9507179342445712
-0.11715117420014988
-0.7107147540939991
0.7340085328354755
-0.548788656595632
-0.24434480678564816
0.5587169437085243
-0.7393421697978871
-0.6512965365887003
0.5300243652556534
-0.949045549746229
0.9780109525141778
0.0044681644283454105
0.88427907581816
0.5167430061789643
0.7925719093768161
-0.7606057536208318
-0.7015913836605876
-0.30245600973352754
0.012842067939762388
0.8193558422625491
-0.9453233551414221
-0.8907744465077717
0.7239557522151254
0.27964524447784533
-0.08135517491463456
0.1637737449632912
0.6840241546717025
0.6353581703116536
0.7613393712630638
0.9117227653264719
-0.45422665838900594
-0.5584626338768738
-0.6800505684008135
-0.42495677612304467
-0.4689969570271741
-0.42769640379613644
-0.21842550741959058
-0.520222608396066
-0.9589640286944728
0.2758026282189043
-0.040206467094444344
-0.18150882970474955
0.3104934360397181
0.7836574370300626
-0.3604347203393097
-0.43204982301100586
0.12299509096536335
-0.03261398461793342
0.09396919502423148
0.13575714763821586
0.6486858271608443
0.3879506130460756
-0.776528938496067
0.6528254799921526
0.4516256869517805
0.011168458849361618
-0.08136522485124813
-0.25722017491328103
0.4298205854138382
-0.3352511398129378
-0.9489454936098639
-0.14442486897224197
0.7507412379492886
0.061330818198033085
-0.9032799813199414
0.2502314171236762
0.9371493219057753
-0.7449535353973269
0.8814584092445459
-0.23980081317642485
-0.723673624615249
0.9526222116286155
-0.20928393674011908
-0.23577460139434117
0.5624544533448973
0.9148557993955442
-0.9038708955420828
-0.8333329610983474
0.6849231224614912
0.8006983910421546
0.5609993733172057
1.0150767887501853
-0.12293278849809255
0.41422704334757865
0.007088901630838167
0.012152465195271389
-0.5760401996313488
-0.19724833779074774
0.03802549549971678
0.7679239123747353
-0.14848192934405408
0.4956515523724738
-0.23165694606612441
