-0.8706668327620971
-0.02892703174547585
-0.3767450813292641
0.46855405097516684
-0.39886216720210005
-0.36954152566491183
0.4670715040613462
-0.9593538550993965
0.608610038799331
0.6854597185664146
-0.2712273160859853
0.20033133376352555
-0.2281939117653173
0.26448361295435463
-0.2701134840112305
0.8120619883654617
-0.3556599635386808
0.25926439120656464
-0.9253192543738266
-0.25476685037755176
0.1466912320468678
-0.5978752416269794
0.5250462069182086
0.8876385548392288
-0.5244687040177098
-0.7064079265208926
-0.732209698099475
0.6125800226544589
0.8992143413950296
-0.0768667810249198
0.6220283434945292
0.2649618345715784
-0.3023393910727422
-0.10417229446071476
-0.2908263831080277
0.4222265248432319
0.27564679302600364
0.375178638169772
0.10674257462113476
-0.4340603064804696
0.5056991220366964
0.22563539335304858
-0.6671498577071168
-0.5560598858658781
0.6523394452253622
0.1571793468619818
-0.7293156320658829
0.7695550047911393
-0.50701194086262
-0.7340569517133777
0.7213852309276099
0.9452524021658699
0.8576107296898753
-0.3732972572726818
0.2637132638500937
-0.7271235783142669
0.9245364080817153
-0.5778109094818812
0.9760157140262549
0.169175358882185
0.313278561549518
-0.850147418207588
0.2678636497181413
0.7884223978154439
-0.05162084854698419
0.22773808290029807
0.5300363935982182
-0.2842227846589355
-0.5684206405573545
0.7629291751618452
0.5265065898590584
-0.41367134037081066
0.5123593355610181
0.7411327707442208
-0.7050381098611387
-0.8564386753142564
-0.3765787720955001
0.04804641927402427
-0.34267302264115945
-0.32063363012118745
0.16074205494790186
-0.1500929288628686
-0.09379274253457846
-0.4947222081307469
0.746300671462152
-0.10678723837976137
-0.9331402056348961
0.4635058400167151
0.01432183450405963
-0.25649999185589334
0.9558814422062548
-0.24592219648821742
-0.609172947751578
-0.48366760225582534
-0.787518847171874
-0.7581631487585284
-0.2796824565446024
0.9068547540838752
0.8042543198400222
0.5589026510385241
-0.5266782472880663
-0.40132911548459055
0.21399451901378616
-0.5764515598342457
0.8337572154655789
0.33315527248391447
-0.3286040156170043
-0.2825105019381565
-0.5841559563253301
0.7804390789995481
0.1175393870568708
-0.3680920145827784
-0.7011482091221899
0.677788433054365
-0.12439917420076226
-0.5751191445264501
0.2189553641265945
0.7051094945940777
-0.4200107837754207
-0.44560525725048655
-0.4608884037358015
0.7364607672022548
0.8816670952829275
0.7743422505691272
-0.046572105484781155
0.8245055672083705
1.000149947659876
0.7928036189887345
0.03060095155334177
0.6740819285691758
-0.288728410557984
0.6326731008105141
-0.21844642181973767
-0.01634348187726637
0.16890949863884164
-0.44595237627980894
-0.4215752561528203
0.5379332218101475
0.7466541220369444
-0.6107987832523685
0.05190098485385449
0.29446155682488645
-0.7299942988802224
0.36192524281244626
-0.7647493314004188
0.782750329824975
0.5267763620878256
-0.22601230525323193
0.778972444688632
-0.4147425438994743
0.3836984077892365
0.7520898260434878
-0.046716757342803346
0.7111538107584566
0.1058637192438157
-0.16849818059980307
-0.3173963541360704
-0.6895618636554033
-0.8334136434985189
-0.9742511749080189
0.7251912168982713
0.1034235972506567
-0.08383739067436555
-0.2327398860737564
-0.5073437986457067
0.4072001052958507
-0.9184057291203729
0.07753268152506153
0.985572940351659
0.9510623954759709
0.7989500657617976
0.4606891141013884
0.5493174686338693
-0.021283106561748692
0.8922560285676204
0.37512813238518494
-0.20313503979316286
0.10467150054681695
0.797805230246545
0.4419278750623567
-0.8932319211534483
-0.7644940531863109
0.37531090525305544
0.04421799168689355
0.9441128906512115
-0.13113484133681894
0.8448098326646457
0.1480753164750571
0.903902544953005
-0.7808767234085734
0.4282233502566507
0.2524912699394391
0.573571325715743
-0.9818613422967216
-0.6876857090263648
-0.9012463608147009
-0.9534872831372913
-0.08381437213533574
-0.5997534654638716
0.6772935932172267
0.09591129655205771
0.46301578907291924
0.17902969246401032
0.06585719298877951
0.8867860724672134
-0.30203249895136686
0.5856205252912253
0.49731444716297063
-0.11896602541625198
0.0012393440472366235
-0.6298285912238658
0.6804614930547656
-0.1570168624844416
0.06846404745983672
0.019225909174557698
0.4150351552630328
-0.6924096609668362
0.5985899394693389
-0.7195916597759228
-0.4009619042694337
-0.07177154862271716
-0.6532676917857173
0.4775243804321268
0.33606168007233206
-0.0730491452167092
0.6800049887558007
0.7960171582177461
0.7168864143243991
0.04909759057861085
-0.02743171480584343
-0.5200639547993415
-0.8912364768338502
0.13480023764806853
0.6862358245443737
0.03506607617210094
-0.49083888721599184
0.6330448959237892
-0.8080465808879549
0.5794431155783649
0.03872192483122279
-0.8998019536559132
0.6548555301549579
0.051784934750711144
-0.021180027598461392
0.7105154057210142
-0.8627585971243418
0.7940686868416607
-0.3247920791433854
-0.44976846006439947
0.3628673866707729
-0.2737377518280123
-0.6556085505478516
0.8236738307372072
-0.5783006278269328
-0.01179819800899205
0.17414566189945285
-0.18064561125853665
0.1705076110011093
0.8973155074420871
-0.13303103575975608
-0.26934888341545954
0.7961349115108812
0.4128165303014604
0.1896178367362446
0.111999591204983
0.3179122592913518
-0.6750583857095582
0.04425993542399347
-0.01242406232943823
0.012539217937803224
-0.6963092679410536
-0.6247057564572248
0.2898503388462246
0.7384354703886902
-0.6136919729379059
-0.4963652583648969
0.11744737638699752
-0.01622396229255467
-0.6266639932197794
0.5298431171573729
0.7990200645044336
-0.8264498448216696
0.8109472880819668
0.8065287218518443
-0.21119237195448362
-0.5289826024847638
-0.38817771341078405
-0.5706943600391244
-0.4452007666076926
-0.7088257498094886
0.8103066185943126
-0.39967656528240936
-0.14114753663271296
0.09408551620851449
-0.4036288078978507
-0.7303299186308978
-0.8276708271382743
-0.35471963003415075
0.6720617463182131
-0.8498277120232242
-0.7290160978418301
0.07807800740371296
-0.7187264017795004
-0.9738146356108465
0.28462271849863835
-0.24481865928483507
-0.8944375013323307
-0.040661264561571875
-0.42926429231438173
0.4600000013369257
0.14794266754482346
-0.580934982232007
0.36044550461858327
-0.5492856023485878
0.5852014602795602
-0.7981638937944551
-0.1382083571373934
-0.5696276723293124
0.8933687071863561
0.8718659719507744
0.8853367459857885
0.39184329922235206
-0.03475118621481602
-0.12156361907404495
0.20409006332227683
0.5613025138224587
0.2963935372755237
0.1905256646742732
-0.718883315094814
-0.29062735731380723
0.3445746424338763
-0.6703915272869494
-0.8902290270077302
0.3974117954294161
-0.3348252743618485
-0.7089747690274009
-0.6366452416206736
0.7519980103809477
0.7511090112626218
0.06544683617130768
0.11847936531365627
-0.5519135465153373
0.42354464773786865
-0.2772708960713819
-0.2905497184204271
0.22524268866377983
-0.2757997111190388
-0.31882622032637
0.3170602480396684
-0.6535066505576865
0.24930604624467667
-0.6614477360685205
0.5655578128860254
0.08305397222472502
-0.1217697593098108
-0.605035633246189
0.45547159235761664
-0.4251667185660617
0.11588682303904523
-0.20205678608532474
0.488922798405775
-0.04002901188175763
0.8916561932103766
-0.587822636105068
0.8544368722106633
0.7604227690896657
-0.9328425306528533
0.3506876217715462
-0.9004672399921752
-0.4351167509843956
-0.9329551931370245
-0.5507620262386157
-0.32659371691866756
-0.15843358842626093
-0.15872094353626173
-0.49858462093672923
0.8554245818496325
0.3427519658093331
-0.43891068851717263
-0.28759197871146075
0.3991089699914784
0.1581619454928171
0.9571388232993465
-0.9906971469780084
-0.44495179275195296
-0.09112150720759014
0.9408540239524332
-0.3976025971785773
0.6200839129783362
-0.5913432277990466
-0.1736911360031888
0.9116211190024229
0.6579409818124369
0.3006954373402378
0.5222701775552996
0.3370519043367962
-0.25747643080399024
-0.4502728443959499
-0.7824585503785781
0.8521837786513341
0.6687303563181808
0.6959090131167285
-0.30090017723559526
0.038763384551233404
0.6015381437039442
0.19299268746860118
0.6396585473499938
-0.324982014331579
-0.4091195652724435
-0.4271818186223353
0.40359579472238255
0.23002274031823938
-0.3130075156760699
0.8742435389851714
0.09329735449210785
-0.7432293278405903
0.5390460978279019
-0.7266156888269858
-0.8449063576130897
-0.6278505323994646
0.017207743537839014
0.37144860405910773
0.7469881825387047
-0.263277121779584
-0.26002535370842833
-0.10379004044520285
0.4843174962722633
-0.5761326964749239
0.39514881015633946
0.2169953521910143
0.7653774479007286
-0.9794917274709852
-0.16291569063373443
-0.6713953129823272
-0.45832146808818475
0.008728384624180964
-0.016688478655828468
0.7458833816648505
0.09193337414189362
0.8099566988493349
0.7440161053689797
0.6516636039143506
0.5664954983376528
-0.8436689982077417
0.8893716354881033
0.09382502295740493
-0.478255101150627
-0.9022696551245856
0.13727056420176517
0.9485808059222597
-0.08044951924516701
0.2686791899141094
0.6308512944400873
-0.17118672789616227
0.4202369386544599
-0.00795813682105167
0.5056368704686514
0.18680043297649826
-0.6554889358760265
-0.7950633779002424
0.8953630906617939
0.24973536063084595
-0.2728424405982816
0.2729485929371689
0.20263984238068358
0.35948053502705246
-0.607619967518321
0.1965070865931215
0.2695961784342393
-0.008505479293810451
-0.29244077702935634
0.325269915329894
0.3146251744143184
-0.4324533873386816
-0.43796170758680986
-0.5493225599632704
-0.9437014403777284
0.49819733355629936
-0.23539087820200202
-0.11199164346759662
-0.5594989922380892
-0.8191906070501831
-0.14762634401205124
0.13564376028789876
-0.8489244851935888
0.20237620967560688
-0.7981207463548605
-0.7425152289764292
-0.24317485440401473
0.40141206416136743
-0.3699715258229213
0.6896914248305335
-0.6737591314704415
0.5343616018421733
0.6625918379819824
-0.6830179581176679
-0.8332005359855693
-0.5008783574880972
-0.5963965063151088
0.9981621401734547
0.40701011734769765
-0.16252499979084425
0.7533961579468544
0.1967016002482345
-0.12836225476708799
0.5289608825521023
0.21597291403080032
-0.39461365174775254
-0.4100879732644436
-0.6983931901740975
0.11459627697904413
0.7879341957703072
-0.7857706367546193
0.15144621801664226
-0.5106991091932435
-0.740113674708131
-0.7205334104904993
-0.815422044971875
0.811475432535492
-0.039814290073637
0.13060988351452568
0.031021507912746663
-0.9719840013317396
-0.882443398672347
0.8618440363289412
-0.5349159298469807
-0.1044589537879719
0.7282930006785383
0.2379246314693427
-0.9285642938279576
0.7111145605220002
-0.20699787606909678
-0.3694588698491988
0.9796804670299037
0.393461235144255
-0.7822301329274016
-0.36741228411284543
-0.6947059160020967
0.9014518920615577
0.7428534267358197
0.3482235515573693
-0.40628813925931495
-0.5043061241877941
0.590649899865112
-0.5487041478724222
0.8683049799956638
0.1522208394328656
-0.8681953211403616
0.770161691637921
0.5892188707677268
-0.06617385779086636
0.9275142279381613
0.2622093940427712
-0.8585481065855651
-0.13582703856430445
0.36473280019488324
-0.6919492095348052
-0.7206956032581555
-0.4204089493467022
0.10924518346846512
-0.0755788149094439
0.28944477681858494
-0.29972416381517913
0.8726295620018429
-0.4643460216989061
-0.7913287668742831
0.18867279128071368
-0.2754753592020775
-0.07422556213265194
-0.8971583560203971
0.5483292879762242
0.1308861025912004
0.5790166729639127
-0.06549479459727163
-0.561579648098338
0.08725332943511374
-0.5191800468403887
0.889460518820591
-0.4136913291713076
-0.5481265712394225
0.7609266276769309
-0.2526045587773562
-0.12221372143999686
-0.6874130811791367
-0.3461658023620372
-0.30084192817700595
-0.4945572315135451
-0.38476610007007145
-0.8679173045435248
0.8885979478992033
0.16037848050214354
-0.36353569287460996
-0.9046163809628017
-0.06130401573260107
0.9549178531508443
-0.15343376658925728
0.8436594920526267
-0.16565117856208944
-0.6795430893278551
0.8090317188480585
-0.8673084893496011
-0.9904642762882329
-0.012013005985400308
-0.7937101238681789
0.13012626034364658
0.6390534788848194
0.03620499186891766
0.8750275556469982
0.7036770187742801
0.15544718257535062
-0.09825532575760114
-0.07705808066004598
-0.17533861470257148
-0.7246179825960855
-0.991902504101658
-0.9402230852836239
-0.23103850195195375
-0.9149321713301821
0.7321513746647198
0.7002559743555192
0.06787358980650905
-0.3545431339415749
-0.6069599122856543
0.171964727640786
0.8708143446449502
-0.2195240506867234
0.35464403547918444
0.5348419785002364
0.5217768098989533
0.8007897869756577
0.06625352181182641
0.05134072106004142
0.2911511715178314
0.7573375061371004
-0.10874221254311807
0.14356839981670916
-0.6555963258315162
0.4364347075113523
-0.011820155592047065
0.7671111322835779
-0.43481131617201224
-0.38732521987192
0.24752606247327263
0.37055937394292066
0.2728862821214074
-0.6866433534970116
-0.46895157449720093
-0.01096465420546588
-0.09280949556832503
0.277523145406945
-0.8545258777505473
-0.10646064917114581
0.10193124194885025
0.9865598896215431
-0.3702770963995594
-0.06316869321020073
0.9802737751308479
0.22624178300066264
0.9036999532022967
0.44797271235779196
-0.500944621165045
0.2733871809298518
-0.14033692930486255
-0.23298222584075523
-0.020617904167567567
0.25935411054177
-0.903611609112968
0.8932936122228532
-0.664753491879315
-0.35859307291237036
-0.5932384536294292
-0.382344146812801
-0.7174457611745693
0.12451758196488293
-0.4216813159894643
-0.5671474811132986
-0.8580720998148738
0.5243428608508182
0.8707754410220291
-0.9109817995414113
-0.67228794613564
0.5367401730174978
0.6457898752908866
0.1987809355438574
-0.8424357895593673
-0.9328624169937065
0.03992637301233135
-0.49206043517165654
0.6127625216658424
0.4500922044269347
-0.9846566173236425
0.6236617540718741
0.8269891759371933
0.6296950089881881
0.048754631894113165
-0.2830791063643492
-0.10017018021305005
-0.6091330490715984
-0.36726486479018383
0.7081932487804882
0.7302507629530257
-0.06871726382442239
0.984513815967178
-0.3384975503566468
-0.13356338371800194
0.06914057534668264
0.4572259734395944
-0.3234138525476856
-0.29591084958286856
-0.7440067417693302
-0.5518316758310255
0.655494394065427
0.14932734761350067
0.5059269648089387
-0.34375744666849256
0.10423083932298292
0.98444578431473
-0.4137455856446863
0.7716007103902894
-0.49760160720860214
-0.1854110706675842
-0.5016158945086612
-0.6430406076007684
0.08190235348141499
0.3879943096118259
-0.8173119384393578
0.8335643518743884
0.3177752646451723
0.7969632342725032
0.4058146183310419
0.023425174223928695
0.18652273424757723
-0.8910112235121842
0.4054033083751217
-0.2544756459739329
0.39373257811286366
0.8364401809707005
-0.678926006316184
0.8884749383661736
-0.6754181172005028
-0.7412441107303807
-0.5156321732531954
-0.8144524085549775
0.6991027298004533
0.41318938686964823
-0.26142998866245803
-0.25336331262035017
-0.986400576232813
-0.12976562305427497
-0.7374683088698649
0.21284051392686987
0.6327523455494944
-0.7012303800167387
-0.7813456037549719
-0.07093176680079
0.784737090013524
0.07021441201632452
-0.8191799612044858
0.8681038114115383
0.4385803263864167
-0.9904453760513452
0.8427039519791554
-0.883246052452469
-0.1646339940935142
0.6733631276367936
0.44755698152181655
-0.8282068694203386
-0.07831135102065839
0.30561791618194156
-0.28812077499486655
0.9434565984632381
0.38949909102680075
-0.3122833445121027
-0.9896967423594123
0.027922380813261153
-0.03743471002843144
-0.09055261175219288
-0.9490789115928864
0.8112712788819545
0.7963126524331682
-0.4523742229190004
-0.12878088363030227
0.2361105888588779
0.3466443662847273
0.9633035698644423
0.23992712913548248
0.13745044134629156
0.9587112461483075
-0.5836219865231526
-0.8373391816917923
-0.6171921120319364
-0.4580444858599916
-0.5853450304110206
0.8015426949328431
0.7335745660548755
-0.9080981972877334
0.6697950699521422
0.80899553339956
0.07146233738771791
0.8008986950122559
0.5282341637319978
0.1584470525999116
-0.2644431805325528
-0.6770925648533425
0.25848419071183193
0.40438253681081976
-0.3675994432628717
-0.6636450729892645
0.5296082067515071
0.952372107962666
0.6512510474019457
0.2813386576367878
0.9507295063533264
0.6213484254069473
0.2782540364353303
-0.1150962983986216
0.5507740663433908
0.04986975675140511
0.6908712330576775
-0.9139407521155243
-0.14830906710869812
-0.5012020597013297
0.8524774336595743
0.4595757021265239
0.9732715454567241
-0.9663268797896554
0.34071930710123705
-0.16826206269999483
0.10248217713278718
-0.6581172392326474
-0.355204467669882
0.39170023763846434
0.15031569623590985
-0.02797968833580886
0.9915952406800079
0.21288698294220315
-0.815715949856638
0.2691836099326799
0.9545007120459619
-0.09177167034432225
0.8253832540438688
0.9188896779868528
-0.672615962844438
-0.03245480886372582
-0.012097564951909005
-0.938218642363799
-0.25894355838569033
-0.003919542482286276
-0.7907656361996086
-0.11466534488175122
0.7420036042322686
0.2764939186107078
-0.7096255467463001
0.5343510800450254
-0.1489017009619706
0.6456319013565799
0.697545792763747
-0.8125925355584466
0.5232520528495129
0.5287969797301466
-0.916089714196592
-0.7900115615181201
-0.7763272351286089
-0.2588232616952758
0.7201161940016974
-0.8918455367795823
-0.9942524890456012
0.4459403578174901
-0.4987744788927429
-0.944677848136619
0.716390223105908
-0.5928911400927338
-0.6185537572629793
0.9140281842517198
-0.5687453398782628
-0.6573000075449271
0.3882522502274958
0.5999088608284265
-0.9978404403299638
0.8351658227738321
-0.8307323967983443
-0.01763915106778444
1.0066389227711572
-0.7814389020175375
-0.5119582549700323
-0.08976561630422493
0.9398599924598927
-0.19093286682626812
0.15559265363964458
0.5531238074098562
0.855051382688002
0.6061500840997072
0.6391294867850872
-0.48125960144327695
0.54092802820645
0.9023172744917953
-0.10896334399292965
0.5084793915456185
-0.7369965378933788
0.857632487470916
-0.5614803082030665
-0.613765729337963
0.19885934842850944
-0.8393395690608847
0.46430188527011074
-0.3758505360607329
-0.37521843697986423
0.6318391355010676
0.6040920709025513
0.4098638328790644
0.8241910698859578
0.7843093926343845
0.41134574810456853
-0.7474581595555403
-0.6008303660870298
-0.44852257504174875
-0.5196263446221127
-0.025651839675479144
0.4425486273434589
0.31485241376192324
0.42237542220465907
-0.18138731943812111
0.440644397509672
-0.3216383597070891
-0.9819182400767704
0.632681271438864
0.46308785881553055
0.7758693405232857
0.9484780528688911
-0.83189678558264
-0.6139323386269969
0.4012210480499334
-0.5267327298113954
0.902552699695913
0.5938016831187962
-0.3826111353198446
0.36076684627642586
-0.9491318318982195
0.07952367967588372
-0.8626073758323503
-0.6258289707630897
-0.07300168113850129
0.45002475407168463
-0.5818145892792054
-0.9137285358887264
-0.34984202293192374
-0.41438952713178445
-0.11692425579802321
-0.014901217188795314
-0.045001061445664285
-0.6805257222455569
-0.29790761184511444
-0.39405877342436935
0.6184100209840155
0.5680473896280868
0.9391315944988692
0.49482328833637534
-0.18099235684003392
0.09109156569936527
-0.43869635604467183
-0.9968991559610649
-0.346444075351269
0.6481498233799746
-0.6638492145115463
-0.3383521478248044
-0.4057852754740662
0.8033086255990715
0.30483167579894005
0.08205039705468363
-0.36950308852660385
0.6778486840001313
0.008829474976830374
-0.16541200130586436
-0.2937622718488234
-0.21784833810749848
-0.8244922503524079
-0.6732122396562278
0.8464433994408251
-0.43411523546143926
0.017458191175701725
-0.11591279221024534
0.5403204371853196
0.13209832912116878
0.06842759200900321
0.9352642457474665
0.11359053414931701
0.38189382623045537
-0.747659893857279
0.6816811798581536
-0.7312498663976197
0.51644164249451
-0.5632573627488929
-0.4275248050192173
0.04845061919572933
0.06903258201757795
0.868236171030205
-0.3521043462086358
-0.42465583800135404
-0.13989842124419619
0.302531399432348
0.5461281599400037
-0.12541266442238141
-0.33466682090273975
-0.4911479803638285
-0.0052725368242686485
0.9639851888559436
0.6719259340583237
-0.587413730562928
0.8915851065395932
-0.47848483680211995
-1.011161585931633
0.07194209401349518
-0.3119881037767889
0.8661489814939499
0.4973630633730419
-0.28522668122924644
-0.9517019795660631
-0.26421206097979066
0.5019433188636687
-0.21204616623321618
0.2935068824637424
-0.8418074660419425
-0.8396726287250654
0.09892515661276473
-0.2754858099992602
0.5791910375542546
0.9489435611709213
-0.6975157021294248
-0.9912573363314642
-0.5617817547475251
-0.3098810800771802
-0.7782365767825512
0.44429624526146483
0.5271749802680333
0.8063413960213892
0.8483733410606604
-0.11866767178465253
-0.5162098922821762
0.19012292255247754
-0.9464168610822176
-0.4472110274889402
-0.8425696248201897
-0.9699506196904885
-0.23512786331202074
0.8083912873230948
0.17798726987339478
-0.5597479251778887
-0.5209681543635618
-0.8113002057603232
0.6608052919639268
-0.30488110132212165
0.8809923491597426
-0.5106593469738928
0.5269809378081578
0.24525907078557624
0.48096915633964255
-0.3137475971978987
0.5721021865612113
-0.20957129737665636
0.7933221399817514
0.256202799134737
-0.915684354446604
0.43216812975979846
0.7043642933734303
0.38161434982111647
-0.7959981733105171
0.9909277467906269
0.4570844372621777
-0.9400288110004263
0.048259040566078
0.6410108743703576
-0.3264348164351842
0.020179247402378808
0.21333119269894668
0.42063568060110856
0.3962360838844749
0.12287267296982923
-0.14704227803877815
-0.20645505785529306
-0.7164652875257633
0.5199030181878681
-0.2917196797566532
-0.3645648596352504
-0.2821124804778548
0.7579150700073352
-0.8435893957821973
0.2762014257882584
-0.8508845366530841
0.9634281429416355
-0.20470515363997915
-0.12659608419306248
0.36692357899937555
0.23121356837487417
0.9807659137934639
0.3679216167258618
0.37847281252188375
-0.30041229736262925
-0.5120409825611616
0.4762242988080889
0.7692541312957124
0.6321454832934724
-0.59171496181536
0.02128397709080637
-0.9207115901945788
-0.7696891165093204
0.9750089695357502
0.511069856205366
-0.786342373715131
0.48813751679939477
-0.029847546934923874
-0.6751336815236684
-0.4517245613008928
0.36365570897856114
-0.3430290460922796
0.23240583925415711
0.29713031614230856
0.04184094296054349
-0.35926440936273624
-0.5236500741357738
-0.7738934303921515
0.9349439409777843
0.818328883322113
-0.6136786091764181
-0.2692605152801055
0.061437426577821246
0.10271204403014197
0.23001937268909098
0.3225192196716075
-0.3605380660598467
0.5905863960272236
-0.5449629260774705
-0.48433174979026966
-0.08875265342092366
-0.28441337432520253
0.9990217767070818
-0.5480770877987861
0.30008954436046853
0.7756122119520719
0.3660033229965964
0.3757999075850755
-0.09310325812170578
0.4312894687393027
0.4278705491892084
0.8082474826772279
0.35312189227440743
0.17201358635620634
-0.2850808561444786
0.07648226308916617
0.7265719832374244
0.1593894058092472
0.2623804188507625
-0.3905868520354958
-0.011948490729666332
-0.787333408103298
-0.27011431891810656
-0.6470453716521904
-0.4182477236435259
0.19722808791913313
-0.027891167574088913
0.12343481829921316
-0.8504944252896535
-0.5020726645641231
-0.8159242265495075
-0.4647368849786064
-0.6280418731248132
0.5079283804002137
0.31593280700682447
-0.06536306729631745
0.8657486478921732
-0.2641297547272796
0.6006594438003298
0.3480182488587911
-0.7249458334208071
0.4485355860576674
-0.03134969292719207
-7.158549934516701E-4
-0.27483147904484745
-0.800895016886711
0.8995089910148938
0.8322247572781954
-0.21839966232617058
-0.3059798801871682
-0.18404066752689335
0.934543929888668
-0.7790114923615576
0.7387707793094261
0.8029000497289902
-0.864465404594982
0.2648184214434115
0.4446540583507831
0.14115789456714856
0.2244683700231444
-0.9065145162794188
-0.4667220077485392
-0.25262495974697324
-0.957139096113243
0.28971975423336077
-0.8935525586384748
0.8623813684971425
-0.2714923501923278
-0.11285180752065313
-0.9355119644826516
-0.36078293074701245
-0.20467650736839446
0.48345340366892414
0.7037924737252698
0.15163020426504709
-0.8652857050846984
0.7177530148696032
0.805362300499026
0.11260600203314573
0.3809118497916339
0.7891765457810935
-0.32870370680957267
-0.7442923786437022
-0.13943323407727812
0.38939503956979543
0.7366745558907805
0.24956439666516167
-0.34855022441787115
0.6313334108316286
-0.8776721832977538
-0.17934553868907505
0.024765966652052007
-0.9773569207735594
-0.3750186286547976
0.14371560923142293
0.40899184799770016
0.7188315095362299
-0.4123856011418312
0.042215713817768834
-0.30169039922313895
-0.8556677936354249
-0.23241388551732192
0.5204243631872172
0.037191493642680214
-0.8198176531527017
-0.12004155617904831
-0.5708223401421777
0.5839590978074224
0.5090655505769263
-0.3728629819704015
0.6813934890346794
0.5162168880287286
0.9575470238284006
0.15909716518524028
-0.5148034220832717
0.027810529670737924
0.6939832608538129
0.19294548937595737
-0.24634760884502455
-0.3005174380691463
0.20004546160920703
-0.8737797739199735
0.7489098547919237
0.29716867019477067
0.40878982444334266
-0.13142176042997059
0.8943752466560625
-0.4838223615611732
0.10939915855540086
0.2439750432750072
0.7114884776084063
0.4934497055664992
0.9868257409144331
-0.021943254089061077
0.09042519923086027
-0.05092744943914184
-0.07468783397088469
-0.2839670461599737
0.1583683191211261
0.7820598162121821
-0.20859480084074497
-0.32864254841455726
0.6304549198116899
-0.39674671998887356
-0.8481523890310748
0.6366699930815111
-0.692590047180581
-0.7618591527369086
-0.24651122493220395
0.2905045890479037
-0.6084353224473481
0.5598273709137978
-0.01336914095962084
0.46100329641309473
0.4194169927623916
0.17090051420096705
0.37815041442549724
-0.49058868850227144
-0.7729923174893922
-0.5476367584135814
0.3245924472546958
-0.5452294393411016
0.7880423922293271
-0.8657302672775793
0.7938943441866382
0.6539248389592535
0.9183395130729236
-0.6312338511617941
-0.18685531910340333
0.641814032686142
0.6641921718513503
0.43193604464530655
-0.3201292839663656
-0.21766978195336434
-0.6798876565153246
-0.4337251536647143
0.1780826463878071
-0.9076005189872397
0.12963435561785985
-0.5325402903916329
-0.5846671858963338
-0.6477699856712729
0.6947357467488349
0.6002967016557833
-0.7155922628654285
0.9481834869448018
-0.8580010315751351
0.6364892238339576
-0.03747524040682098
-0.08044083066253717
0.8160102873058087
0.8764102081088976
-0.7687400984094461
0.27608525314571103
-0.9093575891549516
0.09159741736395771
-0.2283225814720649
-0.13773728204702448
-0.5524945042437561
-0.9850220591701857
0.7574043091454997
-0.2672956770914947
-0.1494838144344577
-0.7271507516104855
-0.7018726590246117
-0.5053234315799351
0.18288519109521778
-0.5137491757798016
-0.5112824760364724
-0.18323928267202416
-0.6455340567759938
-0.8605798211661375
-0.41113607094024013
0.3877466930546686
0.20151143728527723
0.5437265485019169
-0.7399959135858772
-0.3784827309553858
0.119109936113794
0.4841767823855078
0.8054056261853255
-0.5838805118373006
-0.2713981849792393
0.7982268830531034
0.7399103561622674
-0.6938164792002787
-0.17844462780386708
0.993382041934116
0.3614353942179533
-0.4494568546390646
0.784728369930965
0.9264851830847647
0.09154675904687555
-0.560103863234573
0.24621771166675127
-0.7063132075969883
-0.267594168771975
-0.5986688251170719
0.19419762981195993
-0.3876002968109912
0.5857749933065768
-0.5038406766645822
-0.2709522229717332
0.01672486691864063
-0.8335649123272142
-0.9288658676528422
-0.5237957393482824
0.9469179198348427
0.704053634458801
0.5667035740561911
-0.2774230346850239
0.8204963473376903
0.5546248506731823
-0.9004469965737564
-0.6758787622956504
-0.20323289486441848
-0.6301874414561898
-0.017757864028199743
-0.4892188803351949
0.547836718528451
0.0959058852419252
0.7450536801739658
0.029214750807521617
-0.6504814789153206
-0.18402969755468904
0.5384442180714676
-0.33798256942845706
0.45527801212181945
0.4738657017019631
0.03637661902500101
-0.23857259278507745
-0.11390879621591277
0.7343360957526817
0.004923754337825121
-0.06468633138407047
0.51044813125116
0.9725008419072844
0.2734379765028701
-0.4223301158615811
0.5697900189005543
0.7668232805273446
-0.871312528460897
0.14300538695500017
0.010195754519276347
0.37078129683070166
0.8152484598908123
-0.8677540686255693
-0.014620293069459864
-0.728782181794292
0.8727096992489337
0.6147909272449082
-0.6420051614895206
-0.018292916591543966
-0.579664500336795
0.07079115923300394
0.12906220738923796
0.19985659824249008
-0.2519879615871031
-0.7882964612849994
0.916341027042574
0.4961962802065094
-0.714681234241362
-0.8996316847454258
-0.979448493146532
-0.6228900975335853
-0.4240723964494381
-0.8951810180600787
-0.4146960872621056
-0.5967241891881434
-0.8939694044564981
0.3144849016226985
0.9113483723567803
-0.6420661984170103
0.9640966846851381
-0.982851299001921
-0.7587190612280236
-0.5949868539866823
-0.051074934598918986
0.7412978765236004
-0.922710661449454
-0.2269208738430456
-0.19729928236378413
-0.7483915991666547
0.8449113782318579
-0.6452344092470703
0.7167344184708441
-0.2246412183525307
0.7775970591550042
0.02092075479927187
-0.19407316844629663
-0.062402474276166124
-0.20697759529100526
-0.2860885176881943
0.2987469330357728
-0.8133147708165113
0.021032615153295516
0.8814966934554567
0.47985620897297154
0.05919709005274046
-0.919521467439481
0.5889790666901406
0.33213988669365935
-0.7142743065883368
-0.5690367370537835
-0.7511955115116864
-0.9613418678713062
-0.9093163918065057
0.3106204706219379
-0.7143642411383597
0.5029165940039236
-0.01760166779978264
-0.6566204360326912
-0.37946709713895005
-0.9754910151586377
-0.10311278719553568
0.8654603209023812
-0.7048812067979027
-0.47951320212530707
0.744147467239051
0.5858113589313131
-0.7643372466856234
0.011679573893470463
-0.20682870652520313
0.3446481015236812
-0.9879355613953834
-0.2049416633577643
-0.9018371364294284
0.22571567181298074
-0.20306487065598167
-0.8782399338009278
-0.9329021926875203
0.5517954991266687
0.9414961884376373
0.47868941797083076
0.4186656131904253
-0.8128113859424803
-0.5312902054227782
-0.28256657444968986
0.5791808909425977
0.36034013241570634
-0.19047721323764488
0.592082675945263
-0.9051120454843284
0.8216211634380214
-0.7816653047449807
0.45625063153677414
0.0982546631097605
0.11102040209615432
0.36664592046930417
0.07723295707527877
0.7840544871351874
-0.05881684998525771
0.15763319831863384
-0.6620636628003871
-0.4894118654714814
-0.30476198372833335
0.6358666893310275
-0.9992861816594308
-0.038313971781435086
-0.15862538940858406
0.7611836496856246
-0.9818039920800518
-0.008410281204150933
0.6670932087260646
0.3601898026813943
0.31689033711032066
0.25816122176023626
-0.9683487960005237
-0.014014671425384699
-0.9916584337959099
0.12513642519756035
0.648846428720966
-0.04864902236013122
0.9246740753633615
0.5739760422642376
-0.7981489800671087
-0.02008779114447813
-0.17851154292900018
0.19615184468342128
0.23004416045576132
-0.8962373046406602
-0.5547873354749768
-0.5835620842736124
-0.6463894572273389
-0.8625868427485615
0.03253829507572602
0.3807108275273505
-0.8041200368185388
-0.7035083135294606
-0.9657555604082163
-0.6841386942726546
-0.9836109870615234
0.7554269542560962
-0.2634950457505264
-0.9389261032745082
-0.9728406477891315
-0.188183166364276
-0.1520244868337468
0.9827459225428291
0.25427797732852814
0.6026484925731963
-0.6883737030225487
-0.18868034243621742
0.13799326981553972
0.911792410735013
-0.9727572101681642
0.34114295879802187
-0.07898009003425746
-0.3839600749084107
1.0128098271236763
-0.7513084459132551
-0.7074398577662954
0.9564899396271302
-0.05266819067061333
0.38775446569205607
-0.4497105003976503
0.7810475493345606
-0.5076928861354096
0.9200978731527554
0.8740760826138403
-0.3836305163907507
0.7428781860421662
-0.025726897112923055
-0.6632129112629637
-0.05704417213398026
0.6733378914112504
0.06034685004926101
0.5300154719762176
-0.6138980836508002
-0.25329218646003887
-0.007275757041843715
-0.26284981688442427
0.32395670376865127
0.8391236382569714
-0.6066356478962839
-0.5848023393846
0.34003633311417536
0.6532467337293902
0.04060122806012277
-0.7875071893325702
0.6061585454699043
0.9434340946545905
-0.8873661353565225
-0.7602523071306793
-0.595772428199323
-0.2443841023201884
0.20931178252287644
0.08416558922152727
0.5148043015723445
-0.8478774648701379
0.1371833676365366
-0.9783910533316336
0.13265576102564852
-0.8350494363451707
-0.37624662036793444
-0.1358211085708135
0.8931124533285858
-0.7354535232390426
0.04814170054894135
0.21325563095623543
-0.9693606698964409
-0.4183353520279113
-0.10628715237769136
-0.33978737570254125
-0.6233872281649001
-0.5906804131864054
0.43685026807838007
-0.7807979368083441
-0.24690619193109117
-0.6447837256814123
-0.2142494123551658
-0.8072181819435029
0.0967368366081682
-0.7376240686036691
-0.007093386985397555
0.10223511424990213
0.09690667728980827
0.31052468153974466
-0.32696652357318506
-0.16114268830645603
-0.12262186304944345
-0.7053227326934844
0.8523854493693362
-0.40849316601143487
-0.2098130437754326
0.411875608909599
0.48955474221769135
-0.1969045813968343
0.48675692691129524
-0.3110736896699839
-0.4702808340670313
0.6413733447942485
-0.4054930260501437
0.13137765149692535
-0.9717137190283464
-0.3639465600045857
-0.39270826105210915
0.7401789540386792
-0.844816167882446
-0.6088700109447021
0.28692339961687746
0.5418274939687168
0.9970374490446097
-0.23688700771604346
-0.3563678105385626
-0.009345264924640752
-0.4949689130442344
0.3908711119466062
-1.0375753401611745
0.020354854679663543
-0.41509420618020976
0.7607052976535769
0.27135563387644507
0.794747596831421
0.031210050513499763
0.5662701704686185
0.9625709126769603
0.8576895521316557
-0.2260892362361306
-0.7181123710762538
0.16190124210638526
-0.0029610958564593713
-0.8076912482051793
-0.2844346382139589
0.4962445226276274
0.4503013385340133
0.5475525803060928
-0.6139375816506639
-0.6608554860447095
-0.7587633385197283
-0.20995845064277502
0.3361568945169669
0.8618245761091202
0.211894507906385
0.42979207696978394
0.8312287507647799
0.3741052187434455
0.1619880561638113
0.749435896050027
0.4666349757798735
-0.5265647321749777
0.43701984620793527
0.7199719596868096
-0.3653032084576728
0.8998893486981047
-0.9734439064580102
-0.8820933840766564
0.8565742052882304
0.846951200005795
-0.6425039599929054
0.7539572520836688
-0.7869638998112055
0.7481936108184716
-0.07277392355797316
-0.7673837076418965
-0.9781766884354595
-0.2368048352386389
-0.6088696479490143
-0.11572340468661041
-0.10464563516270092
0.9371167749828082
-0.5349076278868864
0.43357379869171647
-0.9528893694534974
-0.9767138541097098
0.05777846176283572
0.12502252230739444
-0.8359559432656363
-0.8699811460164109
0.7453713798871385
0.8897428071684299
-0.0558136112275563
-0.6004459291464013
-0.7713896353654571
-0.9139504200773579
0.6225480007024905
-0.28450103360287804
0.5734580900059546
-0.6205787248571211
-0.8158599431646676
-0.4472485656261277
-0.6459808217701535
-0.10694412562488737
-0.9435153417040506
-0.2342666964487298
-0.9350729147761063
0.8926964159053611
0.8090953291262609
0.7408705465657961
-0.3755515547531198
0.7543039535192207
-0.8884737508608057
0.6408068352197532
-0.17657795953651145
-0.6603278902716685
-0.4474085782699246
0.14917362996241115
-0.9293389548652689
0.07363487270340063
-0.3519694717647785
-0.931485402514018
0.004503690226708813
-0.21667745409093148
-0.09947889182795042
-0.6952362104625316
-0.7998755445903462
0.8734631602954689
-0.043783590705509697
0.34150133143405076
0.2703109212239151
-0.5694640877279011
0.07465220222779059
0.6735870172421976
-0.056932732791771634
1.0179070536582768
-0.5308074877877522
-0.746189948054674
-0.6632987807445603
0.693353106660068
-0.905401639094845
-0.8516652190191132
0.07296234459789297
-0.26764698631522166
0.07147805843078088
-0.9330462057585757
0.9189432411302233
-0.15746663886456655
-0.09999508386831889
-0.8863655643952135
-0.3369914496137514
-0.6022922958094599
-0.9441648233802633
0.6301117036399999
-0.4502905091640398
-0.16247207557156002
-0.5899197282165943
0.5745810761542649
0.19162022161955738
0.31032999905605235
-0.3825620420729419
0.13925440802426214
0.6828032160855053
-0.9538955003337799
-0.03821177612118269
0.03553695399374986
-0.9084843063015994
-0.5693541235641973
-0.5023132758484758
-0.010774091766700772
0.5900195992283886
-0.6524833354109533
-0.19263462433188777
0.7355049100138278
-0.9446717016370746
-0.6518705077302159
-0.44145359348620755
0.048772716608721116
0.38994065335597283
-0.38235882652928393
-0.3721910567785896
0.6782472696752003
0.3916299027847387
-0.005605510816993373
0.38986945631228687
-0.8056419047806946
0.7462075039903496
-0.24454890614438116
0.7110110463800254
0.33883848057825217
-0.6597893656190525
0.0571688002187085
-0.9345606321850342
-0.18639704555098263
0.353926885402415
0.18359721308267618
0.04384499887956606
-0.5466392670155412
-0.3547369944334716
-0.9015956313973957
-0.1820692863440958
0.37800398886491293
-0.03458709722931542
0.6681959720581947
0.9082793378924038
-0.6095384697803
-0.2578504701026856
-0.5465490553677947
-0.617420571064777
0.15769870724392718
0.2445446944218983
0.49266322320598543
-0.2255738572859201
0.12105517881286289
-0.971645104084625
0.6439812797193292
-0.35837980083224646
-0.9002092191744789
-0.3645819924855769
-0.9667921934144771
0.7775970723396222
0.9004706056519888
-0.25841542624684766
-0.3347542202071666
-0.24706906880319665
0.650637830784671
0.20905334596205555
-0.22212524963696917
-0.7154554901206256
0.4793262182233188
-0.2908779390840511
-0.05963660920279635
-0.9899890120033541
-0.16140123645301913
0.29290641884860014
-0.41182042114455164
-0.6739488432778934
-0.2323054825621125
-0.03643669635783979
-0.7128420229718125
-0.16903528325093178
0.5762598976441102
0.5985015773903748
0.8796265976536733
-0.6788504108154728
0.5615552172670377
0.18432222632967737
-0.23636041798803945
-0.9147719508250297
0.12119603443020575
0.3913886059052116
0.9377819412460615
-0.6003488437792328
-0.49421452187032267
-0.17906578257648045
-0.7722444672877307
-0.02995143254558536
-0.5648083901242447
0.7048861285168074
-0.6062058478624835
0.39290878189265366
-0.7537687989481653
-0.5607062827367489
-0.45888895923139655
-0.01583124336790639
0.3744604316003541
0.6203121352453486
0.05604797111944676
0.43488496679840327
0.3515219811022482
-0.8803907115446635
0.1723381603847851
0.07295572761456566
-0.43273197304843414
0.15035252594116155
0.6143781852166972
0.15609570274299162
0.6147896590717832
-0.5302688484044918
0.4592764978590045
-0.9364226495472239
0.6710741878703668
-0.7022094770000515
-0.025988390968849754
-0.16432825276524404
0.8218607888958663
-0.9523928741120087
0.9345156772802774
0.3276767478083127
0.1352500836157073
-0.5684650668435401
-0.5481851406826546
-0.1139627928312171
0.9446899376686929
0.5609302709159486
-0.11833688647895417
-0.8521274238625056
-0.8698920155163
-0.46614720772978974
0.05375477588740956
-0.3314678233842922
-0.8784281884469594
0.8420421963754794
0.24773005596127615
0.6468282800965621
-0.6085803787198053
0.9290942665114585
0.19000213868553975
0.6697344319928157
0.7141189983868461
0.14043378205580595
0.16381025370093377
0.30879359116815325
-0.7584966771477358
-0.8024018684892813
-0.20048801787834494
-0.109888701694232
-0.23707663468516288
0.1746866629931661
-0.6003575191127193
-0.35887829040845665
0.16061861605384514
-0.918010952149403
-0.5209991669950925
0.9021901434957138
-0.17727959817402636
0.13239661359511806
0.018297892268725198
-0.27654593077937567
0.9600773151032611
0.8531065581851056
0.691055520158846
-0.9392136746453622
-0.22649693223432923
0.715294720523099
0.30343376069596856
0.672571092404144
-0.2518019383796501
-0.575638023494207
0.6165572148106834
-0.4792041361071777
-0.19179393956465565
0.15254062555783535
0.8723923838944144
0.6993914488367998
0.5439200332524242
0.39264681998273565
-0.21057519681993428
-0.4849552444320363
0.7816380765708759
0.00638911834288043
0.441080247494048
-0.6788614646325102
0.9432756685218328
0.13440588782255067
-0.41910429382909936
0.36478910851157187
0.9312599514423476
0.9856548289046875
-0.47519594814209903
0.03351091410868189
0.07698270736163451
-0.2583899787942695
-0.2671504237109772
-0.00312061079345682
0.10050501478143455
0.12543912344709152
-0.5176046023724956
-0.34954622657638557
-0.3440165904141363
0.810578381556242
-0.07237161886504197
0.3493301706647063
0.6366729848334064
-0.056704236398392116
-0.19402720541449361
0.5454265791419552
-0.02996446428875607
0.12499747667176421
-0.09939470211425307
0.9143137149227609
-0.10888743179292942
0.6739750446308951
0.3548366015456868
0.33773797831555125
-0.7646306969202461
-0.11976772845215058
-0.18627248111896422
0.7692305389625637
0.6280714654077407
0.6404133371132837
0.5115984088766886
-0.11241213398517766
-0.6495107531886554
-0.5125665477262026
0.14958329454798744
0.6967949006598547
-0.6567813094070201
0.8453529191637384
0.150873902139458
-0.6067795867431391
-0.0758004596063956
0.9235181660102464
-0.2782567587134493
0.5620943661012723
-0.535647181995502
0.5097380327749907
0.417316782078514
0.44583328285522705
0.7414514262591483
0.5270602657234472
0.1328544088906197
-0.8412463648894593
0.8908500784875524
-0.5709212808402313
-0.3218139255513475
0.6223633336363781
0.722949366329432
-0.03612938844847572
0.31049901594230545
0.3921157917019252
-0.36057319669308774
0.5953017799812091
-0.2622544578118492
-0.3241256067572388
-0.8696333719235981
0.6848448007851874
0.5930754439083656
-0.13046418533215914
-0.3787043013606703
0.1212712421185333
0.6586050646023306
0.8740709037947724
0.17582296923578256
-0.7252899293742755
0.841582482248558
0.9334242229292018
0.31642077817114145
-0.23032976885269654
0.16068688876161816
-0.5236347821179258
-0.6066472335879859
-0.9718487401110533
0.5781300340775622
-0.7118677474868919
0.3776223943482059
0.8260361001476547
-0.5055524274204928
0.9580263207176745
0.1692362015476245
0.52413693022724
-0.11099355646625246
-0.013022711024947916
0.46302091273473817
0.3145265457807641
-0.1357122555503223
-0.0948362746071501
-0.24751447287280126
0.8781131780377208
0.6525206003282061
-0.7698036020608642
0.28765935448623686
0.07551730211658224
0.9435797537958743
-0.7074927448189487
0.0837281690827329
0.2452541700734698
0.8308221279771937
-0.43678460250705853
-0.27081086811767086
0.2712821367514732
0.6818002193172918
0.07312965794859065
-0.110643832277133
-0.6218846857955957
-0.1289143580770313
-0.11761014325534347
0.9558328907554678
-0.472161340144258
0.18264141720895496
-0.5818387024595263
0.21176834989436596
0.6586430283013684
-0.8671644616612404
0.05276715868997574
-0.5332020065621775
-0.4341160411597017
0.6071431991793305
-0.76006722832127
0.9216671263730898
0.8499733730617812
0.7044753547417324
0.28990845369848867
0.2112890915159972
-0.30551307611835254
0.631055692190755
-0.13473883899995692
-0.5213456166790915
0.9489851649038078
0.6664494971894258
0.2854814728429358
-0.05988640864837606
0.3041320415557275
0.26307206476320494
-0.7388577718689776
0.15556360568017644
-0.9116802728233344
0.010845473312767067
-0.7687345023329256
-0.7902698584419803
-0.4310065962574478
0.6489555018070482
0.28448754416622385
0.4238313552548815
-0.3472068872436235
-0.045218803549422475
0.5641515949031124
-0.6775601202754983
-0.7143757806344354
0.740867233322783
-0.9472614376723768
-0.45201844137830155
-0.7945326429310976
-0.1662057842812205
-0.27739118441598826
-0.7701251621663292
-0.5233371658082059
-0.531840177945683
-0.19153595555003708
0.6354096869642185
-0.34198022475926315
-0.698917057679621
-0.26745979458361746
0.7997383975441782
0.3124864241032694
-0.7188124758195267
0.4920825721137752
-0.8798648899025806
-0.887284637957697
-0.013849201415606135
-0.13975825269942918
0.04280761425569274
0.06942601771585026
0.2234258454582686
-0.5354263279679184
-0.8785497410839015
0.4148521372738884
-0.26061386122370334
-0.8339839132886593
-0.036284743464619754
-0.9739376643638774
0.47759313888237265
0.4266895734048119
-0.030140421159830476
-0.3243211552651608
0.8775347995766459
-0.7898614789813028
-0.40826190633217907
0.296451121638027
0.34597979105119187
-0.8568862204310342
-0.603506387479667
0.5105895349505503
-0.8800335522437637
0.7429776043974291
-0.20308410115983297
-0.6119211891099261
-0.5031726648424787
-0.08844117752344662
0.30307563917681146
0.8305207437426987
-0.267201168887676
-0.3146940627512136
-0.4322619253277148
-0.4197824299050869
0.8682812396217935
0.3715996096361928
-0.5927965266684274
-0.3946376935809233
-0.11804666588765018
-0.07533898611034381
0.18704959789814635
0.7208765590290686
0.37240099533391813
-0.2639050214228455
0.8653397860800359
0.7659178469606723
-0.5927153637978069
-0.19407519258291037
0.09803415433212063
-0.9716060811357106
0.9821680360949945
-0.18259686916661355
0.32750545595619124
0.8030974258537319
-0.20381465489942616
0.4597138504375403
0.9748399177416046
0.4514018451129436
0.562280534186681
-0.8688715291960754
-0.21166506045627856
0.4989862931387659
0.41032686250933637
-0.39436704061441935
0.46169174904352794
0.8238083166974838
-0.12822355402537342
0.41375716049255606
-0.06543532979521563
0.2128853729148894
0.845949215332826
0.561054804817
-0.4651713200756731
-0.7559996913560729
0.6955351777332066
0.6887554327527826
0.500176281430459
-0.06315602946627608
-0.45355343314757923
0.7916739541930824
0.766332641060564
0.4447342790633042
-0.36310181055241003
-0.6203046723349477
0.9270898274901769
0.9549885044435771
0.5813522616919046
0.6223607296610882
0.029943093758655417
-0.027743954163442806
0.4245239488297441
0.5606881520583207
0.9670988368188391
0.9682415914616632
-0.33628313517182024
-0.39910058149331623
-0.17785763401999438
-0.29019887933878535
-0.7557155623017597
-0.18020779298923392
0.07194829758484507
0.5788573887867194
-0.14127215523116327
0.1760988794736034
0.9048835693923166
-0.8506356960860703
-0.6086130072924512
0.836057925746205
0.49583999643627197
0.35401299480799714
0.15440124007156392
0.9965268114904363
-0.1339647310583183
-0.17092835674601445
-0.025841018106737834
-0.8677175877856851
-0.09186786388297888
0.6925556744753145
-0.8671584291372676
0.6977435307122447
0.25707598615540417
0.004420350324274796
0.5488813342528726
-0.8521549952430739
-0.631938746075437
-0.5074377215564744
0.73808488931959
-0.6459926013877606
-0.44329755408819715
-0.4057922403779788
-0.4916798524544827
-0.8761655241700981
-0.40055314210117654
0.05860294528275947
0.9508796943936078
-0.5508494240617168
-0.5837005588554238
0.1132326301768851
0.42832318951483717
0.6329762246204828
0.2471660876309126
-0.008450774960344102
-0.4449327227244126
0.6890655940697382
-0.3646219857382795
-0.06466543375589077
-0.13668601687929816
0.812451667217107
0.14618974190544515
-0.025847543707632877
0.9752359546292481
-0.7021663782355058
0.5151956619687508
0.7849319991723107
-0.3780190446401592
0.7815632355915623
0.3872777103559646
0.2204007205419746
0.7841160683862185
-0.6919689766134056
-0.8040551427424523
-0.9176292221522326
-0.21519526550321796
-0.9451303642068241
0.8792077520516248
-0.9330707806429046
-0.5478604225179166
-0.5683094803225399
-0.015411252978180228
0.8244412567086197
0.6619950442196966
0.9860519328440354
-0.38741492256223564
-0.5335360702060341
0.6992724550826672
-0.07096306043022065
0.35101708210165306
0.4842402926168671
1.0042355477481997
-0.2404209752128151
0.15605063057503957
0.21124404734789687
-0.9087995429775725
0.17916029121824564
0.22088438061829127
0.02127069372155271
-0.36783773235724104
0.9030192213026724
-0.7931489009572144
-0.7807243423010422
-0.9248890690219772
0.32388716390435457
-0.5902442030754135
-0.9718253871468554
0.8574775759285869
0.9604161734177827
-0.4793424314726705
-0.5674717967684438
-0.8037373313393386
0.6993242151334781
-0.7071940028747248
-0.6870217799407562
-0.6342680378431617
-0.7110018101214265
0.331544680920068
0.12022036094999528
0.9697897896631154
-0.6049524814931988
0.9034435886549029
0.23642109206833545
0.9181736662839193
0.5479498657725305
-0.058503259785252816
0.18534933209494564
0.537219002089208
0.6960925902000843
0.49867447609780235
0.371225776347362
0.5205946426193756
-0.056066325895903046
-0.47090880717038397
-0.15410276206240436
0.07283402407645376
-0.27186585073482716
-0.31719946710166197
-0.3182945067527491
0.1211547934680949
-0.2828982954116904
-0.4117807510690303
-0.07924641856999294
0.12800776624076995
-0.8747833204243192
0.3045848136374141
-0.05957104195024649
0.04463587689476644
-0.06297635020177708
-0.27953325409538393
0.7616502406334988
0.31704932567127775
-0.24681446834347126
0.03038377735166807
-0.6211545691213773
-0.49669645391529077
-0.8094665263953503
-0.47912956965866094
0.32490070502926194
-0.9147748226991937
0.8062281212542117
-0.10728832988852012
-0.30915623043571655
-0.5475110297986067
-0.9415098626783274
0.4021783730398361
0.6266632351706589
0.8884904452271132
0.033009209129123904
0.8419299271133611
0.4683817328222042
-0.32996453012106663
-0.8629069569718305
-0.7749487944907677
-0.6068607743825212
0.20544643954956532
0.11539620721702443
-0.7520554238880012
0.7423223786056533
0.78329688857713
-0.5714199242227124
-0.9511453498547272
0.8737171105217059
-0.06569614224649177
-0.4808743827235636
-0.1865751230211216
0.6990829965983086
-0.012780047273198002
-0.1977773707408215
-0.18555905069045914
-0.48990927244024735
0.6577241743697212
0.5439892309469109
0.6794737793575916
-0.43459389734004633
0.2229718093846949
0.4385102369696052
-0.042818007426749224
-0.10991868965536959
-0.7774899798321953
-0.14616483859813706
-0.20777133746184726
0.34060642521035783
0.3463638870624465
-0.09163073761009544
0.9758571803461047
-0.8969866007684871
0.27280681578188726
-0.6823927610544992
-0.9124948295854285
-0.8961197024852159
-0.7624453883759355
-0.16227863525208464
0.3175942329759016
0.24334080213577972
-0.36871999913849146
-0.5938919222706732
-0.08990364877312876
0.9702432750188019
0.5741339670567392
-0.2578671683738486
0.027045590550684735
0.47255783968978654
-0.8746608646872097
-0.03343588458977308
-0.4797368974518857
0.540078760580783
-0.3196930014336667
0.06974245249370688
-0.5587098138554523
0.5327377804237763
-0.1975810577345661
-0.3371212693982344
-0.9437367652229957
0.4614975036974464
0.6320141304579854
-0.033940106236333395
0.28107340231826006
-0.8466150234788484
0.8202460091618309
-0.15460506052783224
-0.444755489569174
0.5893178643580346
0.06662548865107273
0.8848466104876724
-0.4062549335014474
-0.7134302501975388
-0.5833383991835415
-0.8510642488111804
0.06972369503613844
-0.9946851143647998
0.3679447951856526
-0.7077187321122729
-0.303635332393638
-0.5375513533244987
0.679961217575214
-0.32880535567545194
0.8064398234399615
-0.29060342509480475
0.1798452161460765
-0.9381228287592001
-0.30622979416795315
-0.40429595553520903
-0.5056421834891556
-0.16492461439984926
0.42165259518335213
-0.6059473436715439
-0.1179460239473412
-0.4718762370669942
0.8190398517102462
-0.40647058982902307
-0.11869597424076182
0.01749480880719025
-0.42801082303244203
-0.5841350866681319
0.639249788231695
0.5077531114382964
0.8040814619041914
-0.31647668925701056
-0.30476369425908423
0.9288333980380631
-0.687295036850082
0.17840495707039533
-0.13060536764140845
-0.1641501474850697
-0.9951015783730586
0.7722208557537433
0.5986680886562836
-0.23076313951347296
0.3554113459102983
0.8353918006048188
0.8372330477834906
-0.5743968287701308
0.2938933972040056
0.09723156512693817
0.477838942308964
-0.7239540114039217
-0.5104964982954344
-0.9641579601363323
0.11580220452248183
0.3119227908541723
0.041156776035954495
0.08130650426536717
0.9178564773340788
-0.4078004454668109
0.4024251239601947
0.07060930664164329
-0.2732417324663259
-0.14821335999490742
0.019161530171080878
-0.6274790255271214
0.04767147111357599
-0.8623359928128478
-0.4743364446029742
-0.6375287929988951
0.15836474873158718
0.5134485305781715
-0.1810964914063533
-0.5889912157300556
0.702072112221451
-0.6560736118320928
-0.398055154741295
-0.9541754236215507
-0.8630441123112065
0.33523689252464883
-0.9862457505220029
-0.4173626718628602
0.5200657158746828
0.4844501913748775
0.5130478665593226
0.7139611438655967
0.244410420632393
-0.379795371277264
-0.45038003718592173
-0.12395502367720679
-0.5233440542342542
0.4523293046023168
0.9382310485736451
-0.9328747689696811
0.0655433015397996
0.8464122190456088
0.29578489183967754
0.6948278054740537
0.49451383406328125
0.7845888072021577
-0.3928017588781574
0.5737302345320503
0.3038953609269303
-0.6398277666068727
-0.9822371545054617
0.47891555885901893
-0.9032178284732514
0.4372563912893588
0.47115648204724464
-0.15478533859360755
-0.8884095972406187
0.9575659712041197
-0.013788259986223584
-0.9674343562078571
-0.7724268551664799
-0.7945266645363391
-0.3109667197110635
0.07298270732510291
-0.9788495329400488
0.6818601330101883
-0.472355127296388
0.34116078629378327
0.2846305212136958
-0.02179294879476175
-0.12479174801887186
-0.6456023236708881
0.0851553577940443
0.21711119814725116
0.9084632933086795
0.17331397414746663
-1.0059907560934254
0.37027943882095127
0.0774763543659001
0.9263061866742697
-0.6501938465630158
-0.9507248416857772
0.49511634022163825
1.0043225987258546
0.4546495638488772
0.5469861349980901
0.48765223710362
0.919683383792738
-0.07655020603619199
-0.2612144795888326
0.21200298718777638
0.2713135233575815
-0.888866568424664
0.5100071309748214
-0.8710405285668926
0.20093728777596193
-0.02534664999251492
-0.394433096410842
0.1038740167786181
0.20400354102051374
0.8280466711679427
0.5314069721498539
0.040549877278953206
-0.6930357577384071
-0.41977414940506774
0.05756961049633593
-0.6664761758680512
-0.5333255430175389
-0.017168114738284616
-0.825762809801554
0.16655374342973922
0.894722331137933
0.9229879584827327
0.959401829995741
-0.4503643503902401
0.17124211452062826
-0.9335086373005526
-0.4101587321183259
0.6417613220426001
0.13920805528912852
-0.8570313785036453
0.1738974476112549
0.5460665101792744
0.012675924769965017
-0.991146104699822
-0.6245216064777761
-0.9005904047066633
-0.4873611225004538
-0.43481723745369666
0.73948662215972
-0.9590812071127665
0.9392902438822087
-0.6183560895213315
-0.110832376167369
-0.39373625711229315
0.033885775407042205
0.20649360238544676
0.8086583348985447
-0.684983675521857
0.40023166412822997
0.6844951486552101
-0.8263578325140243
-0.5160586502186156
-0.15267027204652184
0.31752094545843323
-0.10411509743331399
-0.14284944649365044
0.3183478203122762
0.009990249960286881
-0.6532589870756301
-0.4844778819015799
0.24084430665674075
0.2976928741162224
-0.8953484143758303
-0.5825340705936595
0.1336030549470155
0.08118131489699602
-0.17637881827386576
-0.9688658175763697
-0.02974481300955402
-0.8061256885743382
0.6553382356500562
-0.21053100043500766
-0.9984871074587325
-0.1669227925444333
-0.11314038732427406
-0.6901771018922731
-0.8583980326561702
0.3602358610790345
-1.0118529041967943
-0.11010472956413356
0.6967072635462191
0.7368969758580918
-0.6605924487012549
0.030421212166730226
-0.9391935375000113
-0.23239921583151574
-0.7092145563905137
0.8922611731662796
0.19146723063778714
0.9678146677754803
-0.46035288910667166
0.11574924783501875
-0.013120589732374047
0.9242773877206378
-0.4654176819667186
0.7130294787654908
0.8477609563686704
0.18498040937133015
0.5264985012020341
0.8281361255836354
-0.2188326108101295
0.10928123759596353
0.5302982996032837
0.3139325351705098
0.21976053193962677
0.3114177879991988
-0.3100096628488477
0.6227432598487598
-0.6111139790274591
0.600887267086167
0.9132346591913618
0.48445697125233717
0.3163776654711483
-0.39401209454115926
0.5417927811685547
-0.9437198975792477
0.0581405356895558
0.8726133612731126
0.7799527296096589
-0.18495151769392726
0.43971124600378786
0.6449134775836444
0.18377754936298288
-0.9474213685819957
-0.3325746565573514
-0.4686802955590394
-0.0976765974854408
0.49112241845994464
-0.01847986826446923
-0.9895206741874457
0.8802554396383722
0.6482623172237533
0.7857885070582494
0.6243994297086222
-0.9659065937619705
0.10975819966827842
-0.949643950078053
-0.7155393630055363
-0.5463446455642251
0.3084235419812006
-0.6756193939252206
-0.5070662265178126
-0.4942446892467923
0.9887566538278568
0.03791553984090252
0.9241691822749984
0.8483495156517454
-0.12481448091162124
0.8542217934088207
0.6050062552980889
0.4536630007262854
-0.04525989245013693
0.6151170132865635
-0.30138246663486495
0.6398180494004105
0.3508395458791548
-0.5096088835442841
0.4803714043752626
-0.16537153363773122
-0.10194285886086717
0.9823893167104693
-0.6338710262576867
-0.37954492106249005
-0.541469894969039
0.02845823378986288
-0.042411864080275856
-0.2090451157358135
0.03623940678202658
0.034410514775245274
-0.7138800568883827
0.6213524237939541
-0.7659179402041786
0.8175221520089767
0.12639187424599735
-0.7680050203822459
-0.25622167021108283
0.5629431962936023
-0.7979500938422414
-0.5150679843499478
-0.28644199869553677
-0.8465961352620537
0.8742110402205779
-0.5489939718843391
-0.2958925063234947
-0.5989227721138165
-0.23732649754633564
-0.8918340224551659
-0.3463939533600816
0.01679435194380959
-0.3160589341974418
0.5314905215832557
0.7891391422319443
-0.6231281538052788
-0.8129745102291358
-0.05084665355969449
-0.26563795721535804
0.22862600893395763
0.38487690302607325
-0.7077468850986247
0.44521177141427065
-0.105243478054225
-0.3068069468430828
0.6306460415757996
-0.013374751632917197
0.8524893189387144
0.8160388015237625
-0.3280731713151681
0.5878866327514587
0.4294257873066747
-0.9958366577327529
-0.979958178655608
-0.321539717577054
-0.17406117954260383
-0.3168466600121227
-0.8108864389040764
0.029376283102708116
0.20363323456101193
-0.32670202419507255
0.5600734397030974
0.9725855299424443
-0.7941468010907594
0.7935438697367078
-0.5487325847074385
-0.2034804686613855
-0.35025389957965486
0.09451443209398772
-0.8895213052615505
0.9481519690785777
0.403337801625502
0.17948469489535757
-0.7150487307152251
-0.1999146526657904
0.16171187714324464
-0.27012027582737397
0.10764227957670441
0.7974742379878327
-0.013909532513013372
0.7231016360747282
-0.47692903390182595
0.12003595370459944
0.03163856176918818
0.6596516721509326
0.3649944825894653
-0.4540498539171985
0.8870797203502447
-0.7165959896112672
0.9712024408905735
0.2693468155743021
0.8868385333827107
-0.5299551836599432
-0.7606508494471065
-0.0805116660432625
0.38817616678691824
-0.08076067325009538
-0.33837122248627277
0.8778089868401876
0.8142071208061423
0.2656592777417013
0.4870179316930305
-0.6510710090370647
-0.8337354219014078
0.7602975786433469
-0.2973991801917185
-0.0179478697103298
0.1226700778399083
0.11279775487477178
0.6426144768037448
0.10007942150834814
-0.8041837886539336
-0.39750468312084924
-0.8215317814742604
-0.5727944443599712
0.4213047522696846
0.5747860290255149
0.05811250191056376
0.6662641109361874
-0.03781451597345349
0.7067220038280907
0.2532552080062523
0.6987523669066154
0.10684140163553553
-0.508011066118366
-0.37050005305542727
-0.549247567288618
0.08508186398868874
0.5825216278424652
-0.3587826750716025
0.36744094014413703
0.2949426583679902
-0.10999176187141944
0.25522982157937013
0.38512623919731437
0.5006124522589585
0.4601260075249014
0.0908774067831439
-0.15311693283262948
0.5428185877162807
-0.9622134385201585
-0.9951778427392407
-0.49726126759620337
-0.7520552615963751
0.2769986887949882
-0.23757449224168256
0.4703870911069275
0.42514545167217194
-0.25582444976423396
0.15007807116183175
-0.2665417948536102
-0.5683718073148135
0.7627308293806669
-0.8497187895307483
-0.6611822314148755
0.19931043078977365
-0.4498197740661583
-0.04870265174775158
0.1889498643075704
0.8081500439939588
-0.37403686158084704
-0.4634494185029565
0.5269443063864228
0.2130158816886217
-0.8384619478884486
0.4171951496115167
-0.45668360274317005
-0.04828472170862735
0.9397283002630994
-0.48644888460697233
-0.48668581064329836
-0.36212430730707523
0.9209020137813214
-0.1455400853923648
-0.7773529323827234
0.6594966300378845
-0.4988737618607681
0.6346492088046222
0.8205282679346114
0.415344179356585
-0.8143251400864852
0.5206377598070698
0.9162206416508657
-0.20563734177657192
-0.4489242856508494
-0.26090221573633265
-0.4574496263606401
0.44786441496798846
0.8418455109717441
0.10502474230033197
-0.9710915146861572
0.11022595385786155
-0.9139626250375349
-0.042910612095646526
-0.3980195792743461
0.6943570655840019
0.8125695358908224
0.43937216672239887
-0.24995307747779935
-0.4856768762402971
-0.16360720074546284
0.9509819854970428
0.9580307190092431
-0.32367087738925676
-0.6424654510711635
0.9827021104495696
0.1985561129239087
-0.062041868981315966
-0.5894305475521008
-0.5236039106725409
-0.9664074037179128
0.46716512765291224
-0.5042206962654084
-0.23139865202684318
0.3754357254862919
-0.21843297603365475
0.5881517987554741
-0.3359007092432841
-0.2610788118274366
0.8487487429012471
0.2670968568840539
0.24190952063816287
0.5095752253697922
0.2396712286002295
-0.9049391802870759
-0.7210010943776785
0.367781261302404
0.993308575390568
0.8844430910308559
-0.6108350677192376
-0.7763731260849885
0.8174569282432134
0.05127915228599669
0.2682724148974671
-0.7554709617286012
0.06458974006035423
0.7090573966599909
-0.9495614994606066
0.4649268140174047
0.6339009441971768
-0.6771069928215799
0.8193433340900094
0.4345470517368896
-0.9559687216985576
-0.8540206154701927
0.5574837603067492
-0.5323394983764704
0.7866430281199452
-0.8625933285062484
0.3304597025005779
-0.012441781947213444
0.5824334500189966
-0.7322331927051923
-0.4102504349841462
0.4461352718735913
0.3356563788851986
0.8624960087397596
-0.5623952162992091
-0.7359271632862111
-0.3931293555964507
0.44514721610432917
0.4865516092373262
-0.16453427829350697
0.7409793564491831
-0.4469293655101816
-0.4342105769219807
0.1834392183280514
0.8543935153411646
0.32371894182537864
-0.19438768290185432
0.24618773307437752
0.6174668126358533
0.2843511337000721
-0.9293987059810546
-0.6325422311703808
0.2665793585316555
-0.8470230543769549
-0.5633452352185087
0.29466987489037516
-0.05457270538920614
-0.5535947582415115
-0.4660292447874443
0.9355118597604193
0.6863213217150915
-0.8565758291129423
0.060761257420934876
0.31303350382473455
-0.9835199461276689
0.40699501493566714
0.18855292460646306
-0.17871557825252102
0.6420392769150481
-0.7169685748048681
0.21965860427240783
-0.015059798540483699
0.011085545434204033
-0.28548667338943673
-0.877197105934415
0.5399044026855419
0.9378735550410723
0.9995473718736956
0.796342704994552
-0.6289878811882084
-0.005618055103024565
-0.14960908934837494
0.06401639081400999
0.1160624710948831
-0.527679519670424
0.34040752870431945
-0.7647089078529338
-0.11166340943844882
-0.39121743409201093
0.12174856680276416
0.6642170004062042
-0.8544323734678052
-0.5203822981891633
0.9845259262487142
0.17410502128119323
-0.17190756322423287
-0.5559389206649564
0.6767019085328955
-0.009536017588045521
0.836579975083497
0.7749848422883764
0.6123952007254133
-0.03874224146059015
-0.0470730448947077
-0.3441142816995625
-0.09097521129385493
-0.14741936113904455
0.7015241204393279
0.5477230415726512
0.08556026949067254
0.6454824597333895
-0.6887278347454353
-0.4956225869721961
-0.5264628659398832
-0.8887874304547945
0.09301711234751754
-0.4285062112638392
0.9529519401867549
-0.09423748075028093
0.8090369449240258
-0.6617517541898056
0.23656540318353197
0.36104813349811404
-0.8869217917529416
0.30579031029511666
-0.16983918094493644
-0.438335597259798
0.27995441564426027
-0.8749116809652752
0.2091223701808199
-0.8540380060966699
0.8277613594620802
0.765454100725801
-0.1361373623921197
0.070980098920648
-0.153897217837215
0.426393634726774
-0.9701608537647237
0.16498176269835949
-0.15395026663477698
0.19176235600853636
-0.8998904545807124
0.7264646897644242
-0.3473452182888411
-0.6628558754661134
0.5567257551789719
-0.4670702913550839
-0.25715463033438035
-0.35669416382160046
-0.9814379409598577
-0.13807760293571786
0.20878697248977085
0.49187093229266055
-0.1884611699167787
0.6513802308045372
-0.3738664061311462
-0.07303733063691079
-0.29541654229296593
-0.09306028278437525
0.33604192663457433
-0.11716432179074666
0.25724386644222985
-0.28541246756567545
-0.7926526673795945
-0.6366774998299654
0.25184864330527384
0.47085180926771986
-0.15471045736473926
0.4737135810050385
-0.9976672450450499
-0.6140459632525297
-0.35987862365114576
0.5481361777227897
-0.12744684103973017
-0.6012995716000354
-0.8828500574315685
0.6481314097829514
0.70042862044218
-0.31540546775822015
0.7766751296465385
0.16157504017802904
0.9376004688406832
-0.15883012157231552
-0.43702463069622094
-0.9093049468180257
0.8925232617158149
-0.3477150366701404
0.7607915164298051
-0.695077928392948
0.8045956089186104
0.46541684952708084
0.1593766670141333
0.5984554724836791
0.5215083762753521
-0.24420456326527018
-0.2737550224499313
-0.3399835411505437
0.675258264781712
-0.161449847856052
-0.8178387588432381
-0.374211867140095
-0.6997496345109808
-0.29684885097792835
0.40033008661931324
0.2461975053911309
0.9598189832141448
0.8044975331743521
-0.9566950309621551
-0.6432574077300408
0.639396357466087
0.5356505766554664
-0.9853175765635507
0.7071081953211709
0.6803594110107248
-0.7296310301424158
0.6739116452888004
-0.5138832839253399
0.9707629936602492
0.727249374953139
-0.7037669921614493
0.9130366631772011
-0.5689860210077708
0.02760084225009497
0.247141990982577
0.26892616846285156
-0.8442849109771674
0.14630283824865423
0.5444714220024737
0.23691645983258852
0.21115033301721192
-0.9352012621486877
-0.5778642113588518
0.20299863491943732
-0.4624546127799156
0.5671828806390253
-0.16324488452308822
0.5883874979103771
0.9713879842954365
0.017236718990289158
-0.6401552818726005
0.4250124100347734
-0.33151622619319704
-0.32235758686179566
-0.32340134682008864
0.09088820767247334
-0.33091628040850796
-0.8936403520828652
0.3765861957753221
0.2766425756452665
-0.8332293327570859
0.1408063121760261
0.5966313535813745
0.6495452492323983
0.27127052173415106
-0.6229028661376405
0.5948303472543983
-0.29435498838456275
-0.4256698217103011
-0.17547136590554482
0.9174521672173844
0.4246344307922474
-0.9705980192880531
-0.5269931439436181
0.4348743247585423
0.2439264760947277
0.8876267519062485
-0.4118605245495666
0.13536922213887942
0.5465179161920711
-0.09815375417444641
0.7761956874988055
-0.8803876418884776
-0.9829111425667518
-0.4156248592934284
-0.14425671159471107
-0.7895511024732298
-0.8062580931286263
0.8079348105347456
-0.8277564130063666
-0.3956256070809186
0.8400832977364582
0.6118748884253175
-0.7699476937733027
-0.8732302833837334
-0.04132659626129354
-0.7290865016499255
0.2950616666792952
0.5284546708832306
-0.34970153164796697
-0.5159364749568855
-0.3692436720014566
0.08854855399857588
0.3665843618287943
0.034982428470989584
-0.6123533335890337
0.6053634059010901
-0.7741974630366113
-0.2707962141561873
0.02500503245375836
-0.2632307582932413
0.35933196811194806
-0.551537019822994
-0.2333640789798454
-0.5762768576652723
-0.3779960856549692
0.9376277206596326
0.0654275340939781
-0.4179659399487199
0.07700694046342661
-0.7353341037522552
0.0726448014242788
-0.9695568761759744
0.34703361208972566
-0.46830066071739956
-0.9212564837513427
-0.6974100827854898
0.9017493051181263
0.9650491575273994
-0.9558328790854903
0.897762924140462
-0.6223996672204982
0.5923714184551604
0.5809686362455484
0.9390911914899066
-0.6128195509520317
0.48334217883146885
-0.775382947880271
-0.08374536146446764
0.3735604520517362
0.02728387422132301
0.5846464062464589
-0.5845016282311413
-0.3324060891607863
-0.5259616120661776
-0.6892690612013971
-0.9509598069369439
0.11251006979436887
0.14832866513529175
-0.9810156592850598
-0.9020468795838725
-0.4851462154370837
-0.311190913743075
-0.5499936131915379
-0.8266710182628617
-0.7407121018267225
0.770956436628792
-0.3205847399091816
-0.9752678262837224
-0.6907488259912937
0.2939179650313871
0.31432308104117823
0.7967370813868929
-0.1318162539890104
0.7627114162310692
0.6349979850846177
-0.010459321537739442
-0.9994533827783865
0.8030122075044012
-0.8784630334649247
-0.8748690903040396
-0.6068526994297753
-0.002038786946318324
-0.07144753190773417
-0.8549378563120207
-0.038199089443740765
-0.9476410007147578
0.5908435320290536
0.2791203084596551
-0.022164228640974244
0.6394022438542615
-0.7116047483330706
-0.31160299024208266
-0.4027454833506027
-0.032108067166424094
0.9490019806212987
-0.961906695776843
-0.6428482758098489
-0.13840163692594423
-0.42942088079835605
-0.5210316088756518
0.6594798433124496
0.956427519183795
-0.27347917590659515
0.8604845867852841
-0.5985256481236613
0.6083735985004627
0.01487534117582291
0.027951287245953877
0.3555097558063251
-0.6420838751797495
-0.9827374613036277
-0.2590180057726209
-0.2293534051494079
-0.3637204777904638
-0.43365378565930496
0.9125960613446131
-0.18861065012043204
0.21289599647873766
-0.5658898876654684
-0.4682877652721616
-0.6616151215844435
-0.9786958046239636
-0.29476427384981857
0.6666609693069605
0.03371236253851385
-0.6944028971374109
-0.5332623557794101
-0.7902107667082591
0.2945045826152515
-0.5568353326340681
0.1008961337691933
-0.349954946829382
0.3896767034594583
0.2906579179976105
0.812276627493716
-1.0284153143257373
-0.2219970743142802
0.7624219850536167
-0.993733527626179
-0.8857403633990052
0.13098625011765572
-0.05774186954185472
-0.7239805093105458
0.3541209651345286
0.46498666067540284
0.015618112964088837
-0.7631989682275584
0.9508614402005352
0.24489416295879912
-0.09218522073043345
0.43656453568535547
0.21232164057620181
0.3147179087555659
-0.6277168988824541
0.5270416567349545
-0.7772750845337556
-0.40186827114430035
-0.8719875644058696
-0.9750935521223694
-0.4586331756376761
0.3470806479715185
0.35510973201864693
-0.0955945629944994
-0.7521203633159839
0.7534464679478524
0.4534781798689699
0.4812862790648074
0.6009481464504716
0.8509618510963798
-0.6477487810708089
0.20419582751490917
0.1093143646251934
0.971062950167064
-0.19422085948522477
-0.2431582078056552
-0.4930440276258664
0.22556040140700634
0.06137825993615091
0.8980021906154317
-0.6277577932906707
0.9822389489943083
0.5938157422200017
-0.200640495686019
0.49324279009110666
0.7687688756111412
-0.09444407664317274
0.9051364176156667
0.9911800880047781
-0.35727080885674994
0.03425162002619699
-0.6875304334707645
-0.8606100150782031
0.40152194921925677
-0.7837308905060552
0.3298260001016835
0.13037196107364588
0.0641368642684608
0.5482351771739891
-1.0121470061527729
-0.6381910960518795
-0.28646155866541545
0.30055739214134947
-0.6571447756000433
0.803178682068209
0.5617548276380293
0.015370534629627473
-0.5465597868500542
-0.9047901630272394
0.3561081642800135
-0.9273071630372819
-0.9310501927738254
-0.80506093918815
0.9680580663895916
-0.5130354012736565
0.4961492607821095
0.7822169504641417
0.9279915822686665
0.8468148596946813
-0.9978804014875229
-0.46705333202193294
0.4292516436277627
-0.16260071228818082
0.18147806752999604
-0.9502506009338187
-0.4748347408910064
0.3005046329252806
0.8307258582504672
0.22556021604573226
0.6659426164071439
0.6494028941126325
0.4821770265033712
0.406804333935703
0.32409440802986855
-0.07683882083316024
0.5791186268997297
0.41363619646322985
0.9625670724542708
0.5385651059237817
0.5972390358368183
0.2088031228599331
-0.08726090035569221
0.010727083665080054
-0.20509383225978906
-0.5989943928562677
-0.6161022083977996
-0.2045566002503829
-0.001070220149456651
0.8641086575547136
0.05036327295648881
-0.045081558211249546
0.41425877469784855
-0.003286733621447665
-0.17716443121021777
-0.44112044092740826
-0.6954221890429212
-0.5010159310549119
-0.2729871844813954
0.26136688971900757
-0.6999103822250575
0.015476315503508791
0.9297776384610715
0.8143366017451132
-0.16295738383917538
0.12863596686262044
-0.34656011750384447
0.015033466286012641
0.27812435606094876
0.7473301547685862
0.5659862442716427
-0.41856272034581227
-0.77796560404199
-0.5393484156722372
-0.5064041792187115
-0.6538992883655226
0.017949599551125427
0.6228237709791646
-0.7124528766216679
-0.7847492676551098
0.5576898423334528
0.38101762069804007
-0.07343232831230735
-0.9730335003358961
-0.6771479056317801
-0.32252574827426816
0.36696838316295116
0.04849805046783551
-0.11890240870911395
-0.7010619472524897
0.808187264544684
0.8861532621650164
0.8009011242741952
-0.6386305792560001
0.5845307910086126
0.44573293089059046
0.32508816411769775
0.40946485179743525
0.28609541888091344
-0.31410677134615705
-0.7110899578991372
-0.42329876461610816
0.5680644376535753
-0.35273241082156753
0.30326413823930826
-0.054593462040725946
-0.4593945223534265
-0.7378650023098557
-0.46525225279028354
-0.6380960543509144
-0.323320738096721
0.27791279655627976
-0.12597140492843986
0.5881351307366759
0.7656589851068679
0.9327047639777692
-0.018702868818878733
0.39024043179526696
-0.8704368566278459
-0.47316487977604965
-0.9070594754929302
0.1311257415210977
-0.028724443337754514
0.9525748454031818
0.48259821108691947
0.9839654393256295
-0.4130579425959408
-0.030510771782936492
-0.5881010055355758
-0.6453376403603122
-0.3444529931639915
-0.7309236456993157
-0.20002353235218234
0.8325840521186897
-0.0857494484926837
-0.05815783494987749
-0.641923237881541
0.5283776137430253
-0.9325504930043869
0.4876196215656398
-0.5922997076196885
0.6474073167368793
0.010580594624472897
-0.5150987380464191
0.36713052194949586
0.27584917475628673
-0.4949541461160845
0.7019436175506089
0.7607312461899027
0.2662677847898002
-0.19128445442723965
-0.9840995150019353
0.8166550044236565
-0.9693788021163322
-0.1491552013574698
0.01870460939754021
-0.5202509213433368
0.511891193373203
0.19273547588536558
-0.6011642149411708
-0.6645650888997601
0.5662568213856766
-0.6105488355082335
-0.8737743112784535
0.5104112479843788
-0.8758827109328067
0.7292699198593446
-0.6463551577690334
0.5403633326126358
-0.18036171321166997
0.8969840794531305
-0.46621427548688116
0.849202015557103
-0.8331260851974007
-0.6682940558752276
0.9255443545056964
0.8611574596081923
0.24445135473483962
0.7726309634871199
-0.21834382346233533
0.7117396172229039
-0.7766898916687
-0.5529902817518517
0.6365779191726592
-0.8986092661073393
-0.2875840813495612
0.9373246153624749
0.9392326032904276
0.9522451775067704
0.7146335835117577
-0.8584672447737332
0.8844563179768749
0.13097187821552986
0.8203032985015444
-0.07990988988844476
0.8209101734721197
0.5522943347602353
0.8040657789235595
0.29023200629815277
-0.012199150805283413
-0.7685346192771728
0.39199973097315954
-0.55382256680827
0.5018895736570758
0.6644497464125219
-0.9356506037211346
-0.17523065535676774
0.34937914406361475
0.8541644731482185
0.33900062997294095
0.24331170209108352
0.20696445604627736
0.5841305696568246
-0.5958587531918945
-0.3278568582838466
0.3959400769397284
-0.03690232871053866
-0.09501780686626539
0.5962055554782155
-0.9137094542996295
0.866865467784646
0.5869552342376168
0.5343505172177285
0.3779552223294808
0.9472152180584199
0.34996368964294555
0.6990683109283305
0.5990137007409125
-0.30297736734279196
-0.48109356939890985
-0.4934247576092108
0.9713341603956767
-0.8122731523933938
-0.23797092106051193
0.9979668863742517
-0.7336100414624284
-0.8287397720731811
0.0031319646645595594
0.8977625343830922
-0.2995313057728568
-0.7620626036966749
0.9379483981710249
0.4891569571487025
-0.4137518049035693
0.38733909792723775
-0.021705163624955184
0.3105870645100249
-0.7768992963319835
-0.2309177571974422
-0.33166841808636727
0.6958023253003499
-0.30974365818282174
-1.0007688088349087
0.6699531982309185
-0.7922822128029071
-0.7999881070651309
0.18039020990760635
-0.338670763554477
-0.4476415484344473
-0.2129092025506935
-0.8171168201819886
0.25506514176339556
-0.3476168295783643
-0.9614530221384825
0.088912699832174
-0.280633411302255
0.38445359034922094
0.43800859591212976
0.6048336283927922
-0.050245220990309925
-0.2654021817290384
0.33539795404588935
-0.49295630461497514
0.8770917078967961
-0.5326471659740393
0.4720661831058429
-0.6049603668598353
0.3888242604100568
-0.33221403175499487
0.8980018822925975
0.05139291454119785
0.03141285665565636
-0.5413677710899952
-0.09079575739101804
0.729525791472384
-0.891353900769064
0.5172278593298801
0.5379315047983624
-0.14441483731862212
0.637456968665527
0.20719180482975286
-0.8487686719853728
0.9807121202257351
-0.09274522507982401
0.1953236105253686
-0.4750428194844092
-0.34878602373354683
0.2183146909795766
0.38996845744523334
0.4633005586050606
0.016970979398109265
0.2681797532755894
0.3772355944196308
0.4918123229508887
-0.5001893320491304
0.07619600313696928
-0.7711924271661512
0.30910283259053295
0.7240209196267785
0.2298349287407523
-0.8109963952563386
0.08975342781230991
0.9011545662197226
-0.018573372951619278
0.08995907354520788
-0.5298698648170214
-0.8359720592353124
-0.047732296930319086
0.5496017299997066
0.2069901777453521
0.7239850031630651
0.4067034455923682
0.4531463160549602
0.3358305004265734
-0.3964166160045679
0.3054804237967685
0.40309873811171565
-0.35560719858491635
0.30245664772957054
-0.2653673111450721
-0.5695862130342652
-0.5497064171773163
0.7433695083806413
-0.5457884030607952
-0.6836217989552865
-0.6508594094042894
-0.361656094899746
0.39332239829111904
-0.5063434024504182
-0.2761320186755972
0.37089361998860404
-0.46405371387397665
0.6260761512945404
-0.8280414802362
0.8122015460289397
0.18596716248719858
-0.3057728796671977
-0.5380600686707919
-0.18009096645486466
0.1194014318785949
-0.8261825680479828
0.02498847101266838
-0.4343568214637305
-0.5203050453846398
0.8474774888144897
-0.7081542847375853
0.4012978980070443
-0.1330056510083207
-0.017019919618392297
0.7261514294860566
0.1978945583640253
0.12162110791210329
-0.3567718333204753
-0.5425159509473367
0.26288335123828166
-0.7148326102463123
-0.521100005296759
-0.18778858843815682
-0.3550787781815279
-0.7616822533590539
-0.5780160374443696
-0.4017828603545911
0.7299845616960445
-0.4846137808073664
-0.1526800745433119
-0.6184678288862967
-0.9997145646989378
-0.9692913615996781
0.86777772534584
0.11184004479860103
-0.24974026680553388
0.9536702560294683
-0.8513710905816052
-0.39771598201224456
-0.6952407499186706
0.6184381497422666
-0.19034415130919533
0.5768990826617516
0.31407897701468107
-0.4866220304995892
-0.08094537406770232
0.36361107867771264
0.8415836311340779
-0.004365685120504849
0.03720595812640382
-0.6614316715551078
0.6134144832963903
-0.4612121274820896
0.9607185452355573
-0.6061469517712489
-0.2479571954224096
-0.5241700771231206
0.026797904086450126
0.3248324290284562
0.6478454346115853
-0.0035788244778365104
0.8336796270305725
0.5937903494994078
0.2988577908660686
-0.6884035844363837
-0.3346995346866013
0.6220102762396459
-0.7434774706169848
-0.0182470412907614
0.08106485772946848
0.8053754373914909
-0.5574252330164501
-0.03970196123423691
-0.8680103939764946
-0.09397362159165092
-0.7266808340805019
-0.6487058221797907
-0.052510715914169
-0.32432307982497854
-0.7795978543822536
0.5752336838095744
-0.603137039337854
-0.1841572548700405
-0.6028128762348129
-0.8434192528251551
-0.0018114415477732718
-0.12662533493766587
0.4828142199528496
-0.03285673230756781
-0.9210211119860915
-0.3134090147378041
-0.02324206917688629
-0.9097362264832547
0.5924666895656231
-0.5933300099644951
0.504650110016397
-0.6629007635298201
0.0897245300468403
-0.1909341638248676
0.041283094192189645
-0.5373317641522013
0.6518717476809844
0.37955305978960413
-0.9418849572726719
0.7714480172461241
0.36183953211652814
-0.6409674127895019
-0.18425635904881812
-0.37897106636010663
0.5748377922191273
0.546836501337444
0.39443330252986675
0.1409357500894086
0.2354956748600215
-0.460993318794081
-0.9032799420357935
-0.09294281994202086
0.3924024202766383
-0.6097636582232926
0.8258877098685081
0.538885422680515
0.40137287491085016
-0.5367475493597056
0.6024015531441183
-0.3885450528904046
0.2280208022471983
0.05030398531939387
0.21207310449444702
0.4810133778741373
-0.7800528276040373
-0.9334711029983539
-0.15913911896933441
-0.7792016060164496
-0.4827168495785609
-0.4879071277612876
0.23570249982733987
-0.15458153447066147
-0.7931176422151723
0.9395144735945172
-0.4859035473967726
0.4080522424444508
-0.5397703463977216
-0.2543970145633621
0.5698061117379762
0.7597129269916685
0.9389291422071748
-0.946510020916922
-0.9965109193333413
0.6118692021325698
-0.04969441268666708
-0.8953364140021653
0.9733683682835449
-0.49149337939681903
-0.07738451889689259
0.10253707198003534
-0.05242441706255068
-0.19290898327447187
0.6696554654235294
-0.5757396341651886
-0.8240464614155879
-0.5942594597854738
0.45417292241467644
-0.06603181585360843
-0.3677234937518065
0.19686668667985924
0.6119213549212518
-0.4859303104593907
0.10116793394549183
0.05114513567948386
0.8217319686369406
-0.9541808168271514
-0.27466103145440096
-0.604165055180675
0.3746646655180757
-0.7430117407444312
0.8192388524743597
-0.17660817030545503
0.5992889217648274
-0.1858183983601459
-0.3159298078818369
-0.30297778235757644
0.6981882158502309
0.08283899414049074
-0.40599415517864545
-0.34497218009019837
-0.010856770592623088
0.2437030189169372
-0.8382253986633266
0.7003380052734713
0.8757086566670342
0.885608254022128
-0.8174619318967064
0.589082222561793
-0.1292052085655703
0.08720244053099185
-0.7017825678836446
0.30701444201463823
0.9350390349875117
0.22376480206074803
-0.7144791846587603
-0.3003117321781187
-0.6780881333127912
0.5133901457596064
0.8740362361760953
0.8836569340220947
0.6164393076757919
-0.6453600861010377
0.9525768999787279
-0.32640159318350764
0.3071710501113044
-0.5322867886661368
-0.13590339545321325
0.6693376967986254
0.19606563260797177
-0.8283871513559529
-0.5493415104756663
0.7609918038899548
-0.036842318760211386
0.5211713063988873
-0.6141446147518261
-0.12548766391980182
0.5052624122968495
0.3886513879010838
-0.6186135336301345
-0.42959234325717766
0.4790382394493677
-0.11202412015893623
-0.2400359311145232
0.8210964357811699
0.8616408276746497
0.8500593327144224
0.8520806985561239
0.1974311110123312
0.023854753496440752
0.36221446829878234
0.2559655196595432
0.41431400874112057
-0.9926379584225425
-0.03308682701154822
0.3874425391046981
0.4437947100302169
0.7297458355451656
-0.7325047313043805
-0.17504649402636469
-0.5781967040281052
0.9208734218600317
0.7311016336744774
-0.12641020487926563
0.4838942488496943
0.20861908527716513
0.17232588386184075
-0.8561059180800406
-0.18912149760486
-0.8430774496887157
-0.563544051297929
0.11114795307962949
0.3814471493038207
-0.6762461520437006
-0.6103358952852542
-0.33367589620278487
-0.584626094033801
-0.9621731997790245
-0.7277070388999867
-0.15167830827895218
0.4052694410075639
0.04522755474953357
-0.834719617932093
0.3218212695343764
0.5567316301228941
0.3576652891309331
0.8641184527892595
-0.9289920756527392
0.09814723099705437
0.6881493291731041
0.8924612175394513
-0.5773442135776721
0.7305138182613036
0.4710146939858043
-0.4169942647784334
-0.8583529074339652
-0.08297885461801481
-0.5595923241042908
-0.37498365500894043
-0.47043461456446034
0.6700934953753281
0.11906005900118173
-0.033878550057855845
-0.6000778689214764
-0.19039719821337067
0.9840363173387093
-0.10325574059851772
0.5694106412264553
-0.48608430909815115
-0.29897948568570687
-0.06454380778693761
-0.7423097784524195
-0.697983974174476
-0.5837421131522257
-0.7910224501123151
-0.5124456008032519
0.9164660083977548
0.3149643864456318
-0.36712304014694
-0.8569150347620073
0.821341223123335
-0.43587571923655516
0.8270898723397083
0.2944358652900046
0.6397850514011209
0.15317778336980392
-0.008673986057437914
-0.01575063677832041
-0.2362228948141752
-0.6029044789489807
0.2325945675741858
0.4573649655105453
-0.34173894824553586
0.20845877860346854
0.2136642306834408
-0.4739912377077197
-0.02959469764579781
-0.41146106368947627
-0.15269316967407737
0.573098961628593
0.34172349302592386
0.40892394177781916
0.11543031798425799
0.45182789420583946
-0.8097447962763055
0.6584091082447929
-0.7796581603402806
-0.6344729301244852
0.640287586894188
0.916684430649911
-0.8136989189545497
-0.9404396622221004
0.08011457917232005
0.7906811291856307
-0.26036271184654985
-0.9777979370877871
0.14811938468691246
-0.15934297986273332
0.8827874263263588
-0.8226818300300003
0.48030952161784407
-0.4560849107611828
-0.18361230979909238
-0.672598280568884
0.6929605842494564
-0.8910907462000814
-0.9433425207815549
0.763064929782829
-0.5593754059018141
-0.6962738713947535
-0.3134510210136378
0.4699362375778911
-0.8520146908601272
0.4334723257811309
0.811083986503353
0.19610174812327683
-0.4553196271324754
-0.9185795611641914
-0.5685392165344776
0.6296319415529459
-0.4203417063729861
0.509569162160515
0.9544486154020373
0.16117646077848372
-0.6105653018504068
-0.42399822435718965
0.45365177778171323
0.3731856275767065
-0.0029981086507339144
-0.07398487090062765
0.5864654631335123
-0.10761787088449591
-0.4118800147213136
0.5935824175114928
-0.5727553820412604
-0.3133105229341008
0.7789521310289594
0.002721588083965205
0.43404545734252237
0.8221684548200375
0.860100892935553
-0.5370542320718326
0.4738296929806295
0.5526606227663775
0.3043288071501407
-0.4347713467240342
0.09381202784662605
0.133494480950045
-0.8195379436212775
-0.6686292506766384
-0.6622806822498677
-0.719100997822715
-0.23652391217651697
0.16380487044086153
0.8396589861170861
-0.1905192045062275
-0.9188235444508798
-0.931280549227688
-0.2795234233136727
-0.7299561422286919
-0.03149154412189606
0.9845315690697046
0.9259050458104772
0.2119522476124094
0.8676916204100722
0.3991774418027001
0.127274149094894
-0.9040892542999208
-0.9851860812324311
-0.430535049349507
0.8881149136164188
-0.5429788634995705
-0.8846444395451226
-0.3332671991093366
-0.38495892087693884
-0.5149227153426523
0.686721912348422
-0.5437761358988956
0.7735374917018321
0.7476147622453954
-0.8794096850998377
0.4685390127825641
-0.2816385311844452
-0.5911906185646929
-0.5757701207043817
0.566920684787099
-0.22467054580898652
0.931215530697293
-0.36747938832382065
-0.7751945412956806
-0.4352803549079587
-0.7576762639513387
0.6625076808899336
0.6073835509791204
0.4577907977318579
0.6096159119261277
0.8705444464815674
0.12397037347739875
0.021617356605971378
-0.9813281607271922
-0.47162055615416526
0.0027468636696236807
0.9066894742415883
-0.5577642773808931
-0.19218859239171723
0.4792960412465433
0.9882276119451968
0.37764958981571395
-0.3839765890222214
-0.6070540081788908
-0.8570471449131605
-0.18586256840276932
-0.3887216805178162
-0.3299049148441069
-0.6143831928589002
0.5138625199114841
-0.34722868348158487
-0.3580223983875182
0.5896960532155455
0.19130991088150623
-0.3582149237357003
0.037804200803417315
0.2712453171338616
-0.71009682004272
-0.8600315319439564
0.42914129280862323
0.22568782868394857
-0.4989012302934637
0.4921820335160583
-0.4948637093378475
0.8351941591262654
-0.5187761508781953
-0.39488053997132005
-0.16997668632068574
-0.46979622886148953
-0.4844923364868806
0.44953390772271007
-0.6631755049043326
-0.8073529919573591
0.4995385552180261
-0.7240477860301605
0.7623692738709835
-0.6666679988534642
-0.4879555657516857
0.0509462875083454
0.3439452043636753
0.32873088204329626
-0.7027883854472793
-0.616723675004983
0.4000737147733258
-0.40853276311847
0.5750288945743981
0.10643600577815811
-0.7288219697138296
0.1556332598777782
-0.6583197450002366
0.47921368502491646
-0.3949398362681552
-0.6169952203900874
-0.4759616345766345
-0.8829762432241774
-0.15958389586970567
-0.2102032587716414
-0.08317562319560219
-0.29391355416739007
-0.8572248884763667
0.8974370498433532
0.5860004045308776
0.27822939113846185
-0.12923181611353668
0.8926532522232125
0.257587449767218
-0.3010793735813213
-0.5491517678537862
0.9153418037766498
-0.3657215810548354
-0.8193757109709028
0.7941751955999888
-0.8023082633728933
-0.05365444382313682
-0.9275491088575888
-0.6707399635582643
0.3837765164300707
0.4586724935305607
-0.7253630662792925
0.6564866701591195
-0.06075179530499093
0.11023242827533206
-0.07914882934515959
-1.0076726439388992
0.3211769883595743
0.3105317096419404
-0.8234192837258356
0.12143869832670086
0.6679626185066239
0.9300203716466383
0.7595452005974368
-0.9297023814796793
-0.8555220292109676
-0.07841305804688548
0.013678691208008159
-0.7568402066924189
-0.01718782747081102
0.42486057832348717
0.07234418489256231
-0.13137753569911426
0.7945931413621803
-0.06319674489220553
-0.16438605688516705
-0.7128261744658888
-0.14945591381701304
0.8921834124849933
0.5254587056955714
-0.585836362604367
0.4454474355395745
-0.7532280876767419
0.1061352996859704
0.831085112150065
-0.574767234375727
-0.42560698878465786
-0.34654549608254365
-0.3099657553652073
-0.5256654725001796
-0.34596711668844293
0.6266214948732892
-0.6202411484441531
-0.6324667379603204
0.18415280745541157
0.6155692317311262
0.31003725057967224
0.7517208479271273
0.1329123512426999
0.785397420176929
0.26512458562475605
-0.0010527986204918421
-0.5557118629650861
0.7156714528170494
0.153870226259151
-0.705138259239841
0.20967783561763595
0.17785949485261518
-0.15152851298933298
-0.474082757334361
0.22450078974905494
-0.3631480427591652
-0.43691275072473085
0.061155852294985984
-0.5265455083475078
0.06325157961968703
0.49514879270285544
0.8815211849425825
-0.1217468408934748
-0.09109002252880814
0.08103896941719037
0.9149904183468222
-0.7154603613260211
-0.6901056856949012
-0.5245292300042744
-0.6319488107145621
0.9879875288436005
0.9013184843921016
-0.4822530103763129
0.24831710883924074
0.31622834570643954
-1.021314665733056
-0.052835811812230876
0.45473328431731364
-0.07972847762633141
-0.2767505489574731
0.8101910068548629
-0.6816339014533863
-0.46259063463208655
-0.5156215108504033
-0.035463297139141134
0.269713505991949
-0.7562939761040066
-0.6042165759921004
0.5738059457882952
-0.33550526629683114
-0.5990823586508229
-0.3906530858761224
0.12298772581841286
0.6989643692527332
0.7124952032192055
0.6213404501936557
-0.6244684950720218
0.5230592462647282
-0.9634864741921652
-0.09117267799907575
0.5906367191703479
0.638349709541326
-0.6287193366178819
0.4940564982348927
0.6720597236056022
-0.9071571399112561
0.13540429710261556
0.30538952438519795
0.31602690506686376
-0.3642106194380246
-0.8756145782595026
-0.4620202910263699
-0.6226829749439861
-0.6931648775948297
-0.1786970368244189
0.2859286399147964
-0.0753417385927384
0.6235634228430492
-0.9270965230092896
-0.5494402656250428
-0.46284808131154676
0.14160517842506795
0.09044896859504908
0.8515222715118829
0.28839098574642713
-0.23613399028864004
-0.7374839650330834
-0.2868340828232002
-0.2074236476171647
0.4991998218859483
-0.3584519008292493
-0.45356857768028513
-0.9189100030895274
0.2553370913088529
-0.42137924070573973
0.7407944597296672
0.7770492662427937
-0.9719474870665546
0.024294188828185372
-0.8422077607206295
0.16519640712948402
0.6406574750567277
0.31145928383940735
0.682330415705118
-0.18828468946609508
-0.5213189509976646
-0.5470875613067683
-0.8597307251733928
-0.669723516621943
-0.4734849054056089
-0.8918847986275266
0.15863372108320048
0.9217842709574224
0.8447238748532431
-0.8831305348854213
-0.9112397557249395
0.4137487928015146
0.1625974855067524
0.6255046555671967
-0.32017049412324544
-0.9066852587017139
0.5137676394734728
-0.06041622792861667
-0.3012949942932475
-0.17144832210160227
-0.16027531049828622
0.14506139376638705
0.6760692814404751
-0.06271606441438979
-0.6153432119561956
0.09735541589494019
0.11379916654097477
0.8866115939517019
-1.012159620738843
0.14478302776792562
-0.5713287381789702
0.4019752399194883
-0.05843635081782447
0.0718440877102695
0.08914700050878838
-0.9401121227340787
-0.6947613695653672
0.5443757340352618
-0.8457583054021778
-0.40071549818942087
0.8420723156194355
0.4729956655057764
0.6237552069254585
0.010231509216233246
0.459492755647891
0.7217916106195204
0.9012127752009343
-0.42080044595822097
-0.7479841148923012
0.5784628736279742
0.6511790255197246
-0.8749326974518461
-0.49506012040296515
0.3842734121024184
0.7516911781967233
0.18559685252331104
-0.21990249217318014
-0.4977411447265503
0.4194221906547088
-0.9585778697187288
-0.7303295344775035
-0.899549614738225
0.6271714194165863
-0.07630164185863587
-0.5941137882409424
-0.6116042275958768
0.04993348147847983
-0.7586624338813427
0.41573647172271244
0.18418581825448266
0.362718489333756
-0.5006548061923513
0.40408846762778106
-0.592522338396538
-0.8487967557444688
0.4667852613713428
-0.3463351969747669
-0.3275082134791168
-0.8786782855290072
-0.26869836147378257
0.5465853560160396
0.26440099785644566
0.6393053364225012
0.10616091099813914
0.2288429573321322
-0.5128782694502757
-0.7320569875775375
0.6357235576453002
0.5320012031822158
0.26833474518513356
-0.1303549511747185
-0.5666097625769172
0.32495487522158345
-0.01009686121629439
0.04985262591294748
0.5284822336215917
0.8829779710097645
0.8615546501944962
-0.6407415518760227
-0.08130035129061827
-0.4744882128409447
0.5091970067988619
-0.4651784662532118
-0.5779870424158986
0.6968900444866227
-0.6677474591021602
0.6234084382350255
-0.6130456497830937
-0.88185579533232
-0.17711457331279037
-0.20628175118319467
0.2912964619157056
-0.17771663000823076
0.5052606890458218
-0.816489913420799
0.6426176712229149
0.7061396164196815
0.04995047201055505
-0.8825294992655294
-0.8707445672488711
-0.03827631037124601
-0.3308700307519163
0.925740939637398
0.4591867426464252
0.37699933609441055
-0.7949111163189051
0.35826353018884666
-0.8368174877487266
-0.7762947245297963
-0.6467601348307872
0.25911180132642947
0.32020409149874296
-0.6370383221887638
0.6780390610012365
0.5268639435431695
0.3406355510029742
0.654614888929508
-0.468177818672253
0.5889756529389628
0.9337527022806761
-0.38319977213006223
0.0016306593824148602
0.6883261205193169
0.7240951708875424
-0.5685806731779387
0.8237812696300328
-0.760454329904233
-0.34841965647151313
0.8927652849253402
0.08970664821541192
-0.998303003364971
0.5345680492146132
0.08727787110125569
-0.9719706127341741
-0.8043978435896426
0.2840449672765146
-0.4734208734371133
0.3122431664434512
0.8336054459890929
-0.7787360086250077
-0.4726912603658036
-0.10154270605442986
0.4795139742448694
0.3847211057890512
-0.5588040228219737
-0.3218960155280486
-0.4891064469591422
0.6562478869464782
-0.5661588392849278
-0.7261493963588588
0.09063149834724087
-0.17865461438476882
0.6381099258944563
0.5549789947052335
-0.878384998674914
0.49398255826929
0.10333422320991292
0.4434179676465028
-0.4768308757463739
0.03133408401045788
-0.21358364016450593
-0.40411441158247907
-0.5327105744714198
-0.7101449362114138
0.9020317788879704
-0.8700655905295595
0.7146534686439565
-0.7179646579635718
-0.05726173666471128
0.2887750461298077
-0.261154664136223
-0.9611358369210777
0.16449658096939931
0.5372735270368787
0.5851871314943754
0.7404900296808137
-0.7156797630331249
0.355753457379996
0.3376362568297931
0.17075245403341152
0.3954992901439219
0.3276668291113788
-0.033195218578645866
0.4147869422116654
-0.1733354405259548
0.7556105962591292
-0.3751205844005867
0.5593349484130997
0.9428001909119834
0.6383394705832631
-0.3634614150931155
0.07950105580792938
-0.3211811999925474
-0.3999805382126923
0.9564661286084394
0.7969882714917168
0.8733794809452243
0.06762647959027182
-0.4813371861304175
-1.011917130579883
-0.945678601647727
0.16921135809853655
-0.5998700471504804
0.5199761261836072
-0.3009134523934488
-0.1141680801825416
0.39933333545529426
-0.26283090532699865
0.002995297600320137
-0.6830807151350029
-0.1755125326253103
0.7049924569934993
0.6839784908484545
0.15717747110132568
-0.05929139359642493
-0.6201660485090075
-0.22475703746516368
0.6731805156069371
0.0745808915315996
-0.9361456811147618
0.12156913071702352
-0.6853758136172053
-0.5300575037352122
-0.8202561291151537
-0.4790133243429544
-0.3063003048863332
0.8244582155865839
0.971320420322137
0.5368307780267259
-0.4380939848318236
-0.3779674443785816
-0.20161219721058962
0.9845253049996947
0.14499647197268026
-0.5492386348278353
0.6629482500720197
-0.78610861672542
0.9868015226252778
-0.026142125356026613
0.18681490962242472
0.4307585108078285
0.046955761674388266
0.11971835033128926
0.9235312770743136
-0.08974364201183274
-0.5538199017334005
-0.3321998051248895
0.18177565805308013
0.17822452316825066
-0.4179482814719736
0.4223690020726341
0.6846567271019528
0.12547865312073525
0.28506794714148176
-0.7134611376421313
0.5731676755197221
-0.12428051736267844
0.03475438828996015
0.5033158356737003
0.48708550659251315
-0.1561500377025339
-0.17113999129965987
-0.11251886479572641
0.6433166721923603
0.6799214314581167
-0.6802759054149974
0.9357591786880709
-0.7583270800385065
0.26814394590502666
-0.0837237151184108
0.4574711445986965
-0.7666485080960139
-0.10568516887641036
0.06939076036701039
0.9401179037982795
-0.34133966722663
0.9933061089053429
0.33530999553326213
0.8553539900397283
0.48890462562623205
-0.2728312833522452
0.9298686676616145
-0.12528017003380656
-0.9615024173306533
0.9028831071246468
-0.8907181419535086
0.16794127198347744
-0.08918283941881813
0.9483181111657577
-0.04067967632187506
-0.6538821291615775
-0.5068013240937675
0.4828330085106203
0.9617653110029999
0.9343449556651623
-0.13131840169612544
0.2868009651148301
-0.15603377358873421
0.6774686622820918
-0.826017335171296
-0.0351905328398709
0.700434126209535
0.06935926104596382
0.35432024626132524
-0.841343195750151
0.7797256324804278
0.8052184377699031
0.11850017821761573
-0.3135695727122132
0.8360715651886266
-0.50772300009928
-0.03284958149829057
-0.5725995846193571
-0.2701631311215146
0.60217153616853
0.5535910651164256
0.46365984963672846
-0.8169825788885818
0.9742229599556333
0.6088791518898256
-0.9391114871549836
0.9811427416215908
0.9658935036698443
0.7245421251223395
0.757777490363162
0.7563837492587153
0.8812546558494284
0.020264472909904848
0.34983829638455055
-0.43300286893791773
0.15802799108203125
-0.5981258935766401
0.1793341798036427
0.7852866525933475
0.22370091964473166
0.0978141436817388
0.3032620541333807
-0.318746224174591
0.6470311457667096
0.115643587790625
0.48343646346224073
0.06423627771739882
0.8143424216359063
0.5004765635691301
-0.8568346856402104
0.44592565195828254
-0.1734707991275836
0.42802936244436585
-0.9573480038695601
0.4922488312439252
-0.07815846997348029
0.08287438306783851
-0.4501363829546422
0.29730719101030734
0.02983884804568788
-0.6411036347994022
0.5844732737776656
-0.952237925443552
-0.6054517865898956
-0.5850443149388548
-0.7904617415249426
-0.7903591474331386
-0.9393207708471798
0.04446106786190145
-0.5473663866829024
-0.9615591365322014
0.3715375297927239
-0.8368414939411031
0.6878987537611585
-0.7652694060900381
-0.2879899829219957
-0.8514780757886707
-0.7886587116203522
-0.18496313676391707
0.602273933457617
0.8119513573386455
0.21157736049331188
-0.48611769373799973
0.6112820122982485
-0.7633030133554967
0.5069207587380389
0.8986119945978315
0.472713072764101
-0.21995716354922534
0.004664529192133294
0.9394572952926455
-0.43688591366450036
-0.8952943792724151
-0.7213707408525744
0.6159425705750561
0.33532217241823953
0.16359401237750282
-0.9925047086946026
0.045436047825053824
-0.9088123433126899
0.43123616218016547
-0.7483921911302408
0.231375738927527
-0.7966275463690332
0.02753660001614818
-0.2750884581389506
0.1215028392739675
0.23631735551961047
-0.25288743161551147
-0.22787552687353177
0.6766247253233648
-0.9566151431846257
-0.026827916985391505
0.8149814099066742
0.09171861933695788
0.9454338814341618
0.06747793744807212
-0.2769132574120009
-0.17453493234957632
-0.0362332671085362
0.2652464925178134
0.4288117534638687
0.20331349184050293
0.724311958149848
0.7780970207646355
-0.20314087352167468
0.4938957175950508
0.8724044471326841
0.6065719466250201
0.38768629486539574
0.05536852818178563
0.49600326533058803
-0.7131850489229258
0.9282830756130364
-7.000973043928813E-4
0.3474344134206745
-0.8494387473090362
-0.033161321750937264
-0.9775166392018135
0.40554756922038493
-0.49129692634781114
-0.16115726242206727
0.5910024052130275
-0.7855646102980105
0.9608210617767803
-0.3123856555589966
-0.39697123136448703
-0.4683600557975745
0.05471320264822306
0.7840469182239713
0.47105352797861477
0.4538767261546261
0.4927997929127139
-0.652648801793724
0.7290916100841646
-0.8302406228085459
-0.1719636366955336
-0.5206185148116027
-0.18399306113720418
-0.8811960798819702
0.4642375570800058
-0.6535788465867592
0.5736658125956906
0.9286694862938212
-0.40605761516395045
0.9581272174333177
0.3247831646333785
0.7195723889575014
-0.5336637669885331
0.798648801420283
0.9301928971973376
0.0019997016025131496
-0.4978036663024624
0.6460364683931704
0.010018680767133267
-0.1929028773759024
-0.9610933485768406
0.5093440107213385
-0.38880575585244564
-0.1309927464805035
0.3302788866041185
-0.49492294150961524
0.6377731335138696
0.3380475551302477
-0.28338043702835414
0.9855382721911156
0.056439596032153774
